tree
version=v4
num_class=1
num_tree_per_iteration=1
label_index=0
max_feature_idx=219
objective=lambdarank
feature_names=Column_0 Column_1 Column_2 Column_3 Column_4 Column_5 Column_6 Column_7 Column_8 Column_9 Column_10 Column_11 Column_12 Column_13 Column_14 Column_15 Column_16 Column_17 Column_18 Column_19 Column_20 Column_21 Column_22 Column_23 Column_24 Column_25 Column_26 Column_27 Column_28 Column_29 Column_30 Column_31 Column_32 Column_33 Column_34 Column_35 Column_36 Column_37 Column_38 Column_39 Column_40 Column_41 Column_42 Column_43 Column_44 Column_45 Column_46 Column_47 Column_48 Column_49 Column_50 Column_51 Column_52 Column_53 Column_54 Column_55 Column_56 Column_57 Column_58 Column_59 Column_60 Column_61 Column_62 Column_63 Column_64 Column_65 Column_66 Column_67 Column_68 Column_69 Column_70 Column_71 Column_72 Column_73 Column_74 Column_75 Column_76 Column_77 Column_78 Column_79 Column_80 Column_81 Column_82 Column_83 Column_84 Column_85 Column_86 Column_87 Column_88 Column_89 Column_90 Column_91 Column_92 Column_93 Column_94 Column_95 Column_96 Column_97 Column_98 Column_99 Column_100 Column_101 Column_102 Column_103 Column_104 Column_105 Column_106 Column_107 Column_108 Column_109 Column_110 Column_111 Column_112 Column_113 Column_114 Column_115 Column_116 Column_117 Column_118 Column_119 Column_120 Column_121 Column_122 Column_123 Column_124 Column_125 Column_126 Column_127 Column_128 Column_129 Column_130 Column_131 Column_132 Column_133 Column_134 Column_135 Column_136 Column_137 Column_138 Column_139 Column_140 Column_141 Column_142 Column_143 Column_144 Column_145 Column_146 Column_147 Column_148 Column_149 Column_150 Column_151 Column_152 Column_153 Column_154 Column_155 Column_156 Column_157 Column_158 Column_159 Column_160 Column_161 Column_162 Column_163 Column_164 Column_165 Column_166 Column_167 Column_168 Column_169 Column_170 Column_171 Column_172 Column_173 Column_174 Column_175 Column_176 Column_177 Column_178 Column_179 Column_180 Column_181 Column_182 Column_183 Column_184 Column_185 Column_186 Column_187 Column_188 Column_189 Column_190 Column_191 Column_192 Column_193 Column_194 Column_195 Column_196 Column_197 Column_198 Column_199 Column_200 Column_201 Column_202 Column_203 Column_204 Column_205 Column_206 Column_207 Column_208 Column_209 Column_210 Column_211 Column_212 Column_213 Column_214 Column_215 Column_216 Column_217 Column_218 Column_219
feature_infos=[1:1.7976931348599999e+308] [0:193964] [0:2] [0:58334] [0:141] [0:12632] [0:7] [514:748] [0.500475:0.73832500000000001] [1:223] [1:4] [0:4] [0:4558] [0:4] [0:348.75778200000002] [0:0.24875800000000001] [0:0.24875800000000001] [0:0.24875800000000001] [0:227832] [0:227832] none [0:1] [0:16] [0:1] [0:1] [0:4] [0:8] [0:4] [0:1.1204529999999999] [0:0.24875800000000001] [0:0.24875800000000001] [0:0.24875800000000001] [0:387] [0:387] [0:1] [0:1] [0:16] [0:1] [0:1] [0:4] [0:6] [0:4] [0:0.37348399999999998] [0:0.24875800000000001] [0:0.24875800000000001] [0:0.24875800000000001] [0:87] [0:87] none [0:1] [0:16] [0:1] [0:1] [0:3] [0:4] [0:3] [0:0.373473] [0:0.24875800000000001] [0:0.24875800000000001] [0:0.24875800000000001] [0:9] [0:9] none [0:1] [0:16] [0:1] [0:1] [0:4] [0:44] [0:4] [0:2.0739920000000001] [0:0.24875800000000001] [0:0.24875800000000001] [0:0.24875800000000001] [0:211] [0:211] [0:1] [0:1] [0:16] [0:1] [0:1] none none none none none none none none none none none none none none [0:3] [0:3] [0:3] [0:0.33046399999999998] [0:0.18673600000000001] [0:0.18673600000000001] [0:0.18673600000000001] [0:12] [0:12] [0:1] [0:1] [0:16] [0:1] [0:1] [0:4] [0:28] [0:4] [0:1.455667] [0:0.24875800000000001] [0:0.24875800000000001] [0:0.24875800000000001] [0:1445] [0:1445] none [0:1] [0:16] [0:1] [0:1] [1:4] [1:4558] [1:4] [0.0121338:348.75778200000002] [0.0058960000000000002:0.24875800000000001] [0.009129:0.24875800000000001] [0.0097756000000000006:0.24875800000000001] [1:227832] [1:227832] [0:1] none [0:16] [0:1] [0.34999999999999998:1] [1:18] [1:4558] [1:18] [0.031189000000000001:348.75778200000002] [0.0058960000000000002:1.3071520000000001] [0.025294000000000001:1.3071520000000001] [0.031189000000000001:1.3071520000000001] [1:227832] [1:227832] [0:2] [1:7] [0:112] [0:7] [1:7] [1:4] [1:4558] [1:4] [0.025294000000000001:348.75778200000002] [0.0058960000000000002:0.24875800000000001] [0.025294000000000001:0.24875800000000001] [0.025294000000000001:0.24875800000000001] [1:227832] [1:227832] [0:1] none [0:16] [0:1] [0.5:1] [1:4] [1:4558] [1:4] [0.0058960000000000002:348.75778200000002] [0.0058960000000000002:0.24875800000000001] [0.0058960000000000002:0.24875800000000001] [0.0058960000000000002:0.24875800000000001] [1:227832] [1:227832] none none [0:16] [0:1] [0.25:1] [1:1519.33333333] [0.015594999999999999:0.24875800000000001] [1:4558] [0.031189999999999999:0.24875800000000001] [1:4547] [1:1402] [0.025294000000000001:0.24875800000000001] [0.0058960000000000002:0.24875800000000001] [0:165] [1:7] [3:108] [1:12] [0:3] [0:20] [1:1.7976931348599999e+308] [0:84] [500219:740915] [0:1] none [0:15] [2:23] [0:2] [0:316] none [0:1] none none [2:5] [0:21] [0:1477] [0:374] [0:12606] [0:8964] [0:100] [0:1] [0:1] [0:100] [0:1] [0:1] none [0:44]
tree_sizes=3486 3445 3431 3433 3437 3436 3417 3429 3442 3440 3450 3439 3432 3445 3453 3429 3442 3432 3458 3447 3451 3438 3435 3437 3443 3464 3449 3460 3430 3453 3447 3437 3440 3458 3442 3441 3443 3456 3450 3451 3457 3472 3461 3467 3478 3451 3458 3485 3467 3472 3476 3476 3465 3470 3475 3479 3478 3484 3499 3476 3473 3472 3475 3486 3484 3475 3488 3474 3482 3474 3481 3482 3488 3487 3506 3484 3496 3505 3505 3507 3508 3504 3514 3509 3507 3508 3496 3505 3526 3505 3517 3532 3517 3525 3504 3519 3531 3535 3499 3515

Tree=0
num_leaves=31
num_cat=0
split_feature=173 0 134 55 144 193 0 189 195 42 193 195 135 141 74 129 59 192 6 8 6 193 1 187 173 130 99 141 194 117
split_gain=168.422 54.2259 13.1611 8.13904 8.0979 12.1681 6.67166 3.41236 5.57917 3.2218 2.7358 2.52274 1.5555 1.54123 1.1843 0.710519 3.22067 0.671199 0.609955 0.560674 0.367818 1.97312 0.845609 0.272988 0.232953 0.951021 0.221634 1.02576 1.47923 0.193317
threshold=6.5000000000000009 24614289.500000004 13.900000000000002 1.5000000000000002 46.500000000000007 16821.000000000004 463.00000000000006 9.5000000000000018 547357.50000000012 0.093181500000000014 17170.500000000004 545570.00000000012 0.22500000000000003 0.74660900000000019 2.5000000000000004 0.037113250000000007 0.025758500000000004 13.500000000000002 1.5000000000000002 0.66147700000000009 1.0000000180025095e-35 3519.0000000000005 2589.5000000000005 8.5000000000000018 8.5000000000000018 395.50000000000006 0.038187000000000006 0.69701500000000005 2.5000000000000004 16.500000000000004
decision_type=2 2 2 2 2 2 2 2 2 2 2 2 2 2 2 2 2 2 2 2 2 2 2 2 2 2 2 2 2 2
left_child=1 2 7 14 5 11 -4 15 -9 24 13 -2 -8 29 -3 16 -1 -11 -12 -15 21 -17 -23 -20 25 -6 -22 28 -28 -10
right_child=4 3 6 -5 9 -7 12 8 10 17 18 -13 -14 19 -16 20 -18 -19 23 -21 26 22 -24 -25 -26 -27 27 -29 -30 -31
leaf_value=-0.10000000000000005 -0.10000000000000001 -0.099425133684585193 -0.099999999999999978 0.058292746161753894 -0.099999999999997577 -0.097400276852143142 0.095554216840470885 -0.097167838987665039 0.09116459220427707 -0.078850421651330216 -0.09293510755930251 0.093082655843997941 -0.099999999999999339 -0.099999999999999423 -0.022898407475465385 0.09413007085989708 0.099999999999999895 0.080341479504339952 0.094376821012462836 0.099999999999997813 0.098665280443783962 -0.090277691001875965 0.087724871613801464 -0.099999999999995759 -0.099409157151346905 0.099999999999998659 -0.070501821467189071 0.099737748429702677 0.089549127986098931 0.018097167997873101
leaf_weight=0.25778228585841023 0.18834819435141881 5.3421395390178068 1.4410816077142947 1.0600744994590057 0.29203263676027447 2.3884801975218579 0.82164291944354784 0.57237493590218846 3.5633023854170469 0.084544286597519114 0.29281472723232571 1.661521013418678 0.11605239834170766 0.15229830727912474 0.55841092870105047 2.2571202911785799 0.91855823248624802 0.30539528524968773 0.077937678550370038 0.04551453422755003 27.187033686728686 0.22781227063387621 0.094353903667069972 0.023512542829848826 27.783639594475972 0.074628310278058052 0.23904519411735181 2.2006995806004852 0.3644788006786257 0.092883259523659834
leaf_count=166 236 649 207 33 198 940 862 807 1001 138 957 198 766 74 34 417 27 128 31 28 651 541 13 103 10637 5 36 34 12 71
internal_value=-2.36119e-10 0.0597541 0.0816867 -0.0692661 -0.0873324 -0.0228425 -0.0324545 0.0887267 0.0493762 -0.0969095 0.0691203 0.0734236 0.0713518 0.0819537 -0.0921829 0.0943479 0.0561722 0.0458265 -0.0563289 -0.0539822 0.0957266 0.0776082 -0.0381455 0.0493272 -0.0988866 -0.059293 0.0972848 0.0839015 0.0261558 0.0893084
internal_weight=80.6855 47.9069 40.9463 6.96062 32.7786 4.23835 2.37878 38.5675 4.82064 28.5402 4.24826 1.84987 0.937695 3.854 5.90055 33.7469 1.17634 0.38994 0.394265 0.197813 32.5705 2.57929 0.322166 0.10145 28.1503 0.366661 29.9913 2.80422 0.603524 3.65619
internal_count=20000 7520 6804 716 12480 1374 1835 4969 3072 11106 2265 434 1628 1174 683 1897 193 266 1091 102 1704 971 554 134 10840 203 733 82 48 1072
is_linear=0
shrinkage=0.05


Tree=1
num_leaves=31
num_cat=0
split_feature=189 150 3 3 142 195 193 210 193 193 208 172 126 39 193 193 7 199 147 201 212 203 60 7 5 143 137 7 193 8
split_gain=270.366 142.989 34.2744 31.745 29.3838 14.9978 12.397 12.1693 10.9334 8.8516 10.3553 8.49335 8.10677 7.67984 7.27309 9.28878 6.77729 6.65148 6.07871 4.82853 4.48802 5.66436 4.05142 3.96219 3.92989 3.65007 3.2332 2.84759 2.58875 2.50337
threshold=7.5000000000000009 1.5833333333350004 3.5000000000000004 12.500000000000002 0.17589150000000001 529896.00000000012 24777.000000000004 17.500000000000004 116.50000000000001 1623.5000000000002 1.0000000180025095e-35 2.5000000000000004 0.27623200000000009 1.5000000000000002 1006.5000000000001 37.500000000000007 557.50000000000011 4.5000000000000009 4.5000000000000009 226.50000000000003 1.5000000000000002 1.0000000180025095e-35 3.5000000000000004 725.00000000000011 11.500000000000002 0.27154500000000004 9.5000000000000018 543.50000000000011 1540.0000000000002 0.54035400000000011
decision_type=2 2 2 2 2 2 2 2 2 2 2 2 2 2 2 2 2 2 2 2 2 2 2 2 2 2 2 2 2 2
left_child=1 8 7 9 -5 29 20 18 17 10 12 16 24 -12 15 -9 -8 -1 -3 22 21 25 -18 26 -2 -7 -11 -15 -26 -4
right_child=3 2 5 4 -6 6 11 14 -10 23 13 -13 -14 27 -16 -17 19 -19 -20 -21 -22 -23 -24 -25 28 -27 -28 -29 -30 -31
leaf_value=-0.090967875309590662 0.036435411065191839 0.067552640741481318 -0.097893404151975186 -0.086815724385077619 0.070662204514667259 -0.067080428665466804 -0.063678741728251068 -0.097256173265533721 -0.090001502896852381 -0.093375103496588466 -0.086152691598581951 -0.084742903716452045 0.036411050076544993 0.089588465866289282 -0.087229936017882967 0.027545318217836231 -0.063393391668670723 0.065528238371070843 -0.06284212411932022 0.076227824262901964 0.085830757477084768 0.071660386896516617 0.052283784730007971 0.10022894884146841 -0.077081633659879745 0.038596228972269442 0.00069279867961304846 -0.046282411784597514 0.078384781388374181 0.099064931321093397
leaf_weight=1.0292981127277046 1.0507823271327668 6.4145923462929231 1.5001163647393685 4.9082908374839445 7.4707687934278511 1.2277070069685607 1.3299659868935112 2.0009687663987261 19.250645327323582 49.470483741723001 19.277260081551507 1.4536475726054039 4.2670628289342858 0.86674619908444472 3.9814371173270047 5.8492719307541847 1.3256160402670496 1.9948882007738573 1.0384771808749063 8.0158279829192889 75.385335282131564 17.229679418727756 1.7643771721050141 0.27051976323127647 5.2143445024266839 2.4432499306276441 0.93064336571842332 0.69470848387572914 0.28226208442356426 0.18077188491588447
leaf_count=289 27 119 361 1157 98 39 60 88 4682 9243 1862 95 122 7 394 100 35 78 88 68 277 104 26 1 452 24 62 35 5 2
internal_value=-6.40497e-10 0.0410076 0.0609017 -0.0664303 0.00822229 0.0715153 0.0737767 -0.000659821 -0.0761172 -0.0776557 -0.0569119 0.0296171 -0.0172132 -0.0775139 -0.0321837 -0.00426567 0.0429849 0.0122639 0.049384 0.0557583 0.0801468 0.0596456 0.00265794 -0.0906138 -0.0521612 0.00325395 -0.0916382 0.029138 -0.0690981 -0.0767114
internal_weight=248.12 153.416 131.141 94.7039 12.3791 111.856 110.175 19.2847 22.2748 82.3248 31.6532 13.8894 10.8145 20.8387 11.8317 7.85024 12.4358 3.02419 7.45307 11.1058 96.286 20.9006 3.08999 50.6716 6.54739 3.67096 50.4011 1.56145 5.49661 1.68089
internal_count=20000 6929 1880 13071 1255 1091 728 789 5049 11816 2510 284 606 1904 582 188 189 367 207 129 444 167 61 9306 484 63 9305 42 457 363
is_linear=0
shrinkage=0.05


Tree=2
num_leaves=31
num_cat=0
split_feature=150 3 57 189 184 189 116 126 0 193 3 33 3 28 137 149 199 1 0 195 192 123 4 28 113 195 3 8 1 135
split_gain=235.763 98.0463 44.6539 18.4516 14.3242 12.0499 10.2475 10.1864 6.45021 5.86612 5.71846 5.41133 5.31264 4.64105 4.53314 4.32291 8.5184 3.66393 3.49772 3.38172 3.29496 3.21371 2.88912 5.59749 2.80405 2.80127 2.70777 3.36708 2.27895 2.15056
threshold=2.7083333333350006 6.5000000000000009 0.025758500000000004 8.5000000000000018 6.5000000000000009 7.5000000000000009 4.5000000000000009 2.3947890000000007 8556.0000000000018 136.00000000000003 88.500000000000014 3.5000000000000004 23.500000000000004 0.099775000000000016 9.5000000000000018 1.5000000000000002 3.5000000000000004 409.50000000000006 415163.50000000006 548677.50000000012 10.500000000000002 1.4500000000000002 50.000000000000007 0.10510000000000001 0.18673900000000002 648395.50000000012 2270.5000000000005 0.5864815000000001 753.50000000000011 0.63333333333350017
decision_type=2 2 2 2 2 2 2 2 2 2 2 2 2 2 2 2 2 2 2 2 2 2 2 2 2 2 2 2 2 2
left_child=2 3 4 6 15 19 13 9 28 11 17 -5 -10 29 -11 26 20 -3 -19 21 -17 -4 23 -12 -15 -7 -1 -28 -6 -2
right_child=1 10 5 7 8 25 -8 -9 12 14 22 -13 -14 24 -16 16 -18 18 -20 -21 -22 -23 -24 -25 -26 -27 27 -29 -30 -31
leaf_value=-0.084061400075944662 -0.016613951480235527 0.06657389631558569 -0.08026036426897952 0.049153155184292696 0.081079653659015927 -0.087903895129930243 -0.061328880590738988 0.079512296989276865 -0.084212799000950633 -0.081085502556580077 -0.030309102945814115 -0.07492165166123857 0.021508428555169205 -0.019596616128468466 0.015749477621975892 -0.084101129468103025 -0.077506677399832732 0.041150282309995623 -0.034137101591798578 0.052556444270746419 0.047755933506546361 0.05680027557094483 0.079998716337305792 0.068263661251699526 0.080274166660448287 0.049579565867596875 -0.085975243836239279 0.081263229176925245 -0.0098154513842162519 0.06491930656361454
leaf_weight=67.438280425267294 0.90326236374676216 16.427171338349584 1.012182218953966 2.0524391648359663 1.9763508629985138 2.6350549808703359 3.5478426897898308 1.3456875993870188 3.0514098152052611 16.5624689727556 1.7490904205478717 1.5367458111140875 1.9462009870912877 4.3478994497563681 1.3037114567123342 0.58723610104061519 7.2145952358841896 13.346224738750605 1.7443252396769811 10.738658267538993 2.4524247816298157 0.74062145547941316 60.157755653373897 8.1547780265100283 0.83834340143948782 0.43112387321889389 0.65065206517465302 0.56000727647915483 1.0591609764378516 7.7304494942072797
leaf_count=12743 111 119 43 59 6 379 384 12 548 2753 80 265 102 244 63 60 1090 142 93 96 64 8 177 32 4 11 126 6 82 98
internal_value=-5.18676e-10 0.0417722 -0.0577706 -0.0243557 -0.0717318 0.0202446 0.0144726 -0.0539316 -0.00812416 -0.0623012 0.0679221 -0.00397073 -0.0430422 0.0339322 -0.0740194 -0.0782077 -0.0479263 0.0502345 0.0324478 0.0420459 0.0222823 -0.0223474 0.075879 0.050855 -0.00345275 -0.0685729 -0.0827309 -0.00861677 0.0493642 0.0563893
internal_weight=244.242 141.748 102.494 40.1689 86.9363 15.5576 17.3678 22.8011 8.03312 21.4554 101.579 3.58918 4.99761 13.82 17.8662 78.9032 10.2543 31.5177 15.0905 12.4915 3.03966 1.7528 70.0616 9.90387 5.18624 3.06618 68.6489 1.21066 3.03551 8.63371
internal_count=20000 4636 15364 3993 14827 537 841 3152 738 3140 643 324 650 457 2816 14089 1214 354 235 147 124 51 289 112 248 390 12875 132 88 209
is_linear=0
shrinkage=0.05


Tree=3
num_leaves=31
num_cat=0
split_feature=150 3 56 189 144 0 168 211 116 193 189 137 56 193 60 3 184 16 149 6 203 193 4 7 46 184 208 158 28 0
split_gain=239.593 85.0022 30.9827 12.3903 10.0885 10.6132 10.7287 8.4491 8.42174 6.34446 5.24802 4.5148 4.46073 4.13695 5.79353 3.42953 4.54847 5.77267 3.12242 6.1569 2.98943 2.52994 2.0845 2.01546 1.82773 1.74541 1.6943 1.65311 1.55719 1.43829
threshold=2.7083333333350006 3.5000000000000004 0.038124000000000012 9.5000000000000018 46.500000000000007 8556.0000000000018 0.18360550000000003 61.500000000000007 5.5000000000000009 52374.500000000007 7.5000000000000009 9.5000000000000018 0.072148500000000018 3165.5000000000005 3.5000000000000004 531.50000000000011 4.5000000000000009 0.042469500000000007 1.5000000000000002 1.5000000000000002 1.0000000180025095e-35 22.000000000000004 26.000000000000004 612.50000000000011 5.5000000000000009 10.500000000000002 81.500000000000014 49.500000000000007 0.10408550000000001 1304.0000000000002
decision_type=2 2 2 2 2 2 2 2 2 2 2 2 2 2 2 2 2 2 2 2 2 2 2 2 2 2 2 2 2 2
left_child=2 3 4 8 5 6 20 11 13 15 26 21 22 29 -15 16 17 -3 25 -20 -1 -5 -11 -12 -13 -7 -4 -18 -29 -2
right_child=1 9 10 7 -6 18 -8 -9 -10 12 23 24 -14 14 -16 -17 27 -19 19 -21 -22 -23 -24 -25 -26 -27 -28 28 -30 -31
leaf_value=-0.079170561806528927 0.0045189186476951339 0.044938259699723426 0.026250760035664157 0.015721931014374194 -0.078501062835969498 -0.081797648942004531 0.071031687397811585 0.061856651922244557 -0.067219458361550008 0.012702279654140065 -0.083405930066713263 0.050424362020771343 0.043143483335164046 -0.068002488494828997 0.073938736339543495 0.07632202615449088 0.067089611448872585 -0.075047363792969862 -0.076191942092235523 0.026489964979555983 0.026360173632044855 -0.075980487602144542 -0.087017796429590816 0.041500990254298514 -0.056354356033841251 0.027969438200113786 0.080982283398805019 0.00085433885229039142 0.054115542686131168 0.050853492906046849
leaf_weight=2.5915648115333201 2.1541025028564054 3.8116313386708489 7.1867114198394102 0.79182761255652323 66.368262679781765 10.603525634855032 3.6105303475633264 1.4705202877521504 3.1426932041067621 0.95809733401983921 1.4391798195429135 1.1441663401201356 5.72036821115762 2.3125354570802297 1.0431919880211351 49.324251811485738 38.224253866123036 1.3601544499397276 3.4857043894007793 2.5118899405933917 0.90556764975190152 14.998821505811064 1.1567843775264917 0.41639507841318835 0.61680000973865379 0.37495925603434521 1.760386688634753 1.7933727703057218 5.8453548029065132 7.5279455659911036
leaf_count=414 118 68 108 51 12083 1787 40 36 463 40 222 15 116 326 10 118 195 50 540 96 33 2572 164 11 49 24 6 34 69 142
internal_value=1.54012e-09 0.0415787 -0.0588838 -0.0259098 -0.068442 -0.0407221 0.0105741 -0.0532681 0.00625325 0.0635371 0.0211486 -0.0629135 0.0202043 0.0239635 -0.0238773 0.0669202 0.0578335 0.0133826 -0.0621992 -0.0331871 -0.0518438 -0.071382 -0.041842 -0.0553765 0.0130238 -0.0780487 0.0370195 0.062846 0.0416112 0.0405448
internal_weight=244.652 143.397 101.255 35.2026 90.452 24.0837 7.10766 19.0221 16.1805 108.194 10.8027 17.5516 7.83525 13.0378 3.35573 100.359 51.0348 5.17179 16.9761 5.99759 3.49713 15.7906 2.11488 1.85557 1.76097 10.9785 8.9471 45.863 7.63873 9.68205
internal_count=20000 4636 15364 3782 15017 2934 487 2723 1059 854 347 2687 320 596 336 534 416 118 2447 636 447 2623 204 233 64 1811 114 298 103 260
is_linear=0
shrinkage=0.05


Tree=4
num_leaves=31
num_cat=0
split_feature=150 6 56 193 144 0 168 135 189 124 6 189 60 154 172 17 199 203 189 3 195 15 3 32 208 46 192 187 4 195
split_gain=209.878 75.0509 30.7884 14.0698 10.5399 10.3645 9.19305 8.66095 7.3796 7.04093 5.6111 5.19909 4.67594 4.30735 3.2403 3.10871 3.73986 3.05006 2.35639 2.29951 2.48184 2.25046 2.16566 2.05158 1.84888 1.80834 1.71464 1.56468 1.41816 3.91311
threshold=2.7083333333350006 2.5000000000000004 0.038124000000000012 7971.0000000000009 46.500000000000007 8556.0000000000018 0.18360550000000003 0.55000000000000016 9.5000000000000018 3.4142857142850005 4.5000000000000009 7.5000000000000009 3.5000000000000004 0.26634950000000007 1.5000000000000002 0.092922000000000018 3.5000000000000004 1.0000000180025095e-35 8.5000000000000018 10.500000000000002 579172.00000000012 0.037487500000000007 12.500000000000002 1.5000000000000002 81.500000000000014 2.5000000000000004 3.5000000000000004 6.5000000000000009 50.000000000000007 585885.00000000012
decision_type=2 2 2 2 2 2 2 2 2 2 2 2 2 2 2 2 2 2 2 2 2 2 2 2 2 2 2 2 2 2
left_child=2 3 4 7 5 6 17 -2 21 25 13 24 -5 -3 -11 -7 -17 -1 -15 -18 -21 -9 -20 -14 27 -10 -23 -4 29 -12
right_child=1 10 11 12 -6 15 -8 8 9 14 28 -13 23 18 -16 16 19 -19 22 20 -22 26 -24 -25 -26 -27 -28 -29 -30 -31
leaf_value=-0.074598853992718928 -0.07275391438466626 -0.006065305305530129 0.042332769845187128 -0.071308856081825286 -0.074667345118042266 -0.077133472991092494 0.066514506946914451 0.058507932656953587 0.015914950062667882 0.044431983446314084 -0.010102402693274901 -0.054056949730934695 0.07296732551552905 0.055363055469496159 -0.056110684289753271 0.030392183087646275 -0.07210133641008537 0.030159889763731376 -0.052263788744203267 -0.077468799447525133 0.046363017527166074 0.047160100238639965 0.03996321560203496 -0.058368103520108863 0.07353174378526052 -0.07786470701260334 -0.0056777345459986389 -0.010646297806180465 0.073420450880021554 0.070595860820458961
leaf_weight=2.5101155776064874 3.3838140445295748 3.5281816483475259 4.2110379869118315 12.132061169482766 66.529745270498097 9.2906370088458079 3.8637037253938615 6.4587060031481105 0.59166564885526707 3.6151894067879766 1.9790008715353886 1.7575194481760252 0.86537158349528798 34.196747845038772 1.0295724757015703 1.7361635360866774 4.3477169028483331 0.96075291978195299 0.98037849320098702 0.67547014588490117 1.009085619356483 2.6470469934865832 1.8148139598779378 0.45300115691497922 2.8175536692142487 3.9184265262447298 3.6561339423060417 2.0830563260242343 55.238680324982852 6.2353324769064784
leaf_count=414 665 139 53 2059 12083 1495 40 59 38 105 72 233 6 238 122 80 720 33 112 120 32 40 33 55 6 570 182 55 117 24
internal_value=7.53919e-10 0.0391209 -0.0548517 -0.0202698 -0.0643592 -0.0362454 0.0134591 0.00169741 0.0131923 -0.0210632 0.0612559 0.024681 -0.0615906 0.0467206 0.0221454 -0.0576159 -0.0342738 -0.0456011 0.0517552 -0.0528855 -0.00329084 0.0377657 0.00761576 0.0278396 0.0398685 -0.065562 0.0165117 0.0247991 0.0705379 0.051154
internal_weight=244.517 142.724 101.793 38.751 90.9234 24.3936 7.33457 25.3006 21.9167 9.15485 103.973 10.8692 13.4504 40.5201 4.64476 17.0591 7.76844 3.47087 36.9919 6.03227 1.68456 12.7619 2.79519 1.31837 9.11165 4.51009 6.30318 6.29409 63.453 8.21433
internal_count=20000 4636 15364 3901 15017 2934 487 1781 1116 835 735 347 2120 522 227 2447 952 447 383 872 152 281 145 61 114 608 222 108 213 96
is_linear=0
shrinkage=0.05


Tree=5
num_leaves=31
num_cat=0
split_feature=150 6 56 189 144 130 184 7 193 3 189 201 143 6 137 195 193 124 144 42 187 40 9 143 141 9 195 124 212 45
split_gain=184.55 70.0164 30.733 12.3696 11.8111 11.963 9.71901 8.50602 5.89995 5.62696 5.08443 4.84712 4.68506 7.05276 3.8616 3.1078 3.79365 2.61985 2.45714 2.66757 2.03086 1.83125 1.60312 1.59657 4.0525 5.81487 1.55046 1.49278 1.4493 1.89784
threshold=2.7083333333350006 1.0000000180025095e-35 0.038124000000000012 9.5000000000000018 46.500000000000007 31.083333333350001 2.5000000000000004 687.50000000000011 2595.0000000000005 101.50000000000001 7.5000000000000009 301.50000000000006 0.18715850000000003 1.5000000000000002 6.5000000000000009 573654.50000000012 1447.5000000000002 2.2678571428550005 40.500000000000007 0.096118500000000009 4.5000000000000009 4.5000000000000009 140.50000000000003 0.25321200000000005 0.12623250000000003 14.500000000000002 648395.50000000012 5.2916666666650007 1.5000000000000002 0.064528000000000016
decision_type=2 2 2 2 2 2 2 2 2 2 2 2 2 2 2 2 2 2 2 2 2 2 2 2 2 2 2 2 2 2
left_child=2 7 4 9 5 12 -7 8 11 18 -4 14 22 -14 20 -5 17 -17 28 27 -2 -10 -1 24 -11 -26 -12 -20 29 -3
right_child=1 3 10 15 -6 6 -8 -9 21 23 26 -13 13 -15 -16 16 -18 -19 19 -21 -22 -23 -24 -25 25 -27 -28 -29 -30 -31
leaf_value=-0.073366116489358299 0.0065727537622725556 0.054199438849308168 0.042493382194144363 -0.070948541497649023 -0.071494465704044344 -0.073756220638103928 0.068366874454310722 0.065745533980172619 -0.073966439098055045 0.064322383207648368 -0.075691668429592032 0.05002125755067556 -0.069190326420191905 0.030204364169394884 0.027593298439492837 -0.053722104927349329 -0.04728210485417117 0.055541658271699781 -0.049762761556031182 0.039590008807074015 -0.066386107410654746 0.05546782180489003 0.030803085876713543 0.069448202066808268 0.077432949755230088 -0.068780583164647954 0.034658825645542422 0.017592808508769299 0.056123928314860905 0.0022410723682781586
leaf_weight=11.488761254819114 1.1496458658948592 3.7420489937067059 9.3044620002619904 1.5778035828843702 66.516416005324572 1.6510162779595692 4.4320293795317411 1.7891838299110521 12.014117516111579 10.614368156529961 1.35931593668647 1.9988237204961468 3.5177680365741244 3.6226962562650442 1.8493456779979167 0.66096224170178208 2.0356105994433165 3.2274374375119805 1.6740736127831026 5.8574463129043579 5.599422643892467 0.27962886262685138 0.38160906778648573 58.658153702504933 1.2246998548507684 1.5288736615329979 0.41564161656424392 1.6172994971275327 20.173665514681488 3.3138326690532267
leaf_count=1952 57 55 114 207 12083 294 45 8 2216 50 222 51 508 116 50 82 258 58 93 130 837 3 19 131 1 76 11 35 171 67
internal_value=1.19372e-09 0.0372193 -0.0509548 0.0535018 -0.0604673 -0.0312377 0.0297929 -0.0392483 -0.0474547 0.0577987 0.0276995 -0.0201141 -0.0507661 -0.0187627 -0.0364181 -0.00859017 0.00801838 0.0369687 0.0417696 0.0193514 -0.0539582 -0.0710224 -0.0700173 0.0658945 0.0503007 -0.00374956 -0.0498509 -0.0166659 0.0493019 0.0297969
internal_weight=243.276 140.586 102.69 115.906 91.6103 25.0939 6.08305 24.6802 22.891 108.404 11.0794 10.5972 19.0108 7.14046 8.59841 7.50181 5.92401 3.8884 36.3784 9.14882 6.74907 12.2937 11.8704 72.0261 13.3679 2.75357 1.77496 3.29137 27.2295 7.05588
internal_count=20000 4636 15364 1414 15017 2934 339 3222 3214 809 347 995 2595 624 944 605 398 140 551 258 894 2219 1971 258 127 77 233 128 293 122
is_linear=0
shrinkage=0.05


Tree=6
num_leaves=31
num_cat=0
split_feature=150 3 193 195 189 116 57 126 187 18 0 137 5 14 195 199 3 193 33 6 145 195 125 8 1 5 14 8 12 53
split_gain=170.107 65.1607 30.2191 20.2235 10.9297 6.97079 6.20274 6.02341 5.76796 4.39224 3.97947 3.52073 3.325 3.20494 3.09175 4.45492 3.10351 2.63985 2.74672 2.35932 2.33693 2.32047 2.22032 2.10779 2.1686 1.88922 1.82436 1.82232 1.61772 1.28377
threshold=2.7083333333350006 6.5000000000000009 222.50000000000003 545570.00000000012 9.5000000000000018 4.5000000000000009 0.029395000000000004 2.3947890000000007 8.5000000000000018 53.500000000000007 9473779.5000000019 9.5000000000000018 136.50000000000003 0.26634950000000007 573654.50000000012 3.5000000000000004 72.500000000000014 136.00000000000003 4.5000000000000009 4.5000000000000009 73.500000000000014 577828.50000000012 1.8166666666650002 0.5671250000000001 837.50000000000011 5.5000000000000009 1.1413350000000002 0.59206800000000015 10.500000000000002 1.5000000000000002
decision_type=2 2 2 2 2 2 2 2 2 2 2 2 2 2 2 2 2 2 2 2 2 2 2 2 2 2 2 2 2 2
left_child=2 4 3 -1 5 13 14 11 9 -5 19 17 -11 -2 -4 21 -17 18 -6 23 26 -16 -12 24 -3 -8 -15 -22 -18 -19
right_child=1 10 6 8 7 -7 25 -9 -10 12 22 -13 -14 20 15 16 28 29 -20 -21 27 -23 -24 -25 -26 -27 -28 -29 -30 -31
leaf_value=-0.065120603314778758 -0.049580267156172725 0.04259580394725157 -0.07013856071239942 0.059250253703442252 0.035678642389578595 -0.052423153371048782 0.080612552699455206 0.063407911782293588 -0.064706734770453439 -0.075974030174631224 -0.030057831162032773 0.017968762869618109 0.035390942253047772 0.045538075246999404 0.058673468795042885 -0.067313486630324146 -0.073486060613920753 -0.068747970897035965 -0.067051952443915749 0.065339607213553336 -0.075179878105464643 -0.04039530558235932 0.05631316950417406 0.054229755606162472 -0.025522916660872481 -0.013851886183104251 -0.0068849813082505779 0.014993395403381252 0.051297195016248978 0.069835786876476388
leaf_weight=7.42487624450587 1.4345437600277424 3.506117917597293 64.664257527096197 11.046075558289884 1.3906549289822678 3.904759226832538 0.7240003347396845 1.211768528446554 1.3076031287200738 1.1549874395132058 1.9750284017063671 1.6514991666190315 1.59698946820572 10.653997684363274 1.4229791788384312 9.4333707327023131 0.36307258717715629 13.961180737242099 1.2227719300426541 61.354429650120437 0.84682249976321999 1.0110397813841698 1.1938555911183355 29.816900883801281 1.7523397533223031 1.9679325446486471 1.9658357063308347 1.655834255274385 0.91256524715572596 0.16913491021841842
leaf_count=1315 150 55 11805 111 53 527 1 11 161 171 137 67 40 200 25 1456 58 2481 237 175 91 129 15 197 64 79 110 63 13 3
internal_value=-5.963e-10 0.0359528 -0.0487377 0.00244688 -0.0178914 0.00767115 -0.0630635 -0.0445684 0.0356583 0.0451696 0.0576145 -0.0516812 -0.0113482 0.0218436 -0.0656451 -0.0435373 -0.0574154 -0.0585511 -0.012387 0.0594262 0.028619 0.0175224 0.00248186 0.0490824 0.0198958 0.0115545 0.037372 -0.0155185 0.0157813 -0.0670892
internal_weight=242.697 139.667 103.03 22.5305 40.0688 20.4618 80.4992 19.607 15.1057 13.7981 99.5987 18.3952 2.75198 16.557 77.8073 13.143 10.709 16.7437 2.61343 96.4298 15.1225 2.43402 3.16888 35.0754 5.25846 2.69193 12.6198 2.50266 1.27564 14.1303
internal_count=20000 4636 15364 1798 3993 1141 13566 2852 483 322 643 2841 211 614 13486 1681 1527 2774 290 491 464 154 152 316 119 80 310 154 71 2484
is_linear=0
shrinkage=0.05


Tree=7
num_leaves=31
num_cat=0
split_feature=150 3 193 195 189 116 126 143 189 187 3 123 18 5 14 0 143 193 210 193 0 4 195 172 5 0 195 193 1 199
split_gain=155.145 57.3382 30.2702 19.8955 10.0836 6.49814 5.26254 4.96432 6.60661 4.56749 3.47445 3.27831 2.82657 3.85831 2.65399 2.45425 2.42957 2.33894 2.27791 2.60687 2.01805 1.97024 3.72768 1.83704 1.68278 1.582 1.46695 1.37488 1.28667 1.2338
threshold=2.7083333333350006 6.5000000000000009 222.50000000000003 545570.00000000012 9.5000000000000018 4.5000000000000009 2.3947890000000007 0.18715850000000003 6.5000000000000009 8.5000000000000018 60.500000000000007 1.4500000000000002 53.500000000000007 136.50000000000003 0.26634950000000007 4487401.5000000009 0.19180350000000004 22.000000000000004 17.500000000000004 1006.5000000000001 11431098.500000002 50.000000000000007 585885.00000000012 1.5000000000000002 176.50000000000003 288302.50000000006 628315.00000000012 15.500000000000002 2589.5000000000005 3.5000000000000004
decision_type=2 2 2 2 2 2 2 2 2 2 2 2 2 2 2 2 2 2 2 2 2 2 2 2 2 2 2 2 2 2
left_child=2 4 3 -1 5 14 11 -4 15 12 20 17 29 -14 27 -9 25 -6 -16 26 -3 22 24 -13 -12 -10 -20 -2 -21 -5
right_child=1 10 7 9 6 -7 -8 8 16 -11 21 23 13 -15 18 -17 -18 -19 19 28 -22 -23 -24 -25 -26 -27 -28 -29 -30 -31
leaf_value=-0.065089814324201231 0.042078425415519927 0.041410155089574109 -0.06687157425486534 0.026979975148821774 0.01997558951468157 -0.050321389064840995 0.058874164965730481 0.038721657637712036 0.045360569920080696 -0.058738099050769738 -0.056474289199751476 0.018079611091744163 -0.074099944589716957 0.041909068223328343 0.046452889003709252 -0.059718281149254621 -0.067906472092098741 -0.064586147897612647 0.038490573945464526 -0.060389337568101678 -0.016478135149403422 0.062873202688500232 0.053771695116109519 -0.056383162118090135 0.043782151496858018 -0.066490196357903125 -0.036621905219198704 -0.0733049669471076 0.037641770931632748 0.064456700488731894
leaf_weight=7.170394127257171 0.34447861881927266 19.715464673005048 66.276031783781946 2.9702497459948054 0.8699509222060503 3.8207763601094475 1.2109951907768834 3.2821564185433081 0.86563793383538523 1.19096238631755 1.2836647257208813 2.4713784474879499 1.1050310293212526 2.0396588770672679 7.9836297384463233 0.78450245037674893 7.6853299774229527 13.623415772337465 4.2171350349672139 1.6211460209451618 1.6300095226615656 67.335233140271157 8.3033966301009041 1.2458304939791558 0.62103750323876727 0.49800338549539447 0.76847754884511221 1.0305374404415486 0.42181033175438631 8.4266536179929954
leaf_count=1315 7 226 12075 75 44 527 11 90 23 161 77 122 171 40 122 85 1207 2504 93 200 93 203 38 171 6 86 37 143 12 36
internal_value=-6.14065e-10 0.0344883 -0.046701 0.00393899 -0.016328 0.00839777 -0.0420549 -0.0613096 -0.0332038 0.0354001 0.0548528 -0.0487666 0.0431101 0.00114398 0.0220885 0.0197315 -0.0569932 -0.0595104 0.0281782 0.00742037 0.0369896 0.05977 0.0393006 -0.00687675 -0.0237852 0.00451254 0.0269128 -0.0443983 -0.0401488 0.0546896
internal_weight=240.813 138.518 102.295 22.9029 39.6296 20.208 19.4216 79.3917 13.1156 15.7326 98.8888 18.2106 14.5416 3.14469 16.3872 4.06666 9.04897 14.4934 15.0122 7.02857 21.3455 77.5433 10.2081 3.71721 1.9047 1.36364 4.98561 1.37502 2.04296 11.3969
internal_count=20000 4636 15364 1798 3993 1141 2852 13566 1491 483 643 2841 322 211 614 175 1316 2548 464 342 319 324 121 293 83 109 130 150 212 111
is_linear=0
shrinkage=0.05


Tree=8
num_leaves=31
num_cat=0
split_feature=150 3 193 195 189 116 195 3 168 189 0 0 123 115 18 210 135 28 193 193 3 8 190 8 172 0 129 18 0 189
split_gain=142.529 51.25 27.3451 17.4687 9.40525 6.01133 5.10302 6.31574 4.93523 4.56044 3.76378 3.53058 3.43324 2.76817 2.76327 3.20616 2.32824 2.31728 2.81612 2.26852 2.21605 2.06668 1.76898 1.63959 1.55002 1.44591 4.47942 4.13033 1.25892 1.15817
threshold=2.8750000000000004 6.5000000000000009 222.50000000000003 545570.00000000012 9.5000000000000018 4.5000000000000009 573654.50000000012 3.5000000000000004 0.20977400000000004 11.500000000000002 1010642.5000000001 3198530.5000000005 1.4500000000000002 0.078014500000000014 53.500000000000007 112.50000000000001 0.55000000000000016 0.099775000000000016 14736.000000000002 22.000000000000004 60.500000000000007 0.56893400000000016 7.5000000000000009 0.60239900000000013 1.5000000000000002 5.0000000000000009 0.069343000000000016 1770.5000000000002 12945.500000000002 7.5000000000000009
decision_type=2 2 2 2 2 2 2 2 2 2 2 2 2 2 2 2 2 2 2 2 2 2 2 2 2 2 2 2 2 2
left_child=2 4 3 -1 5 16 -4 22 12 14 20 23 19 21 -5 -16 -2 -18 29 -6 -3 -12 28 -9 -14 26 27 -22 -8 -19
right_child=1 10 6 9 8 -7 7 11 -10 -11 13 -13 24 -15 15 -17 17 18 -20 -21 25 -23 -24 -25 -26 -27 -28 -29 -30 -31
leaf_value=-0.062079095986587757 -0.051736771646343487 0.039076948302051065 -0.065280168886668585 0.052908164919021394 0.018638294708850114 -0.048443432736322345 0.020966882950725602 0.047935891342942946 0.054237999206221826 -0.052020204343432921 -0.053668621136935185 -0.060893616442330434 0.017400272248138834 -0.03892904859719247 -0.066829130638757978 0.037336423104886454 0.042482806673115124 0.032011313680552496 -0.060410466424246835 -0.063704418326566536 -0.081205447994641314 0.047029167210400569 0.038946106483958833 -0.027548539978925021 -0.051686515344424637 0.061425549397481849 0.060331874650840001 0.069844433857478724 -0.06800367031454628 -0.02963617979328545
leaf_weight=7.0938415229320553 1.0160190551541788 17.211288889870048 63.558523671235889 11.049033185932783 0.89343122998253122 3.7566743381321421 0.41818625992163738 3.3276932411827138 1.2892144294455636 1.4507888760417689 0.57752090506255527 1.3622540496289728 2.5547729758545752 1.6958639170043168 1.1463617617264383 2.0773681183345616 9.1797782182693464 4.1000795569270858 1.3650527186691759 13.111239250749348 1.2543321535922576 4.3283409248106182 0.44224548712372858 0.91779282176867116 1.1900548744015393 65.973179844208062 5.9919716399163008 0.70802757143974293 8.0768460803665203 0.93575273035094131
leaf_count=1316 134 172 11847 98 44 526 28 65 18 185 73 197 119 83 178 43 146 80 186 2496 77 58 9 83 164 153 15 2 1337 68
internal_value=4.62691e-10 0.0331898 -0.0450988 0.00305406 -0.0149583 0.00867102 -0.0591663 -0.0324499 -0.0402193 0.0324395 0.0525949 0.00914442 -0.0470801 0.016139 0.0410247 0.000295042 0.0215989 0.0263812 0.00328913 -0.0584513 0.0552356 0.035175 -0.0585484 0.0316176 -0.00455456 0.0589975 0.0388593 -0.026706 -0.0636239 0.020556
internal_weight=238.054 137.133 100.921 22.8174 39.3921 20.3534 78.1035 14.545 19.0387 15.7236 97.7405 5.60774 17.7495 6.60173 14.2728 3.22373 16.5967 15.5807 6.40089 14.0047 91.1388 4.90586 8.93728 4.24549 3.74483 73.9275 7.95433 1.96236 8.49503 5.03583
internal_count=20000 4614 15386 1820 3981 1140 13566 1719 2841 504 633 345 2823 214 319 221 614 480 334 2540 419 131 1374 148 283 247 94 79 1365 148
is_linear=0
shrinkage=0.05


Tree=9
num_leaves=31
num_cat=0
split_feature=150 3 193 195 189 193 7 143 189 57 189 212 6 137 172 22 18 5 143 0 16 33 193 28 138 212 96 199 158 184
split_gain=129.551 47.6035 26.063 16.2727 8.48992 6.65877 7.09201 5.02512 6.39617 4.07573 4.01986 3.63513 3.52435 3.43738 2.67226 2.63513 2.44096 2.86529 2.14239 2.0759 1.83465 1.62326 1.45436 1.34858 2.69606 3.00122 1.27589 1.25804 1.24958 1.24821
threshold=2.8750000000000004 6.5000000000000009 222.50000000000003 545570.00000000012 7.5000000000000009 136.00000000000003 687.50000000000011 0.18715850000000003 6.5000000000000009 0.18409650000000002 11.500000000000002 92.500000000000014 4.5000000000000009 9.5000000000000018 11.500000000000002 1.0000000180025095e-35 53.500000000000007 125.50000000000001 0.19180350000000004 8.9884656743000007e+307 0.042469500000000007 6.5000000000000009 6.5000000000000009 0.11363650000000002 9.5000000000000018 99.500000000000014 1.5000000000000002 3.5000000000000004 2.5000000000000004 6.5000000000000009
decision_type=2 2 2 2 2 2 2 2 2 2 2 2 2 2 2 2 2 2 2 2 2 2 2 2 2 2 2 2 2 2
left_child=2 4 3 -1 9 11 13 -4 14 15 16 -6 19 26 -9 28 -5 -18 27 21 -21 22 -3 24 25 -14 -7 -10 -2 -30
right_child=1 12 7 10 5 6 -8 8 18 -11 -12 -13 23 -15 -16 -17 17 -19 -20 20 -22 -23 -24 -25 -26 -27 -28 -29 29 -31
leaf_value=-0.060533623073093124 -0.053774855487736375 0.0066205752271730218 -0.06317449993863862 0.049915365009260394 0.03634960662679048 -0.063026507260709227 0.054559543494841815 0.039983414463733213 0.039027451603453195 -0.065305211532893606 -0.049054856287474843 -0.0621008364848799 -0.036579338913850831 0.013350410940952568 -0.067428393460253422 -0.05454796042505166 -0.068083270921937153 0.032884064304418918 -0.063870141844432918 0.032168354845464209 -0.072242888869487751 -9.9611609546760918e-05 0.046968200211701748 0.065039066148256344 0.056574849332346189 0.050837657865892533 0.044506831880736224 -0.061342848779646013 -0.0023255239499063193 0.042763965506389626
leaf_weight=6.9425247190520194 0.40689735859632215 2.4110275437124065 63.524821862112731 11.330372536554931 4.5340642980299917 16.219042532611649 1.6330182459205378 3.468309447169303 0.89673483511432805 1.3601334141567338 1.423455175012349 1.18205553246662 1.769586965907368 1.706206016242503 0.69509889930486668 0.94405391532927829 1.0319605341646814 2.2020249012857676 7.3936781270895153 0.92233864637091645 0.77360695227980614 2.2291576303541651 30.323215314187109 32.910575409419835 22.604346550069749 2.2056568972766399 0.2806185451336195 0.47893312992528081 1.8336991555988778 9.4190643583424372
leaf_count=1316 2 44 12075 98 123 2948 8 82 23 187 185 239 60 65 93 129 173 48 1207 28 73 67 217 43 95 6 12 86 90 178
internal_value=-1.75371e-09 0.0317711 -0.0433688 0.0033854 -0.0144268 -0.0315578 -0.0452578 -0.0573908 -0.0289816 0.0169245 0.0311415 0.0159907 0.0507591 -0.0542112 0.0220506 0.0257984 0.0389795 0.000665519 -0.05321 0.0385645 -0.0154589 0.041185 0.0439964 0.0582737 0.0498968 0.0119238 -0.0611976 0.00408395 0.0323038 0.0354164
internal_weight=235.056 135.668 99.3879 22.9303 39.5189 25.555 19.8389 76.4576 12.9328 13.9638 15.9878 5.71612 96.1495 18.2059 4.16341 12.6037 14.5644 3.23399 8.76935 36.6593 1.69595 34.9634 32.7342 59.4902 26.5796 3.97524 16.4997 1.37567 11.6597 11.2528
internal_count=20000 4614 15386 1820 3981 3395 3033 13566 1491 586 504 362 633 3025 175 399 319 221 1316 429 101 328 261 204 161 66 2960 109 270 268
is_linear=0
shrinkage=0.05


Tree=10
num_leaves=31
num_cat=0
split_feature=150 6 56 3 193 195 43 189 124 189 57 193 203 58 33 126 184 201 6 143 198 9 195 3 114 190 126 3 159 149
split_gain=121.996 43.7808 23.6818 9.40935 8.68174 12.0025 6.5666 5.25518 5.07764 4.44761 3.90768 3.6611 3.49272 2.81202 2.17526 2.20776 2.0661 1.99943 2.76969 1.86999 1.91849 3.82441 1.70697 4.36722 1.62261 1.52902 1.43264 1.42713 1.36089 1.5836
threshold=2.8750000000000004 1.0000000180025095e-35 0.038124000000000012 60.500000000000007 652.00000000000011 545570.00000000012 0.18673900000000002 11.500000000000002 4.2250000000000005 7.5000000000000009 0.023380500000000002 3261.5000000000005 1.0000000180025095e-35 0.043670500000000008 2.5000000000000004 0.38308358333350007 2.5000000000000004 210.50000000000003 1.0000000180025095e-35 0.25321200000000005 2.5000000000000004 28.500000000000004 573654.50000000012 72.500000000000014 0.034456000000000007 7.5000000000000009 0.41061633333350006 21.500000000000004 42.500000000000007 3.5000000000000004
decision_type=2 2 2 2 2 2 2 2 2 2 2 2 2 2 2 2 2 2 2 2 2 2 2 2 2 2 2 2 2 2
left_child=2 6 4 9 5 -1 8 16 -2 28 14 13 17 -11 15 -10 -7 18 -4 20 21 -5 -6 25 -23 -24 -8 -13 -3 -30
right_child=1 3 12 19 22 7 26 -9 10 11 -12 27 -14 -15 -16 -17 -18 -19 -20 -21 -22 24 23 -25 -26 -27 -28 -29 29 -31
leaf_value=-0.061615652255386649 -0.059008770938412052 0.039743959014807102 -0.050853983197845724 0.049577534195603824 -0.062674626381307857 -0.023119608544973885 -0.029993640297062776 -0.067481983776458282 0.022987595785357542 0.026770466434042951 0.05096402995604761 -0.065223741665754606 0.04983134259123604 -0.06944273178269976 -0.063176623692168504 -0.060824547121330223 0.052238824626269498 -0.060861711394765441 0.039662793351286862 0.057802211128247773 0.057345124921430936 -0.078283038817047179 -0.059030377948645157 0.030915374342650362 0.0038959634795662315 0.034765185153646336 0.057133233048406146 0.034006323715608605 -0.029468673685197861 0.030483341682735379
leaf_weight=8.2844362088944781 13.030294768279424 20.976645687129352 1.2199397776275858 3.5209840391762537 58.199732098495588 1.0742852704133818 0.58854355011135284 1.3372700400650499 2.485179066425188 6.0907591963186842 2.0477142431773245 2.5803265641443436 6.318754646461457 0.86761007271707047 2.6353173672687262 1.1490265473257748 5.9316060687415302 1.2408880623988805 2.7505317903123796 62.9863524697721 5.4061025334522128 1.0625894665718081 9.3324010521173442 1.7586216256022442 1.3817388471215961 0.455716762691737 2.37893709493801 0.42153313849121321 1.6455363277345885 3.3315171473659575
leaf_count=1643 2367 227 141 18 11382 105 55 211 114 205 33 409 61 101 450 170 76 91 54 169 21 92 1538 76 22 8 32 8 67 54
internal_value=9.85432e-10 0.0308916 -0.042466 0.0442827 -0.0514506 -0.0189847 -0.0298387 0.0233462 -0.0395265 0.0232667 -0.00900436 -0.00513648 0.0248397 0.014774 -0.0285909 -0.00351128 0.0406833 -0.0054626 0.0118512 0.0544331 0.0357718 0.0162208 -0.0591905 -0.0416294 -0.0318286 -0.0546634 0.0398533 -0.0512895 0.034167 0.0106617
internal_weight=232.491 134.587 97.9042 110.272 86.3741 16.6276 24.315 8.34316 21.3475 35.9139 8.31724 9.96023 11.5301 6.95837 6.26952 3.63421 7.00589 5.21136 3.97047 74.3578 11.3714 5.96531 69.7465 11.5467 2.44433 9.78812 2.96748 3.00186 25.9537 4.97705
internal_count=20000 4614 15386 1393 15039 2035 3221 392 3134 1071 767 723 347 306 734 284 181 286 195 322 153 132 13004 1622 114 1546 87 417 348 121
is_linear=0
shrinkage=0.05


Tree=11
num_leaves=31
num_cat=0
split_feature=150 3 193 195 189 116 195 3 126 193 57 189 60 193 6 18 210 168 28 193 193 47 26 199 7 190 4 71 212 5
split_gain=112.316 41.0808 22.9777 14.2052 7.46721 4.72321 4.63498 5.43246 4.1104 3.8116 4.50203 3.62817 3.32697 3.12614 2.4796 2.33246 2.42573 1.84853 1.92601 2.24471 1.83424 2.0443 1.53303 1.34693 1.4036 1.34092 1.23013 1.13176 1.08947 1.26035
threshold=2.8750000000000004 6.5000000000000009 222.50000000000003 545570.00000000012 9.5000000000000018 4.5000000000000009 573654.50000000012 3.5000000000000004 2.3947890000000007 3268.5000000000005 0.0069880000000000012 14.500000000000002 3.5000000000000004 52374.500000000007 4.5000000000000009 49.500000000000007 112.50000000000001 0.021481500000000004 0.099775000000000016 14736.000000000002 136.00000000000003 4.5000000000000009 1.5000000000000002 3.5000000000000004 548.50000000000011 7.5000000000000009 26.000000000000004 0.041109500000000007 1.5000000000000002 94.500000000000014
decision_type=2 2 2 2 2 2 2 2 2 2 2 2 2 2 2 2 2 2 2 2 2 2 2 2 2 2 2 2 2 2
left_child=2 4 3 -1 5 17 27 25 12 14 26 15 20 -9 28 23 -17 -2 -19 -20 21 -6 -15 24 -5 -8 -11 -4 29 -3
right_child=1 9 6 11 8 -7 7 13 -10 10 -12 -13 -14 22 -16 16 -18 18 19 -21 -22 -23 -24 -25 -26 -27 -28 -29 -30 -31
leaf_value=-0.057375963210029503 -0.067167675781238625 0.034286704919750909 -0.061286971216111465 0.05901002637356844 -0.058730462144412 -0.043157843671568247 -0.058940562430247014 0.035523952436953048 0.053391359771897677 0.0011750176127819081 0.035696201593186525 -0.066532430589921795 0.027869977749567357 -0.063738798949231762 0.058005002093142681 -0.055876314495067761 0.032098841821793608 0.036847438534005537 0.016527250437029763 -0.056002824094111218 -0.056480514626138081 0.031998454996913971 0.05068619857776599 0.056840620854340856 -0.0099226111317177717 0.029548560676190685 -0.07526937154818325 0.016206781243611263 0.04529594219704032 -0.015739343879356181
leaf_weight=6.7357126183342215 0.59773376537487521 5.1254090536385801 59.237647180678323 1.2423198656178969 1.1518644774332707 3.7317387694492927 8.0371100921183789 3.7553650226909658 1.1968704680912186 0.91407550172880236 11.932048973627387 0.92504609236493784 1.5367352440953244 1.5842340940143911 53.944896906148642 1.2614955962635588 2.0680521656759083 9.3970756432972831 5.1056376099586478 1.3485075100325046 13.435825505293904 1.3467773091979323 0.35906108794733871 8.2813685173168761 1.8208234426565466 0.4522050507366665 1.2403861321508882 0.4749280046671619 19.190910998731852 1.6690330570563672
leaf_count=1316 104 49 11830 7 239 526 1365 100 11 30 151 146 59 238 151 194 49 168 154 188 2494 38 7 36 72 9 103 17 115 34
internal_value=-6.12037e-11 0.0297946 -0.0411354 0.00330609 -0.0134565 0.00762699 -0.0545669 -0.0288781 -0.0362483 0.0476665 0.0236851 0.0295087 -0.0423891 0.00888414 0.0518928 0.0355631 -0.00123309 0.0191484 0.0224033 0.00137306 -0.0491649 -0.00982723 -0.0425966 0.0463625 0.0180344 -0.054227 -0.0428362 -0.0606706 0.0392042 0.021998
internal_weight=229.101 132.866 96.2354 22.3348 38.8488 20.1807 73.9006 14.188 18.6681 94.0168 14.0865 15.5991 17.4712 5.69866 79.9303 14.6741 3.32955 16.449 15.8512 6.45415 15.9345 2.49864 1.9433 11.3445 3.06314 8.48932 2.15446 59.7126 25.9854 6.79444
internal_count=20000 4614 15386 1820 3981 1140 13566 1719 2841 633 284 504 2830 345 349 358 243 614 510 342 2771 277 245 115 79 1374 133 11847 198 83
is_linear=0
shrinkage=0.05


Tree=12
num_leaves=31
num_cat=0
split_feature=193 58 195 3 189 141 124 184 199 201 195 145 6 195 211 31 212 189 210 29 32 40 189 19 4 195 127 5 124 3
split_gain=104.225 44.9995 26.5351 17.4424 8.98733 8.2598 4.82691 3.25511 2.2624 2.24246 2.15487 1.99321 2.33101 2.8651 2.39823 1.95181 1.96497 1.80425 1.70095 1.95539 1.75237 1.57279 1.51209 1.41492 1.36878 2.89819 1.32554 1.16467 1.15215 1.14709
threshold=1006.5000000000001 0.029395000000000004 528903.50000000012 69.500000000000014 11.500000000000002 0.69189500000000015 1.8452380952350003 1.5000000000000002 5.5000000000000009 307.00000000000006 561275.50000000012 37.500000000000007 1.5000000000000002 566855.00000000012 13.500000000000002 0.073231500000000019 55.500000000000007 4.5000000000000009 181.50000000000003 0.0096655000000000022 6.5000000000000009 4.5000000000000009 6.5000000000000009 234.50000000000003 50.000000000000007 585885.00000000012 0.11563350000000001 176.50000000000003 3.2678571428550005 58.500000000000007
decision_type=2 2 2 2 2 2 2 2 2 2 2 2 2 2 2 2 2 2 2 2 2 2 2 2 2 2 2 2 2 2
left_child=2 5 -1 4 7 11 17 8 29 -7 -8 12 21 -14 26 -6 -17 -3 20 -20 28 -2 -12 -24 25 27 -15 -5 -9 -4
right_child=1 6 3 24 15 9 10 18 -10 -11 22 -13 13 14 -16 16 -18 -19 19 -21 -22 -23 23 -25 -26 -27 -28 -29 -30 -31
leaf_value=-0.062100255932860185 -0.061554940809663256 0.0078838020550694877 -0.061533173554165058 -0.054468894192241685 -0.061746455940320993 -0.030219574883139311 -0.026735372575897861 0.023133577637237335 0.026014076474038167 0.060557996120731143 0.05026772237794809 -0.059644009272458755 -0.059549722314792768 0.033161861416131602 -0.069078823149618954 0.024902367812175322 -0.045400176867744439 -0.053524789256038485 -0.073092668518281473 0.016749141868057038 -0.01342173908285157 0.054866850906268944 -0.049703677890400061 0.039505407282483807 0.057015470306712585 0.052791359480089131 -0.046506444297052259 0.028802443261811497 0.043854905804592233 0.034540114499954179
leaf_weight=7.0243753474205723 8.6253270802553743 3.145637606270614 2.1323679196648295 1.0725062051787961 3.6242754871491334 1.044816498178988 1.1283148210495735 10.615551373455679 1.7992715579457579 1.950045679695904 14.17941286088899 64.53803898463957 2.8850367004051796 3.2907156925648455 0.92305774055421341 1.9451372865587475 2.0324834696948528 1.9300140803679822 0.78889605868607704 2.60728326626122 1.8938736717682321 0.30019210465252477 0.76857318170368571 1.0540727302432058 59.148091711569577 4.9520668871700764 0.62056879187002767 0.69008833775296796 18.225830028299242 0.36368185468018044
leaf_count=1524 1644 64 315 61 608 100 82 268 45 15 81 12904 547 85 121 79 271 274 100 46 139 2 80 17 205 11 71 8 227 6
internal_value=-2.94151e-11 -0.0359549 0.0321657 0.0380836 0.014469 -0.052657 0.0273591 0.0242959 -0.016726 0.0288885 0.0400483 -0.0556653 -0.0402383 -0.0201183 0.00341351 -0.0352047 -0.0110208 -0.0154668 0.0294584 -0.00412015 0.0331687 -0.0576393 0.0447572 0.00188773 0.0545869 0.0331937 0.0205216 -0.0218666 0.0362281 -0.047535
internal_weight=225.3 106.384 118.916 111.891 46.0287 84.1778 22.206 38.4268 4.29532 2.99486 17.1304 81.1829 16.6449 7.71938 4.83434 7.6019 3.97762 5.07565 34.1314 3.39618 30.7353 8.92552 16.0021 1.82265 65.8628 6.71466 3.91128 1.76259 28.8414 2.49605
internal_count=20000 16087 3913 2389 2104 15489 598 1146 366 115 260 15374 2470 824 277 958 350 338 780 146 634 1646 178 97 285 80 156 69 495 321
is_linear=0
shrinkage=0.05


Tree=13
num_leaves=31
num_cat=0
split_feature=150 3 193 195 193 201 143 3 135 3 189 142 172 145 189 18 212 5 212 60 183 143 16 143 3 110 195 211 154 193
split_gain=99.2237 36.1386 20.1548 12.4305 6.65432 5.30311 4.33133 5.00759 3.77773 3.54221 3.10798 2.92205 2.56391 2.5516 2.33611 2.24262 2.03627 1.99345 1.84296 1.68549 1.47264 1.45384 1.39578 1.34202 3.99799 1.31377 1.26994 1.75751 1.53233 1.52226
threshold=2.8750000000000004 6.5000000000000009 222.50000000000003 545570.00000000012 2595.0000000000005 309.50000000000006 0.18715850000000003 3.5000000000000004 0.55000000000000016 477.50000000000006 14.500000000000002 0.32794350000000005 11.500000000000002 27.500000000000004 8.5000000000000018 49.500000000000007 1.0000000180025095e-35 125.50000000000001 55.500000000000007 6.5000000000000009 7.5000000000000009 0.19180350000000004 0.042469500000000007 0.27154500000000004 5793.5000000000009 7.5000000000000009 651453.50000000012 21.500000000000004 2.7369160000000003 5.5000000000000009
decision_type=2 2 2 2 2 2 2 2 2 2 2 2 2 2 2 2 2 2 2 2 2 2 2 2 2 2 2 2 2 2
left_child=2 4 3 -1 8 19 -4 21 -2 16 15 20 -9 -7 -13 -5 22 -17 -16 25 -10 -8 -3 24 -11 -6 27 29 -29 -18
right_child=1 9 6 10 5 13 7 12 11 23 -12 14 -14 -15 18 17 26 -19 -20 -21 -22 -23 -24 -25 -26 -27 -28 28 -30 -31
leaf_value=-0.054911329057113593 -0.049578410155234981 0.022628992023220714 -0.058185484428526606 0.04423884982062614 -0.055365639743014311 0.046456350784932342 -0.0006462883294286576 0.033784154948870992 -0.031302964106553553 -0.028425328298259701 -0.063316731362155931 0.016579461827878342 -0.061606275489362622 -0.057776826931299499 0.011503592453882133 -0.055853552114637876 -0.0081223375170585352 0.02552180646575225 -0.05905411051241212 0.042728987352680992 0.040113112719884769 -0.059522901864981916 -0.066732453535878214 0.058078383566746973 0.058763010209641878 0.02869983509459912 0.05158888777072837 -0.03256692866979137 0.041766399211880884 0.03909106885065719
leaf_weight=6.542281225789341 2.6467696574982282 0.97200863948091754 58.376903428696096 10.88735901890322 12.937712056329472 2.4871009555645283 1.2490761005319635 3.7276344955898821 0.78871842799708503 1.8527858024463046 0.88482412975281555 5.1841982984915358 0.86855737236328412 0.76857836171984661 1.4317353887017814 1.1519474335946154 1.8307212591171325 2.170861279591918 2.6173310843296349 0.48293539229780513 8.5134094748646003 6.5296825314871967 0.79386805975809693 41.46558747254312 4.5282565737143159 0.48207057802938003 11.280975636094807 1.8481191806495183 1.109537675976753 25.315036424435675
leaf_count=1316 495 30 12075 115 2421 52 110 88 70 73 146 139 143 143 75 187 47 56 416 6 145 1150 75 76 13 19 45 56 9 209
internal_value=-2.48065e-10 0.0282694 -0.039575 0.00265462 -0.0124478 -0.0355918 -0.0524896 -0.02562 0.00629986 0.0454252 0.0276041 0.014279 0.0157579 0.0218497 -0.00564728 0.0332655 0.0350373 -0.00268931 -0.0341052 -0.0490432 0.0340578 -0.0500688 -0.0175444 0.0547935 0.0334472 -0.0523458 0.0372809 0.0319192 -0.00468147 0.035907
internal_weight=221.727 129.337 92.3891 21.6373 38.3406 17.1584 70.7519 12.375 21.1822 90.9969 15.095 18.5354 4.59619 3.25568 9.23326 14.2102 43.1503 3.32281 4.04907 13.9027 9.30213 7.77876 1.76588 47.8466 6.38104 13.4198 41.3844 30.1034 2.95766 27.1458
internal_count=20000 4614 15386 1820 3981 2641 13566 1491 1340 633 504 845 231 195 630 358 471 243 491 2446 215 1260 105 162 86 2440 366 321 65 256
is_linear=0
shrinkage=0.05


Tree=14
num_leaves=31
num_cat=0
split_feature=150 3 193 195 124 3 143 6 56 193 32 187 172 212 201 4 28 18 5 135 193 1 143 211 184 42 184 203 189 28
split_gain=91.5742 34.6913 19.991 11.8262 5.86811 4.65036 4.17854 4.59978 3.45479 3.27816 3.13226 3.00785 2.68327 2.35092 2.29978 2.02549 3.12353 1.92827 1.94805 1.62292 1.67799 1.44386 1.34477 1.27253 1.23062 1.22072 1.16641 1.63179 1.16569 1.12918
threshold=2.8750000000000004 3.5000000000000004 222.50000000000003 545570.00000000012 4.2250000000000005 60.500000000000007 0.18715850000000003 1.5000000000000002 0.049966500000000004 2237.5000000000005 2.5000000000000004 8.5000000000000018 11.500000000000002 1.0000000180025095e-35 271.50000000000006 50.000000000000007 0.10510000000000001 53.500000000000007 136.50000000000003 0.70833333333350013 17170.500000000004 409.50000000000006 0.22836900000000002 23.500000000000004 5.5000000000000009 0.099775000000000016 8.5000000000000018 1.0000000180025095e-35 11.500000000000002 0.11363650000000002
decision_type=2 2 2 2 2 2 2 2 2 2 2 2 2 2 2 2 2 2 2 2 2 2 2 2 2 2 2 2 2 2
left_child=2 4 3 -1 9 13 26 -8 10 14 19 17 22 -3 -2 16 25 -5 -19 -6 -21 -15 -9 -23 29 -7 -4 -28 -16 -17
right_child=1 5 6 11 8 15 7 12 -10 -11 -12 -13 -14 21 28 24 -18 18 -20 20 -22 23 -24 -25 -26 -27 27 -29 -30 -31
leaf_value=-0.053880785179350722 -0.035796164484136354 -0.035820764535151067 -0.058641067679245519 0.044001228486860396 -0.064577544106001875 -0.061053795946103301 -0.055475904425252832 0.038117504208778165 0.044531655214282428 -0.054361721766553329 -0.05474951088870228 -0.039638315968632938 -0.060185553921089277 0.040738610843595154 0.028670012976031885 0.025231889572894906 0.042378372560256311 -0.060290178272400907 0.026314963089679434 0.026246000014100542 -0.043953058994081015 0.022917343519321752 -0.022157138855915165 -0.023645859960952444 0.056702638381391626 0.023419166390679293 -0.058921372563372591 0.029929911571618457 -0.042979409930864798 0.05925676198132649
leaf_weight=6.3879523486830321 4.7402148651890474 1.5064233555458511 54.655527230119333 10.950983218383042 0.69426290364935983 1.1634199866093675 6.1498861487489176 3.5968817309476435 4.3762247180566183 10.071297158952801 2.7001030719839036 1.5267271064221848 1.2263572555966673 12.083634403999897 3.2158655971288685 6.6081752730533463 7.8546281633898616 0.95339953340589945 2.0357698230072856 5.687191990669815 1.0011148387566207 10.135162266902624 1.2459201253950594 1.7157056210562576 48.053304933942854 0.67629014560952772 1.2026289706118398 0.9060639077797531 0.68936033127829421 3.864397618919611
leaf_count=1316 680 133 11775 112 115 75 1125 81 46 1968 467 181 191 116 80 79 37 171 40 158 167 160 94 104 119 9 250 50 97 4
internal_value=-8.87617e-10 0.027445 -0.0383214 0.00335132 -0.0164917 0.0430078 -0.0515238 -0.0250004 0.00743358 -0.0349743 -0.00866825 0.0269887 0.00588041 0.0247637 -0.0123893 0.0498115 0.0286428 0.0342857 -0.00130786 0.00818552 0.0157385 0.0285768 0.0226105 0.0161762 0.0533179 -0.030001 -0.0572332 -0.0207437 0.0160223 0.0377871
internal_weight=217.675 126.837 90.8381 21.8548 33.1756 93.6611 68.9833 12.219 14.4589 18.7167 10.0827 15.4669 6.06916 25.4409 8.64544 68.2202 9.69434 13.9402 2.98917 7.38257 6.68831 23.9345 4.8428 11.8509 58.5259 1.83971 56.7642 2.10869 3.90523 10.4726
internal_count=20000 4614 15386 1820 3778 836 13566 1491 953 2825 907 504 366 513 857 323 121 323 211 440 325 380 175 264 202 84 12075 300 177 83
is_linear=0
shrinkage=0.05


Tree=15
num_leaves=31
num_cat=0
split_feature=193 58 195 3 141 189 124 184 211 7 199 145 6 195 0 201 15 189 210 117 140 189 193 40 124 5 4 195 1 57
split_gain=85.5318 38.1876 22.1496 15.2448 7.07715 6.53881 4.2431 2.72182 2.20662 2.17576 1.82836 1.79205 2.0911 2.37931 1.89722 1.7764 1.60602 1.42628 1.41388 1.68752 1.58781 1.29507 1.32612 1.23996 1.14542 1.13867 1.11578 2.23128 1.00848 1.0633
threshold=1006.5000000000001 0.029395000000000004 528903.50000000012 69.500000000000014 0.69189500000000015 11.500000000000002 1.8452380952350003 1.5000000000000002 38.500000000000007 557.50000000000011 5.5000000000000009 37.500000000000007 1.5000000000000002 562063.00000000012 3333987.0000000005 307.00000000000006 0.11563350000000001 4.5000000000000009 181.50000000000003 18.500000000000004 1.5378880000000004 6.5000000000000009 10202.500000000002 4.5000000000000009 3.2678571428550005 112.50000000000001 50.000000000000007 585885.00000000012 357.50000000000006 0.015299000000000002
decision_type=2 2 2 2 2 2 2 2 2 2 2 2 2 2 2 2 2 2 2 2 2 2 2 2 2 2 2 2 2 2
left_child=2 4 -1 5 11 7 17 10 -7 -8 -4 12 23 -14 16 -6 -15 -3 19 24 -20 -11 -23 -2 25 -9 27 -5 -26 -30
right_child=1 6 3 26 15 8 9 18 -10 21 -12 -13 13 14 -16 -17 -18 -19 20 -21 -22 22 -24 -25 28 -27 -28 -29 29 -31
leaf_value=-0.059327412224800528 -0.058691411825083112 0.0040604707576326251 -0.045184379152494167 -0.017643082171919656 -0.025531769410826622 -0.042090968691162772 -0.037243225174735377 0.024427600110528372 0.026754770362512937 0.046113873422697668 0.0213778928955176 -0.056827916896889555 -0.05887932472678592 0.028705229254761197 -0.063270864299319898 0.05737031258722141 -0.063789980486775852 -0.053042305585853371 -0.051427327640718556 -0.028988189849620108 0.023483045326040758 0.041207072632424922 -0.043131664274175988 0.047458344705289403 0.055268910551100593 -0.030793165867445273 0.053786061980448822 0.049630059810409195 0.036997400761846537 -0.005836094547681173
leaf_weight=6.5789371680002651 8.026868521701541 2.9490545089356628 2.3696086460258803 1.6868590619415034 1.0038559469394379 6.1497055366635314 0.94174764025956648 10.23188184248284 1.4355981554836033 14.181575067341329 1.8272212273441253 59.783128364244476 2.442324763396754 3.4841815186664462 0.92186167463660229 1.8135206336155532 0.54235565243288864 1.7379790912382302 1.1830608351156109 1.1807245183736075 1.7593321525491772 0.99942344799637683 0.87340687774121761 0.28487671539187509 6.6119936942122903 1.0272690083365876 54.948280847165734 4.5767291747033596 10.185457864310591 1.6891379673033942
leaf_count=1524 1644 64 321 69 100 878 67 225 80 84 45 12904 513 78 150 15 83 274 122 97 24 12 97 2 25 71 205 11 154 62
internal_value=-7.83069e-12 -0.0337151 0.0297161 0.035198 -0.0499756 0.0133299 0.0250053 0.0217771 -0.0290612 0.0366204 -0.0162044 -0.0528796 -0.0378476 -0.0184978 0.00143287 0.0278316 0.0162466 -0.0171136 0.0264836 0.0296347 -0.0066365 0.0409532 0.00187514 -0.0550532 0.0319616 0.0193893 0.0515069 0.0315126 0.0396187 0.0309044
internal_weight=213.428 99.9862 113.442 106.863 78.303 45.651 21.6832 38.0657 7.5853 16.9962 4.19683 75.4856 15.7025 7.39072 4.9484 2.81738 4.02654 4.68703 33.8689 30.9265 2.94239 16.0544 1.87283 8.31175 29.7457 11.2592 61.2119 6.26359 18.4866 11.8746
internal_count=20000 16087 3913 2389 15489 2104 598 1146 958 260 366 15374 2470 824 311 115 161 338 780 634 146 193 109 1646 537 296 285 80 241 216
is_linear=0
shrinkage=0.05


Tree=16
num_leaves=31
num_cat=0
split_feature=193 58 195 3 195 135 124 124 189 3 2 7 145 6 195 0 201 193 123 195 189 1 172 195 189 15 166 40 206 193
split_gain=79.8391 35.5186 20.5454 14.6335 6.52543 4.77602 3.66051 3.64473 2.64938 2.39381 2.11589 1.8505 1.70925 2.04792 2.29837 1.74 1.65056 1.64726 2.82519 1.50969 1.45751 1.1901 1.27738 1.15707 1.15642 1.15615 1.12523 1.11644 1.04608 1.04294
threshold=1006.5000000000001 0.029395000000000004 528903.50000000012 17.500000000000004 662861.50000000012 0.55000000000000016 3.2678571428550005 1.8452380952350003 11.500000000000002 531.50000000000011 1.0000000180025095e-35 558.50000000000011 37.500000000000007 1.5000000000000002 562063.00000000012 3333987.0000000005 307.00000000000006 6.5000000000000009 1.1833333333350002 558811.00000000012 4.5000000000000009 306.50000000000006 3.5000000000000004 574750.50000000012 6.5000000000000009 0.11234450000000001 1.5000000000000002 4.5000000000000009 2.5000000000000004 83.000000000000014
decision_type=2 2 2 2 2 2 2 2 2 2 2 2 2 2 2 2 2 2 2 2 2 2 2 2 2 2 2 2 2 2
left_child=2 4 -1 5 12 10 8 20 23 17 19 -9 13 27 -15 25 -6 18 -5 -4 -3 -8 -23 -7 -13 -16 -26 -2 -25 -10
right_child=1 7 3 9 16 6 21 11 29 -11 -12 24 -14 14 15 -17 -18 -19 -20 -21 -22 22 -24 28 26 -27 -28 -29 -30 -31
leaf_value=-0.058446685782006361 -0.057869794477345186 0.0059416438233438956 -0.046752830825918329 -0.054748732464423855 -0.023926787746953712 -0.051985901398051954 0.054424931656740276 -0.028006061510281174 0.00049507654027590648 0.055116194802458621 -0.059381188843728595 0.044335570513993568 -0.055929103704007201 -0.058020880089402843 0.029115037091037601 -0.061967368711890625 0.056149299033181312 0.040876534208835621 0.037196381772550705 0.020187430621074243 -0.052709334821276266 0.031106575186073866 -0.024540663134226096 -0.035703562273745874 -0.056424268319451611 -0.041026710336578572 0.028788409481229228 0.044330978731408961 0.020695545513614182 -0.057318391716963173
leaf_weight=6.3666810651775441 7.8039705289993417 2.9080832647159722 1.3092483566142612 1.2843534853309422 1.0243906127288931 0.67608202435076492 4.9645995157770804 1.0892085968516791 1.1561005450785153 40.890534630510956 3.1853602991905063 13.719207119662313 57.887593295658007 2.3636789910960934 3.2193115390837197 0.86593222268857051 1.730862629599869 25.40756802377291 2.3904604539275169 2.3614743012003601 1.6661432031542061 8.3440151480026525 1.1767032691277552 0.90383809572085638 0.569982881657778 0.71863457234576333 1.2094925148412585 0.2766926810145377 9.0991110508330149 2.3984656222164631
leaf_count=1524 1647 64 182 66 99 117 22 71 98 122 540 82 12909 513 71 148 15 233 22 37 274 138 134 65 81 85 26 2 202 411
internal_value=6.40453e-10 -0.0331877 0.0287806 0.0340422 -0.0491603 0.00793185 0.0168831 0.0240931 -0.00112479 0.0473169 -0.0295634 0.0349896 -0.052006 -0.0371127 -0.0176567 0.00220397 0.0263774 0.036351 0.00506141 -0.00368837 -0.0154217 0.0345781 0.0242289 0.0113207 0.0394167 0.0163149 0.00149398 -0.0543703 0.0155995 -0.0385149
internal_weight=208.968 97.0532 111.915 105.548 75.8911 35.575 28.7189 21.1621 14.2336 69.9729 6.85608 16.5879 73.1358 15.2482 7.16756 4.80388 2.75525 29.0824 3.67481 3.67072 4.57423 14.4853 9.52072 10.679 15.4987 3.93795 1.77948 8.08066 10.0029 3.55457
internal_count=20000 16087 3913 2389 15489 1946 1187 598 893 443 759 260 15375 2466 817 304 114 321 88 219 338 294 272 384 189 156 107 1649 267 509
is_linear=0
shrinkage=0.05


Tree=17
num_leaves=31
num_cat=0
split_feature=150 6 193 195 193 3 144 135 189 124 189 53 179 1 172 201 193 144 143 3 115 189 212 193 42 6 143 4 124 70
split_gain=76.0033 28.334 17.1713 12.792 5.34965 3.43147 3.27323 3.18383 3.15379 2.43573 2.91741 2.35327 2.04659 1.43748 1.42976 1.41374 1.40374 1.68752 1.2911 3.24413 1.26153 1.24471 1.19284 1.13374 1.12397 1.13487 1.10394 1.00553 1.49451 1.0038
threshold=2.8750000000000004 2.5000000000000004 1623.5000000000002 545570.00000000012 7971.0000000000009 477.50000000000006 6.5000000000000009 0.55000000000000016 11.500000000000002 3.7083333333350006 10.500000000000002 1.5000000000000002 2.4166666666650003 587.50000000000011 1.5000000000000002 255.50000000000003 52374.500000000007 47.500000000000007 0.27154500000000004 5793.5000000000009 0.078014500000000014 7.5000000000000009 52.500000000000007 1540.0000000000002 0.18673900000000002 1.0000000180025095e-35 0.19753600000000002 50.000000000000007 1.7750000000000001 0.10517350000000002
decision_type=2 2 2 2 2 2 2 2 2 2 2 2 2 2 2 2 2 2 2 2 2 2 2 2 2 2 2 2 2 2
left_child=2 4 3 -1 7 16 -6 -2 12 10 24 -4 15 -14 -11 21 27 20 19 -7 -18 -5 -16 -10 25 -9 -15 -3 -29 -8
right_child=1 5 11 8 6 18 29 9 23 14 -12 -13 13 26 22 -17 17 -19 -20 -21 -22 -23 -24 -25 -26 -27 -28 28 -30 -31
leaf_value=-0.053523849172615878 -0.047105637314752404 0.013550250790406615 -0.05343793771709248 0.025889266930901902 0.043161888943710223 -0.025582189077799463 -0.051285865963154237 -0.032973555138363635 -0.04865832216665588 0.032082814268990047 -0.048351412976509661 0.060156236581828143 0.050853962975603573 -0.032578164172876352 0.017640018690856126 -0.058085547918422756 0.036398795423376616 -0.03668901495456936 0.054644557796384087 0.054792490107150163 -0.02194331539725394 -0.030596087523079671 -0.062967979562793638 0.035354420224920968 0.043795628790695963 0.018803170500097804 0.03239714870380718 0.00057059929799472945 0.041622689888994931 0.030347349296420641
leaf_weight=9.1631298803258705 2.9412164485547718 4.6927340743131927 55.363680600421503 4.1629156428389313 1.0785386753268529 1.8403319516219188 10.197442717151713 1.8655725875869409 2.1291177649982269 9.415023267734794 3.2831890981178731 0.45971663855016132 7.6741893854923529 1.0146972772199663 1.1158746432047326 0.81170147517696012 4.1764390275347969 1.4900575939100233 36.866947318427265 3.9502988355234265 1.1907308315858243 1.2737021551001815 0.77959192753769446 0.49491563579067577 1.7620309269987044 2.445772809907794 1.8375481115654109 2.405703040771189 28.26483174553141 0.39101666212081987
leaf_count=2074 660 67 12499 75 34 73 2077 163 322 167 564 3 58 66 26 72 62 109 76 13 51 179 117 5 20 59 33 59 208 9
internal_value=1.96758e-09 0.0255425 -0.0363691 -0.004837 -0.0121208 0.0411954 -0.0398189 0.00156739 0.0181605 0.00849426 -0.0103782 -0.0525025 0.0261341 0.0395896 0.0241064 0.00346596 0.0310901 0.0103861 0.0511971 0.0292485 0.0234553 0.0126558 -0.0155135 -0.0328128 0.0101497 -0.00360126 0.00928193 0.0351048 0.0384027 -0.0482713
internal_weight=204.539 120.153 84.3853 28.5619 35.2753 84.8781 11.667 23.6083 19.3988 20.6671 9.35657 55.8234 16.7748 10.5264 11.3105 6.24832 42.2205 6.85723 42.6576 5.79063 5.36717 5.43662 1.89547 2.62403 6.07338 4.31135 2.85225 35.3633 30.6705 10.5885
internal_count=20000 4614 15386 2884 3896 718 2120 1776 810 1116 806 12502 483 157 310 326 556 222 162 86 113 254 143 327 242 222 99 334 267 2086
is_linear=0
shrinkage=0.05


Tree=18
num_leaves=31
num_cat=0
split_feature=193 58 172 3 134 190 43 176 2 5 58 15 6 199 17 195 112 3 180 138 9 192 215 112 183 141 211 212 144 189
split_gain=70.5685 22.9962 21.6485 15.9515 6.76737 3.75787 3.61521 3.45606 3.04792 2.84768 2.78896 2.28436 2.14224 1.85834 1.68219 1.67419 1.67298 1.97779 1.49445 1.43017 1.84647 1.08798 1.30074 1.08621 1.07004 0.943539 0.925956 0.895055 1.00796 0.873487
threshold=2595.0000000000005 0.029395000000000004 45.500000000000007 17.500000000000004 9.6333333333350009 1.5000000000000002 0.21775000000000003 1.0000000180025095e-35 1.0000000180025095e-35 17.500000000000004 0.043259500000000013 0.017865500000000003 4.5000000000000009 3.5000000000000004 0.073231500000000019 528903.50000000012 0.10293000000000001 21.500000000000004 0.024453916666650002 13.500000000000002 4.5000000000000009 10.500000000000002 95.500000000000014 0.14052650000000003 19.500000000000004 0.029070000000000002 22.500000000000004 1.5000000000000002 75.500000000000014 11.500000000000002
decision_type=2 2 2 2 2 2 2 2 2 2 2 2 2 2 2 2 2 2 2 2 2 2 2 2 2 2 2 2 2 2
left_child=2 6 3 4 8 14 16 12 19 -6 13 15 27 23 -3 -9 -2 25 -15 20 -1 22 26 -10 -21 -18 -16 28 -5 -22
right_child=1 5 -4 7 9 -7 -8 11 10 -11 -12 -13 -14 18 21 -17 17 -19 -20 24 29 -23 -24 -25 -26 -27 -28 -29 -30 -31
leaf_value=-0.053308913674567353 -0.053713553773794914 -0.027731461498649641 -0.05648163589454093 0.0064692059050451313 0.030630602314920166 -0.051125788374101803 0.047704415633431245 -0.060927983056037416 0.029995099501906899 -0.058499086469965045 -0.050822947732449365 -0.062194727671267505 0.053425714843552866 0.029953241689113588 -0.0036989988594761168 0.038586907852941402 0.029521039160887337 0.020108490165800068 -0.033343902567956184 0.048140980214492118 0.024445128935109046 0.040658830546050649 -0.042128884690952995 -0.029545108121431463 0.0064052150193796738 -0.049434413346116042 0.059253013465167703 0.040729582900492958 0.051577518663297878 -0.029842535983792648
leaf_weight=0.94173817243427294 56.934685556683689 1.2978827073238779 7.7580029994714996 4.6389789353124824 1.08620683569461 1.7546622375957657 0.94256356917321582 0.50629300321452264 6.2567488355562073 5.1220605114940554 2.5868827947415403 1.0879329252056775 44.301287034759298 1.2504880353808401 1.1865434008650479 2.5579170812852681 0.41242412198334832 1.657603997737169 3.6672363937832415 7.864411805290727 9.0149565057363326 9.4305673167109472 0.94865461019799102 0.8728741225786506 1.9084330187179146 4.5847894174512476 1.1505395695567129 15.975664049619807 1.6894311318174002 0.80731407599523741
leaf_count=109 13387 81 1831 72 25 299 8 120 188 1109 308 118 135 24 43 38 11 51 437 57 150 90 24 82 60 894 5 122 10 112
internal_value=-1.34073e-09 -0.0362734 0.0242945 0.0298829 0.00522294 0.017855 -0.0495 0.0443041 0.0137183 -0.0429048 -0.00371828 4.60021e-05 0.0470631 0.00639633 0.0264919 0.0221443 -0.0509409 -0.0272193 -0.0172486 0.0261433 0.0135708 0.0320261 0.00724895 0.0227056 0.0399909 -0.0429182 0.0272921 0.0344255 0.0185113 0.0199831
internal_weight=200.196 80.3009 119.895 112.137 41.3794 15.7688 64.5321 70.7575 35.1711 6.20827 14.6342 4.15214 66.6054 12.0473 14.0142 3.06421 63.5895 6.65482 4.91772 20.5369 10.764 12.7163 3.28574 7.12962 9.77284 4.99721 2.33708 22.3041 6.32841 9.82227
internal_count=20000 14893 5107 3276 2661 542 14351 615 1527 1134 1039 276 339 731 243 158 14343 956 461 488 371 162 72 270 117 905 48 204 82 262
is_linear=0
shrinkage=0.05


Tree=19
num_leaves=31
num_cat=0
split_feature=193 58 172 3 176 134 144 6 7 212 189 189 17 184 3 130 137 206 51 1 189 212 201 208 210 187 1 32 1 138
split_gain=66.2165 21.2655 20.2364 15.147 5.92908 4.41781 3.5262 3.51358 3.37189 2.94736 2.3423 1.91086 1.87331 1.70062 2.03617 1.65719 1.64103 1.5939 1.66694 1.48406 1.35456 1.32279 1.50162 1.31724 1.27917 1.08469 1.06435 1.02542 0.98513 1.83477
threshold=2595.0000000000005 0.029395000000000004 45.500000000000007 3.5000000000000004 1.0000000180025095e-35 9.6333333333350009 47.500000000000007 4.5000000000000009 682.50000000000011 31.500000000000004 8.5000000000000018 4.5000000000000009 0.073231500000000019 6.5000000000000009 21.500000000000004 69.125000000000014 9.5000000000000018 2.5000000000000004 1.0000000180025095e-35 46.500000000000007 12.500000000000002 1.5000000000000002 288.50000000000006 18.500000000000004 9.5000000000000018 13.500000000000002 865.50000000000011 3.5000000000000004 822.50000000000011 42.500000000000007
decision_type=2 2 2 2 2 2 2 2 2 2 2 2 2 2 2 2 2 2 2 2 2 2 2 2 2 2 2 2 2 2
left_child=2 8 3 5 7 9 12 20 13 24 17 -6 -3 -2 16 -12 -15 -11 -19 -7 21 22 -5 -16 -1 -22 -17 -26 -23 -30
right_child=1 6 -4 4 11 19 -8 -9 -10 10 15 -13 -14 14 23 26 -18 18 -20 -21 25 28 -24 -25 27 -27 -28 -29 29 -31
leaf_value=0.042715983305146428 -0.054058288935323252 -0.029635636435442394 -0.055921093751557349 0.026295757034050557 0.013663870573291551 0.039017336363261608 -0.037689350756567624 0.052350790171240481 0.040179988014277718 -0.059378568642933553 -0.047664344248238143 -0.052710382764873699 0.033821699857025732 -0.048621904563556369 0.032135722857997033 0.037341532570554108 0.041653314258030927 -0.055509846424483367 0.027296409943723249 -0.057287509913043259 -0.059589038100763214 0.046976072094418619 -0.027801022430342721 -0.066471925322078199 0.016082060898416822 0.020143745743745708 -0.059474771012095889 -0.052868449052384775 -0.0063121437748321699 0.043299060158727337
leaf_weight=5.3851200109347754 50.861100161448121 1.2928614732809354 7.4919418625067911 7.7541660431306791 2.3480262877419582 0.44315631175413628 2.4775818802881977 43.601485834922642 1.0481405854225148 0.74160864483565081 4.5550025557167828 2.0148315480910242 11.579882150283082 7.9653657898306829 1.6690287659876042 1.1234728198032824 0.53737006010487665 0.68294206471182217 5.5208486360497773 4.1108991364017129 0.70580463670194049 15.549876086181031 1.5370779705699531 0.42489587399177242 4.3349756076931953 1.0780919797252861 0.37985407933592785 0.61582103418186296 2.9094024512451124 5.1848263284191489
leaf_count=57 12513 91 1831 84 83 5 278 136 16 71 676 347 173 1687 55 38 17 104 89 936 91 97 44 63 114 56 72 81 64 31
internal_value=-2.20939e-10 -0.0357956 0.023604 0.0289921 0.0397405 -0.00286878 0.016935 0.0429006 -0.0487453 0.00592089 -0.00992001 -0.0169887 0.0274484 -0.0502618 -0.0320399 -0.0326411 -0.0429165 0.00989917 0.0181807 -0.0479161 0.0310327 0.0333312 0.0173464 0.0121264 0.0258505 -0.0114028 0.0128784 0.00750543 0.0396126 0.0254667
internal_weight=195.925 77.8562 118.069 110.577 82.6836 27.8937 15.3503 78.3207 62.5059 23.3396 13.0037 4.36286 12.8727 61.4578 10.5967 6.05833 8.50274 6.9454 6.20379 4.55406 34.7192 32.9353 9.29124 2.09392 10.3359 1.7839 1.50333 4.9508 23.6441 8.09423
internal_count=20000 14893 5107 3276 1033 2243 542 603 14351 1302 1050 430 264 14335 1822 786 1704 264 193 941 467 320 128 118 252 147 110 195 192 95
is_linear=0
shrinkage=0.05


Tree=20
num_leaves=31
num_cat=0
split_feature=193 58 195 3 189 190 43 31 172 212 112 3 135 6 8 206 4 195 17 171 143 198 45 32 141 192 211 184 3 1
split_gain=61.7747 20.2126 19.1182 15.8387 4.77536 3.39462 3.11655 2.80017 2.77434 2.13768 2.00739 2.10775 1.79593 2.58586 1.74666 1.63481 1.50438 2.4257 1.33504 1.2581 1.15826 1.21068 2.94066 1.01196 0.990058 0.921462 0.902281 0.900416 1.43813 1.01821
threshold=2595.0000000000005 0.029395000000000004 528903.50000000012 69.500000000000014 11.500000000000002 1.5000000000000002 0.21775000000000003 0.073231500000000019 47.500000000000007 55.500000000000007 0.10293000000000001 21.500000000000004 0.55000000000000016 1.0000000180025095e-35 0.56524950000000007 2.5000000000000004 50.000000000000007 585885.00000000012 0.073231500000000019 0.074476500000000015 0.23545500000000003 2.5000000000000004 0.025758500000000004 5.5000000000000009 0.029070000000000002 10.500000000000002 22.500000000000004 6.5000000000000009 23.500000000000004 837.50000000000011
decision_type=2 2 2 2 2 2 2 2 2 2 2 2 2 2 2 2 2 2 2 2 2 2 2 2 2 2 2 2 2 2
left_child=2 6 -1 4 8 18 10 -6 12 -9 27 24 13 -4 -11 -14 17 -5 -3 -17 21 22 -18 -21 -12 26 -20 -2 -29 -30
right_child=1 5 3 16 7 -7 -8 9 -10 14 11 -13 15 -15 -16 19 20 -19 25 23 -22 -23 -24 -25 -26 -27 -28 28 29 -31
leaf_value=-0.056116514284975952 -0.054914536289294491 -0.024033681775044835 -0.047922335149174322 -0.025382546401178981 -0.053848035314281797 -0.049998787619623529 0.044580547516885533 0.027965612720306621 -0.056672079344091165 0.038155340460049925 0.033321077258568366 0.024160445407854947 -0.038433690674375652 0.015541433552664165 -0.048689711902882744 0.04180239407906914 -0.059884722492603043 0.044374619806324511 -0.017153754514906808 0.02247724151800589 0.053185333818232566 0.053623371222651275 0.035134901493293021 -0.01647636666079411 -0.047263019451124516 0.037646723175733032 0.038264852799437636 -0.047021056510455739 0.038766589644165655 -0.057486920643434504
leaf_weight=7.1557502578943959 46.853592590428889 1.2690637265332032 2.2898941533640018 1.8224417662713666 4.1204525534994882 1.7081757229752828 0.89738655742257734 3.2012977602425963 1.2726713770534832 0.74598240666091475 0.41768047958612342 1.7327141202986238 1.0310279079712916 5.3669701395556331 2.5860707280226052 8.6197633785195666 0.96981997950933685 3.9416152387857437 1.7682399409823113 20.663764388067651 40.092408066615462 4.7505461168475449 5.0760420747101307 1.8136067753657688 4.3586618744302541 9.2737286179326457 1.2562764044851062 5.1912066405639044 0.95482856500893809 0.38575758505612612
leaf_count=1923 12127 81 361 72 864 299 8 99 297 11 11 51 83 181 410 60 104 11 64 395 81 26 35 94 894 90 8 1162 20 78
internal_value=-7.03577e-10 -0.0349882 0.0230389 0.0282659 0.00825789 0.0164288 -0.047908 -0.0215701 0.0159978 -0.00121309 -0.0492938 -0.023079 0.0183224 -0.00343831 -0.0292468 0.0235085 0.0465287 0.0223193 0.0247923 0.0255621 0.0492709 0.0347346 0.0198928 0.0193342 -0.0402161 0.0298307 0.00586516 -0.05249 -0.0350986 0.0110694
internal_weight=191.587 76.0673 115.52 108.364 51.7115 15.2755 60.7918 10.6538 41.0577 6.53335 59.8944 6.50906 39.785 7.65686 3.33205 32.1282 56.6529 5.76406 13.5673 31.0971 50.8888 10.7964 6.04586 22.4774 4.77634 12.2982 3.02452 53.3854 6.53179 1.34059
internal_count=20000 14893 5107 3184 2855 542 14351 1384 1471 520 14343 956 1174 542 421 632 329 83 243 549 246 165 139 489 905 162 72 13387 1260 98
is_linear=0
shrinkage=0.05


Tree=21
num_leaves=31
num_cat=0
split_feature=193 58 195 3 189 6 7 31 130 112 3 212 8 32 28 211 42 17 212 210 112 14 211 5 141 179 158 126 130 130
split_gain=57.6288 19.1483 17.8576 14.9005 4.23192 3.11157 2.9536 2.75449 2.45136 1.99069 2.041 1.98523 1.57232 1.53171 1.50511 2.0238 2.83477 2.02994 1.37758 1.33358 1.27276 1.32989 1.55034 1.29549 1.16111 1.12732 1.11067 1.03102 1.07181 1.23813
threshold=2595.0000000000005 0.029395000000000004 528903.50000000012 69.500000000000014 11.500000000000002 1.5000000000000002 717.00000000000011 0.073231500000000019 47.083333333350005 0.10293000000000001 21.500000000000004 55.500000000000007 0.56524950000000007 6.5000000000000009 0.14052650000000003 5.5000000000000009 0.099775000000000016 0.028241500000000006 1.0000000180025095e-35 206.50000000000003 0.34537950000000006 0.22810550000000004 24.500000000000004 217.50000000000003 0.36460100000000006 30.583333333350001 10.500000000000002 0.15176158333350001 2.5500000000000003 7.5500000000000007
decision_type=2 2 2 2 2 2 2 2 2 2 2 2 2 2 2 2 2 2 2 2 2 2 2 2 2 2 2 2 2 2
left_child=2 6 -1 4 8 -3 9 -6 13 -2 -11 -9 -13 20 15 16 17 -5 24 -10 21 26 23 -23 -7 -24 -4 -17 -29 -30
right_child=1 5 3 14 7 18 -8 11 19 10 -12 12 -14 -15 -16 27 -18 -19 -20 -21 -22 22 25 -25 -26 -27 -28 28 29 -31
leaf_value=-0.055634027624129459 -0.051879131615988242 -0.056865875318756455 0.013286863838333073 0.033736643659607345 -0.053004866460453062 0.0092192319656197383 0.050250349954823553 0.027011858976477905 -0.03206664009283873 -0.039633689688200142 0.023750693347916456 0.035788116522062444 -0.047201074222797602 -0.020120466433608805 0.055679386267533652 0.051344526002459569 0.045111455274683222 -0.063999529700270438 0.029959814866139189 0.028308954982056513 -0.034529143783473819 0.036194846274841617 -0.062183911790375634 -0.0029772287129069706 -0.06818511517191693 0.020174410982686582 -0.042247092305780318 -0.0050748800020414707 0.055269796539609041 0.016387074963177171
leaf_weight=6.8769027185626319 51.477986025391147 1.3526528428774316 5.2993796051014206 0.80978498933836762 3.9722267135512066 1.864139866549521 0.76548963319510122 3.3074167426675558 3.7753580568823955 4.6415977049618951 1.7484631501138208 0.74109492544084821 2.4828927812632173 2.2314190224278709 22.154179658740759 17.682092489907522 2.634989321231842 1.5446497763041405 11.402383009903131 1.207021804526448 0.94547432428225775 22.223234002478428 0.76117469137534388 2.3321788760367772 0.65462155966088165 0.91492796316742897 1.0846088614780454 1.6864144448190916 4.7815103102475387 3.580424836371094
leaf_count=1923 13391 299 151 8 864 71 4 99 505 905 51 11 410 183 44 69 10 95 126 38 42 280 68 76 46 15 113 15 12 76
internal_value=-8.88957e-10 -0.0343316 0.0224487 0.0275071 0.00812859 0.0155327 -0.0473211 -0.0201721 0.0154189 -0.0486118 -0.0222903 -0.000204143 -0.0281244 0.0199929 0.0456159 0.038802 0.00948622 -0.0303841 0.0225674 -0.0174402 0.02266 0.0243179 0.0292987 0.0324744 -0.010898 -0.0172273 0.00385191 0.0440767 0.0312875 0.0386209
internal_weight=186.937 73.9073 113.029 106.152 51.2784 15.2738 58.6335 10.5036 40.7748 57.868 6.39006 6.5314 3.22399 35.7924 54.874 32.7199 4.98942 2.35443 13.9211 4.98238 33.561 32.6155 26.2315 24.5554 2.51876 1.6761 6.38399 27.7304 10.0483 8.36194
internal_count=20000 14893 5107 3184 2855 542 14351 1384 1471 14347 956 520 421 928 329 285 113 103 243 543 745 703 439 356 117 83 264 172 103 88
is_linear=0
shrinkage=0.05


Tree=22
num_leaves=31
num_cat=0
split_feature=150 3 193 195 6 193 60 135 12 143 189 53 32 149 149 28 4 42 215 47 9 212 5 208 144 194 7 212 0 3
split_gain=54.5976 21.4508 14.1502 10.2342 3.6936 3.61839 2.93429 2.59891 2.44249 2.21154 2.16286 1.87761 1.77042 1.74483 1.52964 1.39354 2.14238 1.28686 1.2666 1.23392 1.18168 1.05975 1.04308 1.0012 0.936061 2.14916 1.88821 0.958913 0.928072 0.887899
threshold=2.7083333333350006 6.5000000000000009 1623.5000000000002 545570.00000000012 4.5000000000000009 16821.000000000004 3.5000000000000004 0.55000000000000016 5.5000000000000009 0.10983850000000002 7.5000000000000009 1.5000000000000002 6.5000000000000009 1.5000000000000002 4.5000000000000009 0.11363650000000002 50.000000000000007 0.099775000000000016 78.500000000000014 8.5000000000000018 4.5000000000000009 1.5000000000000002 108.50000000000001 24.500000000000004 37.500000000000007 1.0000000180025095e-35 557.50000000000011 96.500000000000014 3418.5000000000005 3642.5000000000005
decision_type=2 2 2 2 2 2 2 2 2 2 2 2 2 2 2 2 2 2 2 2 2 2 2 2 2 2 2 2 2 2
left_child=2 5 3 -1 12 7 -7 -2 18 -5 20 24 21 -12 19 16 17 -6 -9 -10 -11 22 -3 -14 25 -4 -27 -28 -20 -18
right_child=1 4 11 9 15 6 -8 8 14 10 13 -13 23 -15 -16 -17 29 -19 28 -21 -22 -23 -24 -25 -26 26 27 -29 -30 -31
leaf_value=-0.050756162072329684 -0.043401430043290723 0.021511948080337906 -0.053298294314472729 0.05362453287065453 -0.050870705690020203 -0.04909115087779431 0.031678543505989747 0.014554780343318459 0.024205413055482183 -0.027637244901834303 -0.04774250171527443 0.057369194311203867 -0.060481830802609694 0.011882965279971743 -0.048792917560437167 0.055861991136348835 0.031055655250066747 0.025860682544491066 -0.0044687463682095393 -0.026473468260154599 0.028992372041234005 0.033674287741839025 -0.021766393639345162 0.015788552150145265 -0.0540010308752688 -0.055371713461618871 -0.044614378471998867 0.042458712089967959 -0.051080041105188483 0.054128398416411733
leaf_weight=7.9411786259152022 3.1059333849698332 7.5900951924268174 6.2711939204018545 3.4210811567027148 0.99829798005521597 7.7400533708278072 1.3155930731445549 1.8519276578445012 13.6421384117566 1.0336819384247053 2.4636338141281149 0.40705605084076424 0.90601799963042029 2.4442768211010844 0.86097398446872908 22.436734609305859 7.7035230649635222 1.2071603238582609 1.665625295601785 1.3170380142983056 8.4653142062015814 22.260565479751676 1.7050012289546428 0.81943091191351414 37.705062628723681 1.1033042951021346 0.39100806415081035 1.652512877015397 2.9759824955835938 9.0897012911736947
leaf_count=2073 768 125 1570 38 67 1855 54 81 391 77 434 3 56 134 99 43 66 9 78 159 106 192 50 16 10545 278 63 43 508 19
internal_value=-1.23397e-09 0.0224074 -0.0333796 -0.0035439 0.037461 -0.0102177 -0.037357 -0.000549438 0.00541531 0.017486 0.00890452 -0.0495554 0.0250567 -0.0180474 0.0160136 0.0474242 0.0374596 -0.00887169 -0.0204052 0.0197435 0.0228299 0.0277533 0.0135734 -0.0242604 -0.0504791 -0.0363789 -0.00266073 0.0257981 -0.0343537 0.0435443
internal_weight=182.491 109.192 73.2993 25.7692 74.7165 34.4753 9.05565 25.4196 22.3137 17.828 14.4069 47.5301 33.2811 4.90791 15.8202 41.4354 18.9987 2.20546 6.49354 14.9592 9.499 31.5557 9.2951 1.72545 47.1231 9.41802 3.14683 2.04352 4.64161 16.7932
internal_count=20000 4636 15364 2862 643 3993 1909 2084 1316 789 751 12502 439 568 649 204 161 76 667 550 183 367 175 72 12499 1954 384 106 586 85
is_linear=0
shrinkage=0.05


Tree=23
num_leaves=31
num_cat=0
split_feature=150 6 193 195 193 3 143 189 144 170 46 53 28 5 187 210 141 123 19 12 189 57 210 2 195 47 1 17 144 203
split_gain=51.4964 20.3846 13.409 9.39426 3.57221 3.54283 2.15424 2.2445 2.14242 2.09872 1.81195 1.74881 1.67146 2.26323 1.81763 1.55233 1.5424 1.35772 1.28135 1.22662 1.49208 1.29006 1.17862 1.3238 1.11994 1.23615 1.69368 1.08679 1.00606 2.16351
threshold=2.8750000000000004 2.5000000000000004 1623.5000000000002 545570.00000000012 7971.0000000000009 126.50000000000001 0.10983850000000002 7.5000000000000009 6.5000000000000009 0.0069880000000000012 7.5000000000000009 1.5000000000000002 0.11363650000000002 26.500000000000004 4.5000000000000009 184.50000000000003 0.18776600000000002 1.2250000000000003 1.5000000000000002 5.5000000000000009 8.5000000000000018 0.11234450000000001 74.500000000000014 1.0000000180025095e-35 654122.00000000012 5.5000000000000009 617.50000000000011 0.049155500000000012 37.500000000000007 1.0000000180025095e-35
decision_type=2 2 2 2 2 2 2 2 2 2 2 2 2 2 2 2 2 2 2 2 2 2 2 2 2 2 2 2 2 2
left_child=2 4 3 -1 9 24 -5 22 -6 -2 19 28 13 17 -15 18 -9 -7 -16 20 -11 -21 23 -8 25 26 -3 -28 29 -4
right_child=1 5 11 6 8 12 7 16 -10 10 -12 -13 -14 14 15 -17 -18 -19 -20 21 -22 -23 -24 -25 -26 -27 27 -29 -30 -31
leaf_value=-0.050003410851507606 -0.05536438634992779 0.020569437718677655 -0.053783302647828747 0.052589733012443365 0.038380320504009156 -0.051823056251189804 0.013891069494158385 -0.047359383152106797 -0.042841411075571191 0.0096842935540245034 -0.037582797039624735 0.056850770379009957 0.053586651764741748 0.04840544543807733 0.018967574333768208 0.041942147099981557 0.0084732123087999569 0.041441681017657529 -0.053140047958333075 0.021854321723816104 -0.045371356754653432 -0.039623934656067283 0.035303979187356116 -0.063986933669099466 0.037730496043203221 0.033363895730378686 0.035387159559018076 -0.027996977449258928 -0.05370851324439585 -0.0035318428216138589
leaf_weight=7.6948212066199657 1.5843883475754434 8.2226898442022556 5.7871963509824109 3.297134070890027 0.8902792832814147 1.1482457877136791 2.8337331747170524 2.480987377697601 9.2212426008190942 3.2866341788321796 2.2945137585047624 0.3864608914591362 25.338384045287967 14.29922462301329 1.3186084851622575 2.3621212001889944 2.4669546415098011 0.5911121293902396 1.156388242729008 12.362406653352078 1.9672354650683699 0.9165737493895002 6.062124292133376 0.67581066116690625 8.3636473393999022 6.6699180766008785 0.81809342280030151 3.9011839171871543 36.251525804167613 3.400465328944847
leaf_count=2074 538 140 1536 38 34 62 71 459 2086 101 349 3 60 63 11 9 128 2 48 358 323 107 69 45 59 94 24 146 10545 418
internal_value=-2.34866e-10 0.0219855 -0.032888 -0.0038347 -0.0110201 0.0364545 0.016105 0.00781995 -0.0356902 0.000110362 0.00433046 -0.0490622 0.0449556 0.0344795 0.0394429 0.0129484 -0.0195223 -0.0201275 -0.0147231 0.00951966 -0.0109305 0.0176108 0.0219541 -0.00110541 0.0224111 0.0158781 0.0068664 -0.0170092 -0.049963 -0.0351846
internal_weight=178.05 106.713 71.3372 25.5116 32.5233 74.1896 17.8167 14.5196 10.1115 22.4118 20.8274 45.8256 46.2141 20.8757 19.1363 4.83712 4.94794 1.73936 2.475 18.5329 5.25387 13.279 9.57167 3.50954 27.9755 19.6119 12.942 4.71928 45.4392 9.18766
internal_count=20000 4614 15386 2884 3896 718 810 772 2120 1776 1238 12502 255 195 131 68 587 64 59 889 424 465 185 116 463 404 310 170 12499 1954
is_linear=0
shrinkage=0.05


Tree=24
num_leaves=31
num_cat=0
split_feature=193 58 3 195 172 134 5 184 144 189 212 131 7 3 137 143 206 17 198 45 143 201 3 18 201 130 112 112 47 3
split_gain=48.8593 16.1549 15.466 7.21914 6.66036 4.50112 3.06021 2.92157 2.75875 1.80403 2.18784 1.76614 1.59866 1.58755 1.60974 1.50023 1.37933 1.36356 1.32784 2.77681 1.19375 1.12936 1.05895 0.917864 1.48245 1.05212 0.875402 0.816626 0.811929 0.812832
threshold=2595.0000000000005 0.029395000000000004 69.500000000000014 528903.50000000012 45.500000000000007 9.6333333333350009 17.500000000000004 6.5000000000000009 47.500000000000007 11.500000000000002 30.500000000000004 86.100000000000009 682.50000000000011 21.500000000000004 9.5000000000000018 0.23545500000000003 2.5000000000000004 0.073231500000000019 2.5000000000000004 0.025758500000000004 0.073187500000000016 237.50000000000003 49.500000000000007 23.500000000000004 271.50000000000006 3.0833333333350006 0.27164650000000007 0.34537950000000006 5.5000000000000009 3.5000000000000004
decision_type=2 2 2 2 2 2 2 2 2 2 2 2 2 2 2 2 2 2 2 2 2 2 2 2 2 2 2 2 2 2
left_child=2 7 4 -4 5 9 -7 26 17 16 -11 -12 13 14 -9 18 -1 -3 19 -5 -18 -15 -8 24 25 -19 -2 28 -22 -30
right_child=1 8 3 15 -6 6 22 12 -10 10 11 -13 -14 21 -16 -17 20 23 -20 -21 27 -23 -24 -25 -26 -27 -28 -29 29 -31
leaf_value=-0.038457570827362557 -0.052366924625343161 -0.026158803737796627 -0.055761052483670727 -0.057958747910566301 -0.054259852195923608 0.039302181637464559 -0.055689571344195811 -0.044644479766733761 -0.03673966262330066 0.022585225064103695 -0.054416484864514336 0.0088026352276635595 0.046207926148165386 -0.064125908094599351 0.042023099878028505 0.048932827680435623 0.056787119676732473 -0.034965828409125647 0.048962132585437024 0.02874651072494987 0.013437254080082449 0.031185024516799692 0.017754490886162454 0.053324914824881033 0.046013975924358512 0.016707922281157871 0.028563996778556033 -0.028624698562545521 0.011914928691701042 0.04042743009802123
leaf_weight=1.0222335876896966 42.409788462100551 1.2837175035383541 1.8631762710865576 1.1367135487962494 4.7021507895551613 1.2476797001436342 4.6371048169676214 7.0756919537670875 2.3236407421063623 3.482447100337593 2.8405737632419914 1.8078918494284151 0.7895720340311535 0.38735560234636057 0.57966685900464643 39.368056355044246 2.1236010177526614 1.3421651530079524 4.2384639184456319 4.9209852078929543 19.949292780132971 1.5727080148644743 0.54889172920957197 2.7500987125094971 3.311983953230083 3.7023959166835994 0.33678586175665159 0.90962500078603525 3.8596463729627413 7.0935517381876707
leaf_count=83 12505 91 535 128 1378 29 1170 1687 278 135 548 121 6 56 17 126 17 33 35 40 534 62 29 16 35 89 18 45 114 40
internal_value=-2.90785e-10 -0.0331105 0.0212484 0.0408637 0.00260888 0.00800855 -0.031002 -0.0459458 0.0132544 0.0138333 -0.00738023 -0.0298292 -0.0221856 -0.0278018 -0.038082 0.0444886 0.0187673 0.0226301 0.027496 0.0124765 0.0204911 0.0123493 -0.0479162 0.0282692 0.0200235 0.00295951 -0.0517293 0.0180682 0.0194426 0.0303803
internal_weight=173.618 67.8656 105.752 51.5274 54.2247 49.5225 6.43368 53.1516 14.714 43.0889 8.13091 4.64847 10.405 9.61542 7.65536 49.6642 34.958 12.3904 10.2962 6.0577 33.9357 1.96006 5.186 11.1066 8.35655 5.04456 42.7466 31.8121 30.9025 10.9532
internal_count=20000 14893 5107 864 4243 2865 1228 14351 542 1637 804 669 1828 1822 1704 329 833 264 203 168 750 118 1199 173 157 122 12523 733 688 154
is_linear=0
shrinkage=0.05


Tree=25
num_leaves=31
num_cat=0
split_feature=193 59 3 195 172 134 184 189 5 124 143 6 210 168 187 201 143 198 45 33 210 5 5 0 3 115 193 140 195 56
split_gain=44.7612 16.0606 14.5718 6.71609 6.23439 4.57491 2.79402 2.71922 2.17506 1.96764 1.8449 1.84159 1.59896 1.6289 1.55181 1.52865 1.45251 1.22009 2.54412 1.17112 1.11089 1.10813 1.05655 0.977278 0.976817 0.903454 1.54086 0.861396 0.860447 0.838775
threshold=2595.0000000000005 0.03520800000000001 69.500000000000014 528903.50000000012 45.500000000000007 9.6333333333350009 6.5000000000000009 6.5000000000000009 17.500000000000004 1.8452380952350003 0.073187500000000016 1.0000000180025095e-35 17.500000000000004 0.073231500000000019 9.5000000000000018 208.50000000000003 0.23545500000000003 2.5000000000000004 0.025758500000000004 4.5000000000000009 90.500000000000014 124.50000000000001 29.500000000000004 4201239.0000000009 49.500000000000007 0.09761750000000001 4580.0000000000009 0.28444150000000007 554867.00000000012 0.10357750000000002
decision_type=2 2 2 2 2 2 2 2 2 2 2 2 2 2 2 2 2 2 2 2 2 2 2 2 2 2 2 2 2 2
left_child=2 6 4 -4 5 10 25 9 -7 29 -1 12 14 20 27 -8 17 18 -5 21 -14 23 -13 28 -10 -2 -27 -12 -17 -3
right_child=1 7 3 16 -6 8 15 -9 24 -11 11 22 13 -15 -16 19 -18 -19 -20 -21 -22 -23 -24 -25 -26 26 -28 -29 -30 -31
leaf_value=0.054573430684648788 -0.053021555370169608 0.0049617150006557266 -0.055349387747591461 -0.057345546778008585 -0.053934992693817164 0.028488141738080525 -0.054535199039946192 -0.046178201886910415 -0.055039976440826956 0.032739581327252791 -0.041346481413990673 -0.0090999616431548126 0.031491852717280437 -0.044900836800274561 -0.044280718682314528 -0.05397525069109757 0.047866379376266921 0.047347559688602728 0.027435134234660676 -0.05377135687703808 -0.03274365517285955 -0.052581208121828163 0.021281755049530428 -0.054850834457596788 0.015996685243282221 0.028763029541167759 -0.054351881978586362 0.030920248905440064 0.021331100153236655 -0.052880645315299894
leaf_weight=2.5447204418014726 38.789674331666902 1.8309518732130521 1.7856463643256564 1.0813848006073365 4.5053383507765821 1.17008224595338 2.6535668023861927 1.6366724793333549 4.4296438421588391 9.9043206023052317 0.45316300308331658 3.234345551114532 1.6877745487727227 3.6113529733847827 0.98274717875756312 0.41575410054065276 38.112311666831374 4.1508817411959171 4.869514137506485 1.2879098288249222 1.1195224337279794 0.90315991640090931 24.828579981578514 0.56469319760799397 0.54329072381369758 0.93341297027654868 1.3850990561768413 4.5785074469167739 4.3279404924251139 0.95295132510364045
leaf_count=41 12100 52 535 128 1378 29 674 273 1170 97 52 64 60 478 132 124 126 35 40 354 115 224 580 147 29 58 365 115 305 120
internal_value=-1.11012e-10 -0.0323284 0.0204487 0.0398718 0.00236017 0.00751693 -0.0454081 0.0144767 -0.0328476 0.0223006 0.013278 0.010683 -0.00533607 -0.0226931 0.0131875 -0.0219195 0.0433984 0.0265416 0.012029 -0.0103789 0.00587536 -0.00138192 0.0177802 0.00732904 -0.0472793 -0.0512094 -0.0208905 0.0244118 0.014731 -0.0148382
internal_weight=169.275 65.5861 103.689 49.9997 53.6891 49.1837 51.2612 14.3249 6.14302 12.6882 43.0407 40.496 12.4331 6.41865 6.01442 10.153 48.2141 10.1018 5.9509 7.49946 2.8073 6.21155 28.0629 5.30839 4.97293 41.1082 2.31851 5.03167 4.74369 2.7839
internal_count=20000 14893 5107 864 4243 2865 14351 542 1228 269 1637 1596 952 653 299 1828 329 203 168 1154 175 800 644 576 1199 12523 423 167 429 172
is_linear=0
shrinkage=0.05


Tree=26
num_leaves=31
num_cat=0
split_feature=184 193 3 189 6 60 195 5 168 134 7 193 4 195 2 198 168 112 1 127 112 56 7 187 195 0 5 96 152 102
split_gain=42.616 16.3653 12.3506 7.28539 4.6125 4.07776 3.99656 3.83568 1.71306 1.70074 1.65834 1.76755 1.58437 1.96052 1.56657 1.44603 1.32864 1.27343 1.21846 1.17401 1.0967 1.23157 1.07201 1.01897 1.06485 1.07342 1.01315 1.04578 0.709448 0.707667
threshold=5.5000000000000009 652.00000000000011 126.50000000000001 8.5000000000000018 1.0000000180025095e-35 3.5000000000000004 529896.00000000012 28.500000000000004 0.29742100000000005 13.291666666650002 717.00000000000011 605.00000000000011 50.000000000000007 585885.00000000012 1.5000000000000002 2.5000000000000004 0.021481500000000004 0.27164650000000007 363.50000000000006 0.18107750000000003 0.11838850000000002 0.023380500000000002 544.50000000000011 10.500000000000002 575545.50000000012 52245.500000000007 10.500000000000002 1.5000000000000002 2.5000000000000004 2.5000000000000004
decision_type=2 2 2 2 2 2 2 2 2 2 2 2 2 2 2 2 2 2 2 2 2 2 2 2 2 2 2 2 2 2
left_child=1 3 4 6 7 17 -1 14 18 15 11 22 13 -4 -2 20 -11 -3 -6 -5 21 -8 -9 -20 -25 -26 -7 -28 -17 -13
right_child=2 5 12 19 8 26 9 10 -10 16 -12 29 -14 -15 -16 28 -18 -19 23 -21 -22 -23 -24 24 25 -27 27 -29 -30 -31
leaf_value=-0.055344501613488917 0.040788226885681463 -0.050674690205301666 -0.028505475038837026 -0.048639968943894267 0.034077378637305734 0.049504079563855531 -0.051828442358637053 0.04116049235376297 -0.050780763846900195 0.035809784028814289 0.049779655249441605 -0.050302758016704974 0.050356744678673626 0.037812387194419816 -0.056064270777511319 0.022116607901255286 -0.046015770760337756 0.044011346715234351 0.018036004031785166 0.010287620905645115 0.048222614674603557 0.014870348990271299 -0.020285944712912635 -0.055355431476258377 0.021836156767053888 -0.04493451494491435 -0.027123234362013346 0.039358510843474422 0.056943939419339867 0.061025842445419247
leaf_weight=1.7394724912010193 3.3814736856147642 43.133180744713172 1.4325099185807619 6.2902124011889091 10.143416467122732 0.89103249320760269 0.76417896733619795 0.89655686682089797 0.88962850114330549 0.7582108390051866 0.64192499220371324 7.0095649044960737 30.541324122343212 5.0188517682254314 0.47632210282608856 2.0829014712944618 1.4350823492277411 0.35804062965325911 20.651903770980429 0.97643760545179237 2.2232522158883503 7.3364460342563689 3.4079207221511751 0.95856355177238484 2.3582677855156366 0.8082050431985407 2.4084632161539052 0.78411000780761231 4.9072394603863358 0.14571041404269625
leaf_count=542 109 13292 74 1616 172 11 129 19 255 14 2 1803 142 29 124 91 94 14 436 82 13 125 292 127 68 101 197 13 12 2
internal_value=1.61338e-09 -0.0274578 0.0235373 0.00249492 0.00777131 -0.0454097 0.0172755 -0.0145847 0.0177347 0.0237511 -0.0284245 -0.0328051 0.045601 0.0230867 0.0288298 0.0290057 -0.0177291 -0.0498952 0.0194802 -0.0407217 0.0171157 0.00857826 -0.00748759 0.0135043 -0.00918355 0.00479373 0.00236209 -0.010795 0.0465662 -0.0480357
internal_weight=164.85 76.0883 88.7621 28.5134 51.7695 47.5748 21.2468 15.9595 35.81 19.5073 12.1017 11.4598 36.9927 6.45136 3.8578 17.314 2.19329 43.4912 34.9204 7.26665 10.3239 8.10063 4.30448 24.7769 4.12504 3.16647 4.08361 3.19257 6.99014 7.15528
internal_count=20000 16245 3755 2718 3510 13527 1020 2351 1159 478 2118 2116 245 103 233 370 108 13306 904 1698 267 254 311 732 296 169 221 210 103 1805
is_linear=0
shrinkage=0.05


Tree=27
num_leaves=31
num_cat=0
split_feature=193 58 172 3 134 184 144 176 5 189 212 131 201 189 143 4 195 15 206 0 189 183 5 3 212 124 138 115 3 195
split_gain=40.2535 14.2745 12.7016 10.5203 4.1078 2.57226 2.40159 2.30698 2.04136 1.64732 1.82942 1.55744 1.39886 1.34527 1.28904 1.24065 1.38435 1.13153 1.10392 1.05003 0.991285 1.23411 1.08599 0.952362 0.930032 0.907809 0.861848 0.795885 1.36047 0.793792
threshold=2595.0000000000005 0.029395000000000004 45.500000000000007 69.500000000000014 9.6333333333350009 6.5000000000000009 47.500000000000007 1.0000000180025095e-35 17.500000000000004 11.500000000000002 30.500000000000004 86.100000000000009 208.50000000000003 6.5000000000000009 0.073187500000000016 50.000000000000007 585885.00000000012 0.017865500000000003 2.5000000000000004 4201239.0000000009 7.5000000000000009 14.500000000000002 94.500000000000014 49.500000000000007 3.5000000000000004 1.8452380952350003 16.500000000000004 0.09761750000000001 24.500000000000004 528903.50000000012
decision_type=2 2 2 2 2 2 2 2 2 2 2 2 2 2 2 2 2 2 2 2 2 2 2 2 2 2 2 2 2 2
left_child=2 5 3 4 9 27 13 15 -6 14 -11 -12 -7 25 -1 16 -5 29 -16 20 -14 -22 -23 -10 -17 -3 -27 -2 -29 -9
right_child=1 6 -4 7 8 12 -8 17 23 10 11 -13 19 -15 18 24 -18 -19 -20 -21 21 22 -24 -25 -26 26 -28 28 -30 -31
