tree
version=v4
num_class=1
num_tree_per_iteration=1
label_index=0
max_feature_idx=5
objective=lambdarank
feature_names=Column_0 Column_1 Column_2 Column_3 Column_4 Column_5
feature_infos=[-0.10927126556634903:0.84631198644638062] [5:11] [0:1] [0:1] [0:2] [0:4]
tree_sizes=1926 3454 3477 3480 3476 3472 3473 3463 3484 3475 3481 3485 3478 3476 3484 3498 3503 3478 3484 3494 3510 3505 3487 3511 3499 3495 3497 3502 3508 3499 3504 3518 3521 3517 3537 3514 3516 3513 3531 3513 3526 3527 3505 3499 3535 3540 3540 3527 3546 3539 3548 3555 3548 3555 3558 3557 3557 3562 3552 3577 3574 3575 3573 3584 3581 3595 3584 3582 3600 3582 3596 3600 3598 3608 3598 3609 3622 3595 3625 3607 3624 3620 3624 3619 3632 3618 3635 3631 3624 3624 3625 3630 3644 3649 3643 3645 3650 3640 3654 3643

Tree=0
num_leaves=17
num_cat=0
split_feature=4 0 1 4 0 0 0 0 0 0 1 0 1 0 2 0
split_gain=85.7417 1.71982 0.584906 0.540935 0.741508 0.337679 0.0767752 0.165509 0.0663535 0.0178398 0.0123115 0.00955548 0.00501751 0.0036954 0.00525624 7.10543e-15
threshold=1.0000000180025095e-35 0.43626253306865698 5.5000000000000009 1.5000000000000002 0.1393135488033295 0.29369643330574041 0.33794607222080236 0.3990138322114945 0.37391698360443121 0.25870206952095037 7.5000000000000009 0.32090020179748541 7.5000000000000009 0.51700448989868175 1.0000000180025095e-35 0.30085843801498419
decision_type=2 2 2 2 2 2 2 2 2 2 2 2 2 2 2 2
left_child=15 2 -2 4 -4 9 11 8 -8 10 -6 -7 -11 14 -3 -1
right_child=1 13 3 -5 5 6 7 -9 -10 12 -12 -13 -14 -15 -16 -17
leaf_value=-0.10000000000000001 0.094263745543699623 0.095934897713146713 0.090064758992616512 0.097813799421876457 -0.03032001071882523 0.033711338043810671 0.010872373600471146 -0.037763584252019672 0.057665237409400355 -0.027356300155318748 -0.0063798175368632182 0.046377249510365412 -0.044822827773574325 0.099999999999999992 0.099999999999999936 -0.099999999999999756
leaf_weight=10.614431162131948 0.74078968074172857 1.6253135967999679 0.42170186433941159 0.37357723340392102 0.087786770425736793 0.25952663738280513 0.16380251292139292 0.11553656682372093 0.1409536600112915 0.072852479293942451 0.13831612374633551 0.34936214238405228 0.094385507516562939 6.5633795261383057 1.5569287054240704 0.7159275028388955
leaf_count=863 3 5 4 3 6 4 8 7 5 5 9 7 6 9 5 51
internal_value=1.56077e-09 0.0891858 0.0557971 0.0429485 0.0318346 0.0145725 0.0296327 0.0131955 0.0325147 -0.0248327 -0.0156748 0.0409787 -0.037214 0.099322 0.0979238 -0.1
internal_weight=24.0346 12.7042 2.95859 2.2178 1.84422 1.42252 1.02918 0.420293 0.304756 0.393341 0.226103 0.608889 0.167238 9.74562 3.18224 11.3304
internal_count=1000 86 67 64 61 57 31 20 13 26 15 11 11 19 10 914
is_linear=0
shrinkage=0.05


Tree=1
num_leaves=31
num_cat=0
split_feature=4 0 4 1 0 0 1 0 5 0 1 0 0 0 0 0 0 0 0 1 0 0 0 1 0 0 0 0 0 1
split_gain=124.07 6.506 0.527558 0.393446 0.736322 0.881777 0.547982 0.558709 0.170606 0.235954 0.0783135 0.0457311 0.110576 0.001333 4.12256e-05 2.74664e-05 2.05857e-06 1.0419e-05 5.80393e-06 4.00813e-06 3.49685e-06 2.65578e-06 5.72562e-06 3.59944e-06 3.58484e-06 8.04777e-06 5.57699e-06 3.17517e-06 3.91892e-06 2.65548e-06
threshold=1.0000000180025095e-35 0.38965442776679998 1.5000000000000002 8.5000000000000018 0.30085843801498419 0.33062496781349188 6.5000000000000009 0.1393135488033295 1.5000000000000002 0.50027695298194896 7.5000000000000009 0.29369643330574041 0.21095471084117892 0.28098738193511968 0.57178789377212536 0.29369643330574041 0.048238299787044532 0.05633214861154557 0.061952631920576103 7.5000000000000009 0.03842169605195523 0.12701693177223208 0.11832216382026674 8.5000000000000018 0.22109936922788623 0.20316907763481143 0.23132774978876117 0.19569056481122973 0.19875334948301318 6.5000000000000009
decision_type=2 2 2 2 2 2 2 2 2 2 2 2 2 2 2 2 2 2 2 2 2 2 2 2 2 2 2 2 2 2
left_child=15 3 8 4 6 -6 -2 -8 9 -3 -7 12 -9 -14 -4 16 20 19 -19 -18 -1 22 -20 29 25 27 -26 -23 -29 -24
right_child=1 2 14 -5 5 10 7 11 -10 -11 -12 -13 13 -15 -16 -17 17 18 21 -21 -22 24 23 -25 26 -27 -28 28 -30 -31
leaf_value=-0.091375487481306264 -0.044391393267715698 0.053732652170834873 0.091984504179002613 0.055718297541586442 0.069193094160098487 -4.223312517393326e-06 0.062814684307482216 -0.030825469316608935 0.085908263410276631 0.082212708162343162 0.025605242271525719 -0.024027332372707516 0.0084770269333217952 0.012952872527614024 0.091820020357018584 -0.091109758315705336 -0.091734343574554955 -0.091212529316811786 -0.091396020986285686 -0.091460477976102961 -0.091257094462629418 -0.091363602477686892 -0.091427520116832237 -0.091259969572926855 -0.091638178356608591 -0.091196983518792074 -0.091398049758124433 -0.09170296906461943 -0.091385752867324643 -0.091618171565709006
leaf_weight=4.2556711882352891 0.55332968384027759 1.7552136685699236 7.6423761248588562 0.93008156120777119 1.2052457146346571 0.79969175159931161 0.42004239559173595 0.2141080070286987 1.5632664449512956 1.241762578487396 0.47633587941527367 0.24042978137731552 0.39653348550200462 0.2865656390786171 7.5954934358596802 0.9441139493137588 0.29650016129016776 0.46067756973206897 4.7353887353092414 0.24317050538957119 0.73078292049467553 4.487468084320426 0.25878964737057675 0.11104465648531914 0.27565873973071608 0.72226276993751515 1.9684386048465965 0.15921913087368 0.25061690434813499 0.62072646804153919
leaf_count=184 6 9 9 8 6 9 1 6 3 2 6 2 8 6 5 53 13 20 208 11 32 199 12 5 12 32 88 7 11 27
internal_value=-2.35517e-09 0.0740518 0.0874375 0.0260629 0.0200567 0.0385238 -0.00164937 0.0135337 0.0725177 0.065533 0.00955569 -0.00466194 0.000527519 0.0103547 0.0919025 -0.0913732 -0.0913859 -0.0913953 -0.0913871 -0.0916109 -0.0913581 -0.091393 -0.0914189 -0.0915282 -0.0913741 -0.0913528 -0.0914275 -0.0913758 -0.091509 -0.0915621
internal_weight=45.841 25.3205 19.7981 5.52236 4.59228 2.48127 2.11101 1.55768 4.56024 2.99698 1.27603 1.13764 0.897207 0.683099 15.2379 20.5205 19.5764 14.59 14.0503 0.539671 4.98645 13.5896 5.72595 0.990561 7.86366 5.61957 2.2441 4.8973 0.409836 0.879516
internal_count=1000 86 28 58 50 21 29 23 14 11 15 22 20 14 14 914 861 645 621 24 216 601 252 44 349 249 100 217 18 39
is_linear=0
shrinkage=0.05


Tree=2
num_leaves=31
num_cat=0
split_feature=4 0 2 0 1 0 0 1 1 2 0 5 0 0 1 0 0 0 0 0 0 5 0 0 0 0 0 1 0 0
split_gain=103.592 4.1667 0.92605 0.625334 0.857489 0.231671 0.342246 0.0875314 0.0596682 0.0562003 0.0252954 0.0309426 0.0166712 0.00877334 0.000133109 6.62787e-05 1.99544e-05 2.8064e-05 1.43075e-05 1.35782e-05 1.25857e-05 1.1919e-05 8.23579e-06 6.226e-06 2.21509e-05 2.45603e-05 1.33889e-05 8.50823e-06 5.57274e-06 5.50009e-06
threshold=1.0000000180025095e-35 0.43626253306865698 1.0000000180025095e-35 0.1393135488033295 6.5000000000000009 0.33062496781349188 0.38380901515483862 8.5000000000000018 5.5000000000000009 1.0000000180025095e-35 0.23857643455266955 1.5000000000000002 0.34382709860801702 0.28763535618782049 7.5000000000000009 0.29369643330574041 0.12701693177223208 0.22109936922788623 0.20112413913011554 0.23132774978876117 0.12487903609871866 1.0000000180025095e-35 0.19569056481122973 0.048238299787044532 0.05633214861154557 0.062946498394012465 0.03842169605195523 7.5000000000000009 0.052904622629284866 0.18759080767631534
decision_type=2 2 2 2 2 2 2 2 2 2 2 2 2 2 2 2 2 2 2 2 2 2 2 2 2 2 2 2 2 2
left_child=15 2 3 -2 8 7 12 10 -5 -3 -6 13 -7 -12 -11 16 20 18 22 -19 21 23 29 26 27 -26 -1 28 -25 -18
right_child=1 9 -4 4 5 6 -8 -9 -10 14 11 -13 -14 -15 -16 -17 17 19 -20 -21 -22 -23 -24 24 25 -27 -28 -29 -30 -31
leaf_value=-0.084923672861871247 0.065004651076799827 0.079570463671436387 0.085541319955086514 0.065007444089699828 -0.026703530768121365 0.041392570538688472 -0.016400358251060794 0.014134760595805887 0.043108782617128805 0.085618486163855631 -0.0090413360884270856 0.0054251123158422293 0.028411446883494132 -0.020102655878541965 0.08526532276104401 -0.084466532620842624 -0.084805636027453793 -0.085320646246957316 -0.084566792346141895 -0.084943389684326215 -0.085282588725668268 -0.08541721184707135 -0.085058194593238823 -0.085249312035279398 -0.084594973961080511 -0.0849684253264473 -0.084676955328567505 -0.085054560326511763 -0.085683784637744315 -0.084553332049683294
leaf_weight=3.9747178833931702 0.91399461403489368 6.6101935356855401 0.78829824924468983 0.64836860448122002 0.29364084079861663 0.58538171276450135 0.45220990851521481 0.35890107974410046 0.59792374819517136 4.7453866004943848 0.32502637431025505 0.24458819255232811 0.42829408869147301 0.39972579851746559 6.0949023962020874 0.90018425416201253 3.8978073783218852 0.27081768773496184 0.69761969055980433 1.9993485677987335 0.27361615374684412 0.12893268093466836 0.311705658212304 0.15860505774617184 0.48057273589074601 5.2478824984282255 0.63819565251469601 0.24777180142700672 0.13803938031196594 0.22867644764482964
leaf_count=180 4 8 2 3 8 6 9 5 7 5 7 4 5 7 6 53 188 12 36 88 12 6 14 7 24 234 32 11 6 11
internal_value=2.77316e-10 0.070818 0.0350108 0.0274207 0.0194948 0.00536534 0.0197713 -0.00765504 0.0545013 0.0832042 -0.013847 -0.00995244 0.0359078 -0.015142 0.0854199 -0.0848856 -0.0849058 -0.084842 -0.0847773 -0.0849884 -0.0849476 -0.0849393 -0.0848104 -0.0849336 -0.0849661 -0.0849371 -0.0848895 -0.0852708 -0.0854515 -0.0847917
internal_weight=43.0813 23.4868 6.03635 5.24805 4.33406 3.08777 1.46589 1.62188 1.24629 17.4505 1.26298 0.96934 1.01368 0.724752 10.8403 19.5945 18.6943 7.40598 5.13581 2.27017 11.2883 11.0147 4.43819 10.8858 6.27287 5.72846 4.61291 0.544416 0.296644 4.12648
internal_count=1000 86 67 65 61 51 20 31 10 19 26 18 11 14 11 914 861 349 249 100 512 500 213 494 282 258 212 24 13 199
is_linear=0
shrinkage=0.05


Tree=3
num_leaves=31
num_cat=0
split_feature=4 0 2 0 1 0 0 2 1 0 0 0 0 1 0 0 5 0 0 0 0 0 0 0 0 0 0 1 0 0
split_gain=87.8966 3.5287 0.784333 0.44503 0.60447 0.218637 0.278657 0.0895905 0.0775304 0.0665141 0.112272 0.0257323 0.00734052 0.0005626 9.26891e-05 3.88223e-05 2.4672e-05 2.36662e-05 2.43085e-05 2.01263e-05 2.00091e-05 1.37321e-05 1.4095e-05 8.55861e-06 3.90983e-05 1.42672e-05 1.16408e-05 1.09793e-05 6.93704e-06 3.69913e-05
threshold=1.0000000180025095e-35 0.43626253306865698 1.0000000180025095e-35 0.1393135488033295 6.5000000000000009 0.33062496781349188 0.38380901515483862 1.0000000180025095e-35 5.5000000000000009 0.23857643455266955 0.25870206952095037 0.34382709860801702 0.29369643330574041 7.5000000000000009 0.29369643330574041 0.12701693177223208 1.0000000180025095e-35 0.22109936922788623 0.23132774978876117 0.12487903609871866 0.20112413913011554 0.19569056481122973 0.18759080767631534 0.095083631575107588 0.10050746798515321 0.090529482811689391 0.11108140274882318 8.5000000000000018 0.048238299787044532 0.05633214861154557
decision_type=2 2 2 2 2 2 2 2 2 2 2 2 2 2 2 2 2 2 2 2 2 2 2 2 2 2 2 2 2 2
left_child=14 2 3 -2 8 9 11 -3 -5 -6 -11 -7 -12 -9 15 16 19 20 -19 23 21 22 -17 25 -25 28 -26 -28 -1 -30
right_child=1 7 -4 4 5 6 -8 13 -10 10 12 -13 -14 -15 -16 17 -18 18 -20 -21 -22 -23 -24 24 26 -27 27 -29 29 -31
leaf_value=-0.079787469216868037 0.057522470361105832 0.07301955974679461 0.08034471865166197 0.060039248234011869 -0.026731062367213867 0.041197485106136036 -0.013552245089535253 0.080806224895730361 0.03511199039651948 0.026972163253559691 -0.014357971137414252 0.025131697047877544 -0.0053909129836559365 0.080059545276115571 -0.079270333259754189 -0.079684657128755276 -0.080539559575260655 -0.080299476583261947 -0.079783807457640382 -0.080281748698339928 -0.079393162060190481 -0.080010972558832549 -0.079263172788189673 -0.080367837474818335 -0.079663086181110732 -0.079502059180267828 -0.079965947714705665 -0.07953737556185958 -0.080269118082078317 -0.079809244372589128
leaf_weight=4.4583394154906291 0.90239852666855114 6.4728541523218164 0.75187355279922474 0.64641606807708718 0.32656268216669593 0.59995880722999551 0.42673713713884343 6.2195237874984741 0.60284074768424034 0.27173447981476762 0.43249540030956268 0.42635870724916458 0.48322174698114395 4.244267463684082 0.87010520324110885 3.7655694559216495 0.13112209178507406 0.26011537946760688 1.8824878949671981 0.26280361972749311 0.66884188167750824 0.30427199974656094 0.20938462577760208 0.40716262347996179 0.68395724892616305 0.35141301155090321 1.2423660289496181 0.16987404786050309 0.52186965942382846 2.6978826653212309
leaf_count=212 4 8 2 3 9 6 9 5 7 4 10 5 8 6 53 188 6 12 88 12 36 14 11 19 31 16 57 8 24 127
internal_value=4.49944e-10 0.0660643 0.0326591 0.0256547 0.0188342 0.00654983 0.0204044 0.0776432 0.0480104 -0.00674687 -0.001251 0.0345233 -0.00962608 0.0805034 -0.0797744 -0.0797987 -0.0798578 -0.0797076 -0.0798464 -0.0798495 -0.0796475 -0.0796872 -0.0796625 -0.0798388 -0.0799195 -0.0798136 -0.0798324 -0.0799144 -0.0798279 -0.0798838
internal_weight=41.6948 22.8072 5.8706 5.11872 4.21633 2.96707 1.45305 16.9366 1.24926 1.51401 1.18745 1.02632 0.915717 10.4638 18.8876 18.0175 10.9268 7.09067 2.1426 10.7957 4.94807 4.27923 3.97495 10.5329 2.50336 8.0295 2.0962 1.41224 7.67809 3.21975
internal_count=1000 86 67 65 61 51 20 19 10 31 22 11 18 11 914 861 512 349 100 506 249 213 199 494 115 379 96 65 363 151
is_linear=0
shrinkage=0.05


Tree=4
num_leaves=31
num_cat=0
split_feature=4 0 2 0 1 0 0 2 0 0 1 0 0 5 1 0 0 5 0 0 0 0 0 0 0 1 0 0 0 0
split_gain=76.4393 3.20226 0.706966 0.375066 0.519015 0.202867 0.234443 0.118132 0.0557762 0.071182 0.0514725 0.0479569 0.00267 0.0153935 0.000839207 0.000114874 4.53191e-05 2.81899e-05 2.77353e-05 2.98204e-05 2.52208e-05 2.44483e-05 1.67073e-05 1.95663e-05 7.88868e-06 8.28763e-06 1.27285e-05 8.77381e-06 7.38332e-06 6.32208e-06
threshold=1.0000000180025095e-35 0.43626253306865698 1.0000000180025095e-35 0.1393135488033295 6.5000000000000009 0.33062496781349188 0.38380901515483862 1.0000000180025095e-35 0.21095471084117892 0.25870206952095037 5.5000000000000009 0.34382709860801702 0.30085843801498419 1.5000000000000002 7.5000000000000009 0.29369643330574041 0.12701693177223208 1.0000000180025095e-35 0.22109936922788623 0.23132774978876117 0.20112413913011554 0.12487903609871866 0.19569056481122973 0.18759080767631534 0.26462927460670477 7.5000000000000009 0.25298573076725012 0.23857643455266955 0.19875334948301318 0.095083631575107588
decision_type=2 2 2 2 2 2 2 2 2 2 2 2 2 2 2 2 2 2 2 2 2 2 2 2 2 2 2 2 2 2
left_child=15 2 3 -2 10 8 11 -3 -6 -10 -5 -7 13 -11 -9 16 17 21 20 -20 22 29 23 -18 25 27 -27 -21 -24 -1
right_child=1 7 -4 4 5 6 -8 14 9 12 -12 -13 -14 -15 -16 -17 18 -19 19 24 -22 -23 28 -25 -26 26 -28 -29 -30 -31
leaf_value=-0.075745770422516567 0.052768718002030916 0.067948900513676302 0.076230325688022821 0.053712572512146145 -0.030183523829117404 0.040263341350962809 -0.013101043760188936 0.077006200320179657 0.015369406444919296 -0.015664104913809606 0.033591032647582508 0.017967665233261116 -0.014634369753946278 0.0016267018953334757 0.076081692495675382 -0.075126825285675006 -0.075601521831522966 -0.076529185169420477 -0.076286805981927761 -0.075606659587338532 -0.075267473464469506 -0.076264453853012365 -0.076221087382936661 -0.075092871087870619 -0.075579071396587871 -0.075542993342101378 -0.07610903418850426 -0.076068499345197771 -0.075719855163515148 -0.075838639194869939
leaf_weight=7.8146113157272357 0.89795527607202785 6.3702165484428415 0.72571003437042225 0.64279648661613442 0.23124786838889155 0.62670133635401704 0.40978016331791867 6.0459925532341003 0.35765344277024247 0.33116786181926727 0.62867473810911179 0.39207399263978004 0.33266125619411469 0.2105635330080986 4.1323588490486145 0.8452422684058537 3.6597068589180703 0.12694847024977285 0.25131501257419619 0.143046138808131 0.64772137720137823 0.25368955917656499 0.14452489465475071 0.19936332199722517 0.7339036427438258 0.4662570133805275 0.12619833834469318 0.36583597771823406 0.1494396198540926 2.3939692862331867
leaf_count=379 4 8 2 3 7 6 9 5 6 8 7 5 6 4 6 53 188 6 12 7 36 12 7 11 35 22 6 18 7 115
internal_value=2.30154e-09 0.0620933 0.0300782 0.0234607 0.0171395 0.00543356 0.0188366 0.0732888 -0.00765134 -0.00342219 0.0437635 0.0316829 -0.0111085 -0.00894341 0.0766309 -0.0756961 -0.0757236 -0.0757886 -0.0756238 -0.075776 -0.0755577 -0.0757796 -0.0756029 -0.0755752 -0.0757061 -0.0757907 -0.0756636 -0.0759387 -0.0759663 -0.0757675
internal_weight=40.6573 22.3356 5.78699 5.06128 4.16332 2.89185 1.42856 16.5486 1.46329 1.23205 1.27147 1.01878 0.874393 0.541731 10.1784 18.3218 17.4765 10.5892 6.88731 2.08656 4.80076 10.4623 4.15303 3.85907 1.83524 1.10134 0.592455 0.508882 0.293965 10.2086
internal_count=1000 86 67 65 61 51 20 19 31 24 10 11 18 12 11 914 861 512 349 100 249 506 213 199 88 53 28 25 14 494
is_linear=0
shrinkage=0.05


Tree=5
num_leaves=31
num_cat=0
split_feature=4 0 2 0 1 0 0 2 0 0 0 1 5 1 0 0 0 0 0 5 0 0 0 0 0 1 0 0 0 0
split_gain=67.6 2.9744 0.648907 0.308901 0.446159 0.14396 0.248277 0.142524 0.0442129 0.0421882 0.0414788 0.0381421 0.00295193 0.00114705 0.000574688 0.000131505 7.08804e-05 3.02239e-05 3.73483e-05 2.95833e-05 2.69019e-05 2.35733e-05 2.14477e-05 2.1277e-05 1.3931e-05 1.4467e-05 2.07285e-05 1.49055e-05 8.85797e-06 7.65291e-06
threshold=1.0000000180025095e-35 0.43626253306865698 1.0000000180025095e-35 0.1393135488033295 6.5000000000000009 0.33062496781349188 0.34382709860801702 1.0000000180025095e-35 0.21095471084117892 0.38380901515483862 0.25870206952095037 5.5000000000000009 1.5000000000000002 7.5000000000000009 0.28972342610359197 0.29369643330574041 0.12701693177223208 0.22109936922788623 0.23132774978876117 1.0000000180025095e-35 0.12487903609871866 0.20112413913011554 0.19569056481122973 0.18759080767631534 0.26462927460670477 7.5000000000000009 0.25298573076725012 0.23857643455266955 0.19875334948301318 0.095083631575107588
decision_type=2 2 2 2 2 2 2 2 2 2 2 2 2 2 2 2 2 2 2 2 2 2 2 2 2 2 2 2 2 2
left_child=15 2 3 -2 11 8 -7 -3 -6 -8 -10 -5 14 -9 -12 16 19 21 -19 20 29 22 23 -18 25 27 -27 -20 -24 -1
right_child=1 7 -4 4 5 6 9 13 10 -11 12 -13 -14 -15 -16 -17 17 18 24 -21 -22 -23 28 -25 -26 26 -28 -29 -30 -31
leaf_value=-0.072446998872981103 0.048259680003493677 0.06386491487643231 0.072877969041772767 0.049024913771112566 -0.026347393331624197 0.038743385841319679 0.0092770165274074431 0.0739436466726303 0.011934252555138506 -0.014527912975775751 -0.012488885122846776 0.031754828608392453 -0.0043320401781845128 0.072848041381751091 -0.0091834557685967332 -0.071764086884510525 -0.072254042553864681 -0.073026327928523774 -0.072229492037878443 -0.073264692201196288 -0.073000483785456927 -0.071930650349951483 -0.07296054334657219 -0.071708010055548763 -0.07219143504218252 -0.07214469825200176 -0.072874743675393913 -0.072844062096772619 -0.072402569905545916 -0.072550111087863564
leaf_weight=7.649152338504793 0.89308174327016132 6.2679557353258142 0.70272240042686451 0.63981379568576791 0.22787196375429664 0.6565413177013395 0.34964099153876305 5.8850521445274353 0.35900165140628792 0.39797049388289452 0.20888166502118111 0.63902550935745239 0.30970262363553047 4.0214638113975525 0.35494584590196609 0.82192269433289666 3.4985752599313855 0.24348887801170338 0.13573626987636067 0.12278836965560991 0.24603209644556123 0.63619276322424401 0.13982003927230824 0.18799407593905915 0.69451748952269543 0.43943939357995987 0.12485809437930584 0.36119952239096165 0.14478285796940327 2.3530310243368149
leaf_count=379 4 8 2 3 7 6 5 5 6 9 5 7 6 6 7 53 188 12 7 6 12 36 7 11 35 22 6 18 7 115
internal_value=-2.87937e-10 0.0587926 0.0278682 0.0215881 0.0158392 0.00487656 0.0163078 0.0697655 -0.00611433 -0.00339489 -0.00237362 0.0403952 -0.00825383 0.0734989 -0.010408 -0.0723818 -0.0724117 -0.0722837 -0.072446 -0.0724932 -0.072484 -0.0722132 -0.0722585 -0.0722262 -0.0723655 -0.0724795 -0.0723062 -0.0726762 -0.0726767 -0.0724713
internal_weight=39.7132 21.9137 5.7392 5.03648 4.1434 2.86456 1.40415 16.1745 1.4604 0.747611 1.23253 1.27884 0.87353 9.90652 0.563828 17.7995 16.9776 6.6066 1.99924 10.371 10.2482 4.60736 3.97117 3.68657 1.75575 1.06123 0.564297 0.496936 0.284603 10.0022
internal_count=1000 86 67 65 61 51 20 19 31 14 24 10 18 11 12 914 861 349 100 512 506 249 213 199 88 53 28 25 14 494
is_linear=0
shrinkage=0.05


Tree=6
num_leaves=31
num_cat=0
split_feature=4 4 0 0 1 0 0 0 1 0 0 0 0 0 0 0 0 0 5 0 0 0 0 0 1 0 0 0 0 0
split_gain=60.4779 2.99007 0.793523 0.292755 0.392148 0.118883 0.171916 0.0440841 0.0355854 0.028082 0.0583475 0.00854279 0.00520897 0.00355025 0.000144729 8.33442e-05 3.2444e-05 4.20215e-05 3.02737e-05 2.86858e-05 2.38533e-05 2.48973e-05 2.27506e-05 1.71779e-05 1.84772e-05 2.42217e-05 1.76162e-05 1.02585e-05 8.22129e-06 6.73491e-05
threshold=1.0000000180025095e-35 1.5000000000000002 0.43626253306865698 0.1393135488033295 6.5000000000000009 0.33062496781349188 0.34382709860801702 0.38380901515483862 5.5000000000000009 0.21095471084117892 0.25870206952095037 0.50027695298194896 0.28763535618782049 0.311628207564354 0.29369643330574041 0.12701693177223208 0.22109936922788623 0.23132774978876117 1.0000000180025095e-35 0.12487903609871866 0.20112413913011554 0.19569056481122973 0.18759080767631534 0.26462927460670477 7.5000000000000009 0.25298573076725012 0.23857643455266955 0.19875334948301318 0.095083631575107588 0.10050746798515321
decision_type=2 2 2 2 2 2 2 2 2 2 2 2 2 2 2 2 2 2 2 2 2 2 2 2 2 2 2 2 2 2
left_child=14 2 3 -2 8 9 -7 -8 -5 -6 -11 -3 -12 -14 15 18 20 -18 19 28 21 22 -17 24 26 -26 -19 -23 -1 -30
right_child=1 11 -4 4 5 6 7 -9 -10 10 12 -13 13 -15 -16 16 17 23 -20 -21 -22 27 -24 -25 25 -27 -28 -29 29 -31
leaf_value=-0.069720805018210638 0.045785172970036141 0.06865748409545129 0.051235352743385393 0.045320376170990689 -0.022947421003555422 0.032747754112294102 0.010284622978084244 -0.0140987218146054 0.028678515882579071 0.012640157707557787 -0.0057784027803400037 0.071557330353314894 -0.018671311544460088 -0.010383790557975794 -0.068990293522195045 -0.06950410941585243 -0.070335052290608865 -0.069480501681011123 -0.070563469885976018 -0.070301748037179937 -0.069175547279120161 -0.070278750299008791 -0.068930638020871376 -0.069424616245987322 -0.069371839072534996 -0.070173364139310718 -0.07016038001731463 -0.069668385952932829 -0.070444857568364702 -0.06970969749178503
leaf_weight=7.4673078302294034 0.88716185837984074 3.4349521473050126 3.3661809414625168 0.6359337121248243 0.22665497660636935 0.64453647285699822 0.35255782678723335 0.39089210703969002 0.64909854903817177 0.37124831229448296 0.27079173177480698 9.7450724542140943 0.24702191725373268 0.27099062129855156 0.79824875202029844 3.3617501333355904 0.23544607684016217 0.13073939643800236 0.11846507526934225 0.23804833926260549 0.61875055730342854 0.13525562360882748 0.18232534732669581 0.66700904443860043 0.42227137461304665 0.12134108506143093 0.351260831579566 0.14019478857517242 0.37194437533617053 1.918166199699044
leaf_count=379 4 6 6 3 7 6 5 9 7 6 6 10 6 5 53 188 12 7 6 12 36 7 11 35 22 6 18 7 19 96
internal_value=-1.63416e-09 0.0559906 0.0325084 0.0197654 0.0140794 0.00350402 0.0138488 -0.00253568 0.0369142 -0.00685032 -0.00370521 0.0708016 -0.0113981 -0.0143358 -0.0696478 -0.0696797 -0.0695379 -0.0697092 -0.0697689 -0.0697595 -0.0694635 -0.0695102 -0.0694746 -0.0696221 -0.0697506 -0.0695507 -0.069976 -0.0699681 -0.0697462 -0.0698291
internal_weight=38.7716 21.4931 8.31307 4.94689 4.05973 2.77469 1.38799 0.74345 1.28503 1.38671 1.16005 13.18 0.788804 0.518013 17.2785 16.4803 6.36634 1.92807 10.1139 9.99547 4.43828 3.81953 3.54408 1.69262 1.02561 0.543612 0.482 0.27545 9.75742 2.29011
internal_count=1000 86 70 64 60 50 20 14 10 30 23 16 17 11 914 861 349 100 512 506 249 213 199 88 53 28 25 14 494 115
is_linear=0
shrinkage=0.05


Tree=7
num_leaves=31
num_cat=0
split_feature=4 0 4 4 0 1 0 0 0 0 0 0 0 0 1 0 0 5 0 0 0 0 0 0 0 1 0 0 0 0
split_gain=55.1765 2.74322 0.476107 0.292993 0.308661 0.315022 0.121005 0.0865204 0.157173 0.0568231 0.0274743 0.0737622 0.00141502 0.00213372 0.00112987 0.00016812 9.64378e-05 3.10779e-05 2.87578e-05 2.56494e-05 5.19456e-05 3.24182e-05 2.64692e-05 2.81071e-05 1.29756e-05 3.30379e-05 3.60546e-05 2.10608e-05 1.10166e-05 8.12283e-06
threshold=1.0000000180025095e-35 0.38965442776679998 1.5000000000000002 1.5000000000000002 0.1393135488033295 5.5000000000000009 0.33062496781349188 0.45892752707004553 0.44567660987377172 0.34382709860801702 0.21095471084117892 0.25870206952095037 0.28763535618782049 0.311628207564354 7.5000000000000009 0.29369643330574041 0.12701693177223208 1.0000000180025095e-35 0.12487903609871866 0.22109936922788623 0.23132774978876117 0.20112413913011554 0.19569056481122973 0.18759080767631534 0.26462927460670477 7.5000000000000009 0.25298573076725012 0.23857643455266955 0.19875334948301318 0.095083631575107588
decision_type=2 2 2 2 2 2 2 2 2 2 2 2 2 2 2 2 2 2 2 2 2 2 2 2 2 2 2 2 2 2
left_child=15 3 7 4 -2 -6 10 8 -3 -8 -7 -12 -13 -14 -4 16 17 18 29 21 -21 22 23 -18 25 27 -27 -22 -24 -1
right_child=1 2 14 -5 5 6 9 -9 -10 -11 11 12 13 -15 -16 -17 19 -19 -20 20 24 -23 28 -25 -26 26 -28 -29 -30 -31
leaf_value=-0.067459809723698652 0.043286853072530038 0.042533543385834552 0.069275559267227102 0.059970268125204895 0.042091484008918538 -0.020738630009264108 0.022847700707816443 0.037379667089469701 0.066790876668317803 0.0010280045116316141 0.01293584169241975 -0.0095337882549338254 -0.017126348685612351 -0.01066344068884921 0.068313589543961356 -0.06665792193061186 -0.067241465235738054 -0.068318969322391593 -0.068047459254883674 -0.068115737751807126 -0.067177275857092447 -0.066850343563802261 -0.068049860662476688 -0.066594835290563079 -0.06713999462699155 -0.066898890165426994 -0.06789855399675597 -0.067933097894550598 -0.06740939584248877 -0.067568755068999106
leaf_weight=7.2867967393249291 0.87949432060122745 1.4629992283880724 5.5521015524864197 0.4333343282341956 0.62918670475482974 0.2738915849477056 0.7772744260728357 1.182497978210449 1.2285310029983521 0.48428434506058693 0.4529466889798639 0.31877166032791138 0.24650238454341888 0.26500322297215462 6.7798641920089722 0.77589481882750888 3.3155130008235574 0.11689070612192232 0.23314152657985765 0.23042678087949742 0.12608067691326119 0.60219479072839011 0.13185125961899746 0.17702525947242964 0.64724131673574448 0.37019053380936384 0.11925320513546467 0.34264810010790825 0.13681076467037201 2.2359048835933208
leaf_count=379 4 10 5 2 3 8 8 3 1 8 7 7 6 5 9 53 188 6 12 12 7 36 7 11 35 22 6 18 7 115
internal_value=-4.07605e-10 0.0541409 0.0639433 0.0207723 0.0168471 0.0101027 0.00296212 0.0486529 0.0536056 0.0144716 -0.00636274 -0.00329435 -0.0121485 -0.013778 0.0687467 -0.0673768 -0.0674115 -0.0675085 -0.0674988 -0.0672569 -0.0674137 -0.0671909 -0.0672455 -0.0672087 -0.0673129 -0.0674298 -0.0671425 -0.0677298 -0.0677237 -0.0674854
internal_weight=37.8145 20.9667 16.206 4.76069 4.32736 3.44786 2.81867 3.87403 2.69153 1.26156 1.55712 1.28322 0.830277 0.511506 12.332 16.8479 16.072 9.87273 9.75584 6.19924 1.83584 4.3634 3.7612 3.49254 1.60541 0.958173 0.489444 0.468729 0.268662 9.5227
internal_count=1000 86 28 58 56 52 49 14 11 16 33 25 18 11 14 914 861 512 506 349 100 249 213 199 88 53 28 25 14 494
is_linear=0
shrinkage=0.05


Tree=8
num_leaves=31
num_cat=0
split_feature=4 0 2 0 1 2 0 0 1 0 0 0 0 1 0 0 5 0 0 0 0 0 0 0 1 0 0 0 0 0
split_gain=50.4951 2.71704 0.53073 0.227079 0.27041 0.0921871 0.0766015 0.165826 0.0252473 0.0203094 0.0553443 0.00556905 0.00728905 0.00139547 0.000181367 0.000105682 3.37583e-05 3.14597e-05 2.82513e-05 5.57979e-05 3.52022e-05 2.8237e-05 3.01557e-05 1.34628e-05 3.40742e-05 4.0234e-05 2.33106e-05 1.19062e-05 8.96321e-06 7.35055e-05
threshold=1.0000000180025095e-35 0.43626253306865698 1.0000000180025095e-35 0.1393135488033295 6.5000000000000009 1.0000000180025095e-35 0.33062496781349188 0.38380901515483862 5.5000000000000009 0.23857643455266955 0.25870206952095037 0.28972342610359197 0.311628207564354 7.5000000000000009 0.29369643330574041 0.12701693177223208 1.0000000180025095e-35 0.12487903609871866 0.22109936922788623 0.23132774978876117 0.20112413913011554 0.19569056481122973 0.18759080767631534 0.26462927460670477 7.5000000000000009 0.25298573076725012 0.23857643455266955 0.19875334948301318 0.095083631575107588 0.10050746798515321
decision_type=2 2 2 2 2 2 2 2 2 2 2 2 2 2 2 2 2 2 2 2 2 2 2 2 2 2 2 2 2 2
left_child=14 2 3 -2 8 -3 9 -8 -5 -6 -11 -12 -13 -7 15 16 17 28 20 -20 21 22 -17 24 26 -26 -21 -23 -1 -30
right_child=1 5 -4 4 6 13 7 -9 -10 10 11 12 -14 -15 -16 18 -18 -19 19 23 -22 27 -24 -25 25 -27 -28 -29 29 -31
leaf_value=-0.065522390647636278 0.040914533339950709 0.058761873966257309 0.065999016117122486 0.039368218358514659 -0.014414532496444822 0.067395343725785706 0.023542629030282976 -0.014059670965001006 0.025239610744569263 0.018553052000263925 -0.01153889881461116 0.0024688828844790837 -0.0092653483647547226 0.066130156499556225 -0.064676032051604271 -0.065290241854688055 -0.066427738491745811 -0.066144922761108213 -0.066211375479103565 -0.065207563130938881 -0.064876340500216886 -0.066139744925705721 -0.064609947021482025 -0.065189053033859481 -0.064930724899170664 -0.065998159884549878 -0.066014561432425539 -0.06546380668095389 -0.066293490394692997 -0.065509512662168187
leaf_weight=7.0812937971204466 0.87083325535059231 5.6971126198768589 0.64015981554985035 0.62078430503606774 0.3275092747062448 5.3760223388671875 1.0229661390185354 0.41099778935313214 0.64444010332226753 0.29133063554763772 0.34601498022675514 0.2654263973236084 0.26395031437277794 3.6654865741729736 0.75152696855366308 3.2197821224108356 0.11447303369641382 0.2274180334061392 0.22425139322876919 0.1223576348274944 0.58417007979005564 0.12804971449077118 0.17157857213169325 0.62842619046568871 0.35941430181264877 0.11701941303908825 0.33307470753788948 0.13262229971587658 0.35781831666827235 1.8184763602912424
leaf_count=379 4 8 2 3 9 5 11 9 7 4 8 5 5 6 53 188 6 12 12 7 36 7 11 35 22 6 18 7 19 96
internal_value=1.69191e-09 0.0524032 0.0231032 0.0176809 0.012856 0.0637435 0.00450997 0.0127652 0.0321718 -0.00341228 -0.000323851 -0.00660609 -0.00338187 0.0668824 -0.0654347 -0.0654712 -0.0655742 -0.0655639 -0.065307 -0.0654739 -0.0652367 -0.0652944 -0.0652558 -0.0653679 -0.0654885 -0.0651929 -0.0657978 -0.0657958 -0.0655497 -0.0656384
internal_weight=36.8148 20.443 5.70441 5.06425 4.19342 14.7386 2.9282 1.43396 1.26522 1.49423 1.16672 0.875392 0.529377 9.04151 16.3718 15.6202 9.59948 9.48501 6.02075 1.78454 4.2362 3.65203 3.39136 1.56029 0.931866 0.476434 0.455432 0.260672 9.25759 2.17629
internal_count=1000 86 67 65 61 19 51 20 10 31 22 18 10 11 914 861 512 506 349 100 249 213 199 88 53 28 25 14 494 115
is_linear=0
shrinkage=0.05


Tree=9
num_leaves=31
num_cat=0
split_feature=4 0 2 0 0 1 2 0 1 0 0 0 0 1 1 0 0 0 0 0 1 0 5 0 0 0 0 0 0 0
split_gain=46.0899 2.62527 0.502253 0.200513 0.236724 0.27222 0.10682 0.0878437 0.0779626 0.111528 0.0390927 0.0503986 0.0330151 0.00980023 0.00160913 0.000230429 7.24689e-05 4.91047e-05 4.18043e-05 3.85483e-05 3.87055e-05 4.02587e-05 3.25566e-05 3.22351e-05 2.69909e-05 3.28406e-05 2.24276e-05 1.32781e-05 1.20202e-05 1.0145e-05
threshold=1.0000000180025095e-35 0.43626253306865698 1.0000000180025095e-35 0.1393135488033295 0.29369643330574041 6.5000000000000009 1.0000000180025095e-35 0.38380901515483862 7.5000000000000009 0.34136113524436956 0.21095471084117892 0.25870206952095037 0.32090020179748541 7.5000000000000009 7.5000000000000009 0.26462927460670477 0.12701693177223208 0.22109936922788623 0.20112413913011554 0.23132774978876117 7.5000000000000009 0.25298573076725012 1.0000000180025095e-35 0.12487903609871866 0.19569056481122973 0.18759080767631534 0.23857643455266955 0.19875334948301318 0.29369643330574041 0.095083631575107588
decision_type=2 2 2 2 2 2 2 2 2 2 2 2 2 2 2 2 2 2 2 2 2 2 2 2 2 2 2 2 2 2
left_child=15 2 3 -2 10 -6 -3 8 -7 12 -5 -12 -10 -13 -8 16 22 18 24 -19 26 -22 23 29 25 -18 -21 -26 -17 -1
right_child=1 6 -4 4 5 7 14 -9 9 -11 11 13 -14 -15 -16 28 17 19 -20 20 21 -23 -24 -25 27 -27 -28 -29 -30 -31
leaf_value=-0.063863687159176549 0.038513836552107314 0.056528080286092755 0.064353587890785449 -0.01980715584113095 0.040870628000236407 0.035359998285550288 0.065963265559778425 -0.011660324217546167 0.0040794051510880721 0.023762733220526494 0.011401070285929064 -0.01991142527740792 -0.020276351056955612 -0.005518573544796357 0.064581184148047741 -0.063309615675497019 -0.063667625063558428 -0.06457967537163932 -0.063206376202334019 -0.063581673154955665 -0.06324857749356666 -0.064335986687658553 -0.064771584433280821 -0.064506701796458815 -0.064539884675610226 -0.062944279327975791 -0.064388513580641668 -0.063812710327409775 -0.063001481259807576 -0.06398930739152961
leaf_weight=6.8423758400604076 0.86264248937368648 5.5404935181140873 0.61672708392143238 0.35470585152506806 1.0155543871223929 0.34227178245782841 5.1955046057701111 0.41211189329624165 0.28584254533052422 0.56431443616747856 0.46507465466856956 0.20609331503510475 0.27110394835472107 0.27755391597747803 3.5416673719882965 0.5617485987022508 3.1512842290103436 0.21614183112978913 0.56446651555597771 0.11772901099175215 0.34693311247974634 0.1127878874540329 0.11042164266109544 0.21935758553445417 0.12313566915690888 0.16513580828905094 0.32087751291692257 0.12806728668510914 0.72494235076010227 2.1006400138139725
leaf_count=379 4 8 2 9 6 3 5 9 5 6 7 5 5 6 6 35 188 12 36 7 22 6 6 12 7 11 18 7 53 115
internal_value=-8.93356e-10 0.0505255 0.0217547 0.0165598 0.0120449 0.0200202 0.0619591 0.00873091 0.0144728 0.00809689 -0.00564564 -0.000350961 -0.00777621 -0.0116517 0.065403 -0.0637773 -0.0638341 -0.0636856 -0.0636062 -0.0639802 -0.0638359 -0.0635154 -0.0639182 -0.0639079 -0.0636695 -0.0636316 -0.0641719 -0.0641692 -0.063136 -0.0638932
internal_weight=35.7577 19.9517 5.674 5.05727 4.19463 2.8912 14.2777 1.87564 1.46353 1.12126 1.30343 0.948722 0.556946 0.483647 8.73717 15.806 14.5194 5.24656 4.13209 1.11447 0.898328 0.459721 9.2728 9.16237 3.56762 3.31642 0.438607 0.251203 1.28669 8.94302
internal_count=1000 86 67 65 61 34 19 28 19 16 27 18 10 11 11 914 826 314 249 65 53 28 512 506 213 199 25 14 88 494
is_linear=0
shrinkage=0.05


Tree=10
num_leaves=31
num_cat=0
split_feature=4 0 2 0 1 2 0 0 1 0 0 0 0 0 1 0 0 0 0 0 1 0 0 5 0 0 0 0 0 0
split_gain=42.2696 2.51571 0.472897 0.175232 0.21006 0.119814 0.0524416 0.117721 0.0301241 0.0212284 0.017526 0.0368955 0.00451352 0.00232993 0.00196696 0.000223887 6.36509e-05 4.33052e-05 4.33723e-05 4.17801e-05 3.71921e-05 3.88774e-05 3.62531e-05 3.09577e-05 3.16516e-05 2.71522e-05 3.61445e-05 1.56167e-05 1.19837e-05 6.88458e-05
threshold=1.0000000180025095e-35 0.43626253306865698 1.0000000180025095e-35 0.1393135488033295 6.5000000000000009 1.0000000180025095e-35 0.33062496781349188 0.34382709860801702 5.5000000000000009 0.38380901515483862 0.23857643455266955 0.25870206952095037 0.28972342610359197 0.311628207564354 7.5000000000000009 0.26462927460670477 0.12701693177223208 0.22109936922788623 0.20112413913011554 0.23132774978876117 7.5000000000000009 0.25298573076725012 0.23857643455266955 1.0000000180025095e-35 0.12487903609871866 0.19569056481122973 0.18759080767631534 0.19875334948301318 0.095083631575107588 0.10050746798515321
decision_type=2 2 2 2 2 2 2 2 2 2 2 2 2 2 2 2 2 2 2 2 2 2 2 2 2 2 2 2 2 2
left_child=15 2 3 -2 8 -3 10 -8 -5 -9 -6 -12 -13 -14 -7 16 23 18 25 -19 22 -22 -21 24 28 26 -18 -27 -1 -30
right_child=1 5 -4 4 6 14 7 9 -10 -11 11 12 13 -15 -16 -17 17 19 -20 20 21 -23 -24 -25 -26 27 -28 -29 29 -31
leaf_value=-0.062431015217700558 0.036333074280609119 0.05455626774639967 0.062944113352123937 0.036709040737217279 -0.012568251243453142 0.064736993491007172 0.026828755805477111 0.0067567213587551292 0.021144616788124918 -0.0098105577856324871 0.015813462555663928 -0.0090186293845000622 0.0016120206014414197 -0.0050126727669218447 0.063180342076845891 -0.061714550371458524 -0.062252228619253613 -0.063184747801553851 -0.061775632860915822 -0.061936244327745207 -0.061808915613273556 -0.062896706849261075 -0.063007829915622801 -0.063336850777593712 -0.063083021605942563 -0.063178091536605196 -0.061400541597505298 -0.062371713753332218 -0.063228954010029551 -0.062441056622941853
leaf_weight=6.6001571658998675 0.85526186227798717 5.3836065381765339 0.59252479672431935 0.60369224846363045 0.32753267697989974 5.0104860663414001 0.64571685343980767 0.36322066560387611 0.64092809706926346 0.41344515979290009 0.29503971710801102 0.35040987282991409 0.26489300653338432 0.266007449477911 3.4107246398925781 1.2671173559501756 3.042907871305943 0.20803296938538529 0.54448603000491846 0.10592211224138737 0.33417610544711351 0.10890686884522438 0.30970698781311512 0.10630263574421484 0.21132870949804861 0.1182617601007222 0.12988983280956734 0.12196080014109612 0.33154019713401828 1.6932635828852651
leaf_count=379 4 8 2 3 9 5 6 5 7 9 4 8 5 5 6 88 188 12 36 7 22 6 18 6 12 7 11 7 19 96
internal_value=8.79351e-10 0.0489022 0.0206966 0.0157162 0.0114886 0.0603821 0.00417061 0.0110532 0.028694 -0.00206259 -0.00233896 0.000509191 -0.00461428 -0.00170728 0.0641065 -0.0623509 -0.0624087 -0.0622663 -0.0621901 -0.062549 -0.062395 -0.0620763 -0.0627347 -0.0624887 -0.0624785 -0.0622562 -0.0622174 -0.0627687 -0.0624637 -0.0625701
internal_weight=34.6575 19.4235 5.61867 5.02615 4.17089 13.8048 2.92627 1.42238 1.24462 0.776666 1.50388 1.17635 0.88131 0.5309 8.42121 15.234 13.9668 5.02425 3.95751 1.06675 0.858712 0.443083 0.415629 8.94259 8.83629 3.41302 3.1728 0.240223 8.62496 2.0248
internal_count=1000 86 67 65 61 19 51 20 10 14 31 22 18 10 11 914 826 314 249 65 53 28 25 512 506 213 199 14 494 115
is_linear=0
shrinkage=0.05


Tree=11
num_leaves=31
num_cat=0
split_feature=4 4 0 0 0 0 0 0 0 0 0 0 1 0 0 0 0 0 1 0 0 0 5 0 0 0 0 0 0 0
split_gain=38.8449 2.53112 0.65197 0.161752 0.200776 0.299064 0.117504 0.211032 0.0275117 0.0425723 0.0266999 0.00915941 0.00442282 0.000220761 6.15706e-05 4.25019e-05 4.36258e-05 4.18538e-05 3.97318e-05 3.75393e-05 3.42127e-05 3.03529e-05 3.0047e-05 2.85902e-05 3.47989e-05 1.66023e-05 1.33452e-05 6.76014e-05 3.57768e-05 3.12495e-05
threshold=1.0000000180025095e-35 1.5000000000000002 0.43626253306865698 0.1393135488033295 0.30085843801498419 0.311628207564354 0.37766188383102423 0.3990138322114945 0.21095471084117892 0.25870206952095037 0.33505249023437506 0.50027695298194896 7.5000000000000009 0.26462927460670477 0.12701693177223208 0.22109936922788623 0.20112413913011554 0.23132774978876117 7.5000000000000009 0.25298573076725012 0.23857643455266955 0.12487903609871866 1.0000000180025095e-35 0.19569056481122973 0.18759080767631534 0.19875334948301318 0.095083631575107588 0.10050746798515321 0.089682053774595274 0.11048227548599245
decision_type=2 2 2 2 2 2 2 2 2 2 2 2 2 2 2 2 2 2 2 2 2 2 2 2 2 2 2 2 2 2
left_child=13 2 3 -2 8 -6 10 -8 -5 -10 -7 -3 -11 14 21 16 23 -17 20 -20 -19 22 26 24 -16 -25 28 -28 -1 -29
right_child=1 11 -4 4 5 6 7 -9 9 12 -12 -13 -14 -15 15 17 -18 18 19 -21 -22 -23 -24 25 -26 -27 27 29 -30 -31
leaf_value=-0.061232833333224573 0.034373557443697599 0.060313514382062505 0.044410258753346921 -0.017513344846650802 0.054228456314753759 -0.0060684605790505101 0.045841335978083465 -0.0053277659574408991 0.0097224531015535076 -0.016725004821988368 0.007795924499710484 0.063579072115971039 -0.0073217212566111262 -0.060481349695459853 -0.061026871901937896 -0.061977495769068316 -0.060541140483501003 -0.060736816303167386 -0.060566668690940378 -0.061657784551893503 -0.061800845651805519 -0.061869163555244855 -0.062102992540195315 -0.062001468587528197 -0.060172374874778847 -0.061152483738538613 -0.062019673717230508 -0.060879022839411413 -0.060700873993451754 -0.061363123830725147
leaf_weight=6.0154768275096959 0.84480734169483263 2.9113457426428804 2.885625809431076 0.35120023041963555 0.47398293763399157 0.61886257678270362 0.50295746326446522 0.33618316054344177 0.46844106912612915 0.20617777481675148 0.79122454673051834 8.1821351051330549 0.31779485940933228 1.2159417141228903 2.9232237283140425 0.19964546896517255 0.5235789157450198 0.10138091538101435 0.3209652965888381 0.10449160262942314 0.29648119769990444 0.20304757636040527 0.10210373159498054 0.11322457250207651 0.12421002145856608 0.11718304362148046 0.31933566369116295 0.46775254514068354 0.33359926193952549 1.1602336503565309
leaf_count=359 4 6 6 9 2 9 4 7 7 5 10 10 7 88 188 12 36 7 22 6 18 12 6 7 11 7 19 27 20 69
internal_value=-3.67249e-10 0.047378 0.0255475 0.0144654 0.0103299 0.0181335 0.0105271 0.0253416 -0.00548627 -0.00123006 0.00171109 0.0627221 -0.0110218 -0.0611265 -0.0611849 -0.0610419 -0.060965 -0.061328 -0.0611705 -0.0608346 -0.0615297 -0.0612651 -0.0612505 -0.0610326 -0.060992 -0.0615697 -0.06124 -0.0613545 -0.0612049 -0.061224
internal_weight=33.5326 18.8907 7.79726 4.91163 4.06682 2.72321 2.24923 0.839141 1.34361 0.992414 1.41009 11.0935 0.523973 14.6419 13.4259 4.82438 3.80142 1.02296 0.823319 0.425457 0.397862 8.60155 8.3985 3.27784 3.04743 0.230408 8.2964 1.94732 6.34908 1.62799
internal_count=1000 86 70 64 60 32 30 11 28 19 19 16 12 914 826 314 249 65 53 28 25 512 500 213 199 14 494 115 379 96
is_linear=0
shrinkage=0.05


Tree=12
num_leaves=31
num_cat=0
split_feature=4 4 0 0 1 0 0 1 5 1 0 0 0 0 0 0 0 0 0 0 1 0 0 0 1 5 0 0 0 0
split_gain=35.9716 2.41512 0.625503 0.145301 0.1835 0.0544761 0.108791 0.0335518 0.0272277 0.0332039 0.0180619 0.0308161 0.0128975 0.0242264 0.00905744 0.000212359 5.58628e-05 4.53985e-05 4.55155e-05 4.20524e-05 4.10718e-05 3.4254e-05 3.39738e-05 3.37835e-05 3.34923e-05 3.15805e-05 2.82983e-05 3.38981e-05 1.90414e-05 1.29553e-05
threshold=1.0000000180025095e-35 1.5000000000000002 0.43626253306865698 0.1393135488033295 6.5000000000000009 0.33062496781349188 0.34382709860801702 5.5000000000000009 1.5000000000000002 7.5000000000000009 0.37766188383102423 0.40711773931980139 0.24310979247093203 0.29369643330574041 0.50027695298194896 0.26462927460670477 0.12701693177223208 0.22109936922788623 0.20112413913011554 0.23132774978876117 7.5000000000000009 0.11832216382026674 0.25298573076725012 0.23857643455266955 8.5000000000000018 1.0000000180025095e-35 0.19569056481122973 0.18759080767631534 0.19875334948301318 0.29369643330574041
decision_type=2 2 2 2 2 2 2 2 2 2 2 2 2 2 2 2 2 2 2 2 2 2 2 2 2 2 2 2 2 2
left_child=15 2 3 -2 7 8 -7 -5 9 -6 -8 -12 -11 -14 -3 16 21 18 26 -19 23 25 -22 -21 -23 -1 27 -18 -28 -17
right_child=1 14 -4 4 5 6 10 -9 -10 12 11 -13 13 -15 -16 29 17 19 -20 20 22 24 -24 -25 -26 -27 28 -29 -30 -31
leaf_value=-0.060157059997014463 0.033012174356838835 0.059212616445770777 0.043724709608827808 0.035308629766792839 -0.015688110465320326 0.025354302609049903 -0.013997585762278662 0.018561563747998451 -0.017268347037330035 -0.0043550017589487266 0.014815621450862383 -0.0090121125714531219 0.017902885289398537 -0.0025096683219579998 0.06252391030645843 -0.059610919815498833 -0.059966379941540054 -0.060948072221227945 -0.059460380072238077 -0.059690880542594915 -0.05951514965262196 -0.060656767244201527 -0.060571947871999689 -0.060770673186290605 -0.059576102492247034 -0.06105732362899316 -0.060990029410967955 -0.059104092396271263 -0.060058441558768855 -0.059274149801574111
leaf_weight=7.4777591582387668 0.83632121235132295 2.8050695210695267 2.7893894910812378 0.56989356130361535 0.26447268761694454 0.64239624142646767 0.2357487715780735 0.62934964522719383 0.29410834982991207 0.27604538388550282 0.26414987072348595 0.27902209758758545 0.32408014312386513 0.2635754756629467 7.8289766013622284 0.49815675988793262 2.8106706859543924 0.19214650429785241 0.50334636773914088 0.097115946933627129 0.30859494023025036 0.62531083915382613 0.10092122200876474 0.28506094310432673 0.08098274189978838 0.098699207417666801 0.10874075908213843 0.11879252828657616 0.11068387515842915 0.66921045817434788
leaf_count=462 4 6 6 3 7 6 4 7 7 6 4 6 5 5 10 35 188 12 36 7 22 39 6 18 5 6 7 11 7 53
internal_value=-1.17561e-09 0.0462267 0.0248384 0.0140413 0.0101169 0.00319912 0.010122 0.02652 -0.00371905 -0.000186826 -0.00244049 0.00257555 0.0045598 0.00874744 0.0616505 -0.0600637 -0.060122 -0.0599831 -0.0599019 -0.0602845 -0.0601235 -0.0601998 -0.0597756 -0.0604963 -0.0605329 -0.0601688 -0.0599724 -0.0599314 -0.0605201 -0.0594179
internal_weight=32.3888 18.3026 7.66855 4.87916 4.04284 2.8436 1.42132 1.19924 1.42228 1.12817 0.778921 0.543172 0.863701 0.587656 10.634 14.0862 12.9188 4.63607 3.65223 0.98384 0.791693 8.28275 0.409516 0.382177 0.706294 7.57646 3.14889 2.92946 0.219425 1.16737
internal_count=1000 86 70 64 60 50 20 10 30 23 14 10 16 10 16 914 826 314 249 65 53 512 28 25 44 468 213 199 14 88
is_linear=0
shrinkage=0.05


Tree=13
num_leaves=31
num_cat=0
split_feature=4 4 0 0 1 0 0 1 5 1 0 0 0 1 0 0 0 0 0 0 1 0 0 1 0 0 0 5 0 0
split_gain=33.2573 2.40512 0.617146 0.140162 0.16892 0.0416764 0.087517 0.0289295 0.0230778 0.0289127 0.0126466 0.0103401 0.0195002 0.00509229 0.00131086 0.000207927 5.3052e-05 4.6925e-05 4.69541e-05 4.05976e-05 4.37368e-05 3.42528e-05 3.35063e-05 3.50318e-05 3.11406e-05 2.95954e-05 3.21237e-05 2.86523e-05 1.95682e-05 1.34513e-05
threshold=1.0000000180025095e-35 1.5000000000000002 0.43626253306865698 0.1393135488033295 6.5000000000000009 0.33062496781349188 0.34382709860801702 5.5000000000000009 1.5000000000000002 7.5000000000000009 0.38380901515483862 0.24310979247093203 0.29369643330574041 7.5000000000000009 0.57178789377212536 0.26462927460670477 0.12701693177223208 0.22109936922788623 0.20112413913011554 0.23132774978876117 7.5000000000000009 0.24310979247093203 0.11832216382026674 8.5000000000000018 0.25298573076725012 0.19569056481122973 0.18759080767631534 1.0000000180025095e-35 0.19875334948301318 0.29369643330574041
decision_type=2 2 2 2 2 2 2 2 2 2 2 2 2 2 2 2 2 2 2 2 2 2 2 2 2 2 2 2 2 2
left_child=15 2 3 -2 7 8 -7 -5 9 -6 -8 -11 -13 -3 -15 16 22 18 25 -19 21 -21 27 -24 -22 26 -18 -1 -27 -17
right_child=1 13 -4 4 5 6 10 -9 -10 11 -12 12 -14 14 -16 29 17 19 -20 20 24 -23 23 -25 -26 28 -28 -29 -30 -31
leaf_value=-0.059229771661093368 0.031777518689807424 0.062255411452121039 0.042827214526230534 0.033198552518857172 -0.014868249712068033 0.022165973481827635 0.0041866678785419196 0.017605737131747439 -0.016096291224260286 -0.003903098636052843 -0.0086562449176988462 0.016011442662007221 -0.0022635226000686649 0.059277461236754585 0.060732153787009517 -0.058683578919043883 -0.059037282412982367 -0.060035504358834896 -0.05851390677053421 -0.058992461259571333 -0.058586289098050109 -0.059985084785075631 -0.05973706131403133 -0.058589814691706113 -0.059618490035402275 -0.060104271116450461 -0.058177293345218033 -0.060104382146073804 -0.059139703272005108 -0.058332604613133623
leaf_weight=7.1741573456674832 0.82274601235985834 3.9758324027061462 2.6896480917930603 0.55915547162294366 0.26220020279288314 0.6442926228046415 0.35285286232829094 0.63558174669742584 0.29176391661167134 0.27619263716042042 0.41966130211949348 0.32559731975197792 0.26459181308746338 3.2815233767032623 2.9326489567756653 0.47638505697250255 2.6918555386364473 0.18420767877250899 0.48178285174071778 0.14176801405847073 0.29560806974768639 0.22459567710757256 0.5992700746282934 0.074852367863059044 0.09706222265958786 0.10419536475092162 0.11315206065773953 0.094880350865423568 0.10614500101655722 0.63941716775298119
leaf_count=462 4 5 6 3 7 6 5 7 7 6 9 5 5 7 4 35 188 12 36 10 22 15 39 5 6 7 11 6 7 53
internal_value=-4.98519e-11 0.0450144 0.0236146 0.0129702 0.00913234 0.00249107 0.00855865 0.0249034 -0.00356139 -0.000320838 -0.00279013 0.00408176 0.00781847 0.060858 0.059964 -0.0591362 -0.0591951 -0.0590567 -0.0589723 -0.0593696 -0.059208 -0.059601 -0.0592725 -0.0596097 -0.0588414 -0.0590455 -0.0590026 -0.0592412 -0.0596175 -0.0584825
internal_weight=31.2336 17.7343 7.54428 4.85464 4.03189 2.83715 1.41681 1.19474 1.42035 1.12858 0.772514 0.866382 0.590189 10.19 6.21417 13.4993 12.3835 4.44037 3.49713 0.943242 0.759034 0.366364 7.94316 0.674122 0.39267 3.01535 2.80501 7.26904 0.21034 1.1158
internal_count=1000 86 70 64 60 50 20 10 30 23 14 16 10 16 11 914 826 314 249 65 53 25 512 44 28 213 199 468 14 88
is_linear=0
shrinkage=0.05


Tree=14
num_leaves=31
num_cat=0
split_feature=4 4 0 0 1 0 0 1 0 0 5 1 0 0 0 0 0 0 0 0 1 0 0 1 0 0 0 5 0 0
split_gain=30.811 2.34944 0.584948 0.125275 0.148523 0.0391545 0.0725903 0.0239344 0.0198391 0.0291198 0.0190524 0.0228229 0.0103754 0.0143442 0.00826685 0.000203692 5.05159e-05 4.83977e-05 4.8177e-05 3.97358e-05 4.47783e-05 3.50295e-05 3.43967e-05 3.31904e-05 3.11228e-05 3.1025e-05 2.96498e-05 2.67106e-05 2.04283e-05 1.40929e-05
threshold=1.0000000180025095e-35 1.5000000000000002 0.43626253306865698 0.1393135488033295 6.5000000000000009 0.33062496781349188 0.34382709860801702 5.5000000000000009 0.37766188383102423 0.40711773931980139 1.5000000000000002 7.5000000000000009 0.24310979247093203 0.29369643330574041 0.50027695298194896 0.26462927460670477 0.12701693177223208 0.22109936922788623 0.20112413913011554 0.23132774978876117 7.5000000000000009 0.11832216382026674 0.24310979247093203 8.5000000000000018 0.19569056481122973 0.18759080767631534 0.25298573076725012 1.0000000180025095e-35 0.19875334948301318 0.29369643330574041
decision_type=2 2 2 2 2 2 2 2 2 2 2 2 2 2 2 2 2 2 2 2 2 2 2 2 2 2 2 2 2 2
left_child=15 2 3 -2 7 10 -7 -5 -8 -10 11 -6 -13 -14 -3 16 21 18 24 -19 22 27 -21 -23 25 -18 -22 -1 -26 -17
right_child=1 14 -4 4 5 6 8 -9 9 -11 -12 12 13 -15 -16 29 17 19 -20 20 26 23 -24 -25 28 -27 -28 -29 -30 -31
leaf_value=-0.058418044961797561 0.030348293700330001 0.057659493432465118 0.041875818482355227 0.031351711710106624 -0.013322669377187762 0.020897200385772495 -0.014267203002926521 0.017060515276855464 0.01504885732471275 -0.0080891654875807455 -0.014758666759253861 -0.0044764494602806968 0.014296363352040249 -0.0013550351106885023 0.060957362999918753 -0.057873336316783264 -0.058224534427935404 -0.059244427823908985 -0.057683780350119673 -0.058190612629757721 -0.057773621867320039 -0.058940483699461393 -0.059208322171290718 -0.057790761607106868 -0.059343518923830357 -0.057357493217820181 -0.058800833410858212 -0.059279644210192696 -0.058335480783211824 -0.05750545028945684
leaf_weight=6.8705258648842591 0.80985650047659952 2.588344618678093 2.5903728455305099 0.54783664643764474 0.26109722070395969 0.64140201732516267 0.22743409872055054 0.6297469325363636 0.26821137964725494 0.27581674605607986 0.2886223793029784 0.27546905726194382 0.32611778378486633 0.26562411710619926 7.1481621861457825 0.45446349494159111 2.5735223982483162 0.17649856116622675 0.46005788072943676 0.1353513402864337 0.28248012717813253 0.57375976908951987 0.21475878916680813 0.070483402349054813 0.099583653733134159 0.10748341400176276 0.093502048403024673 0.09114595316350449 0.10147207695990801 0.6093943677842617
leaf_count=462 4 6 6 3 7 6 4 7 4 6 7 6 5 5 10 35 188 12 36 10 22 39 15 5 7 11 6 6 7 53
internal_value=1.34101e-10 0.0439359 0.0227153 0.0124121 0.00878736 0.00257787 0.00846777 0.0237091 -0.0018662 0.00331811 -0.00329511 -0.000362726 0.00353921 0.00727068 0.0600807 -0.0583254 -0.0583848 -0.0582467 -0.0581589 -0.0585715 -0.058408 -0.058462 -0.0588149 -0.0588147 -0.0582348 -0.0581898 -0.0580291 -0.0584293 -0.0588348 -0.0576626
internal_weight=30.0586 17.1441 7.40761 4.81723 4.00738 2.82979 1.41286 1.17758 0.771462 0.544028 1.41693 1.12831 0.867211 0.591742 9.73651 12.9145 11.8506 4.24471 3.34212 0.902591 0.726092 7.60591 0.35011 0.644243 2.88206 2.68101 0.375982 6.96167 0.201056 1.06386
internal_count=1000 86 70 64 60 50 20 10 14 10 30 23 16 10 16 914 826 314 249 65 53 512 25 44 213 199 28 468 14 88
is_linear=0
shrinkage=0.05


Tree=15
num_leaves=31
num_cat=0
split_feature=4 4 0 0 0 0 0 0 0 0 0 1 0 0 0 0 0 0 0 1 0 0 0 1 0 0 5 0 0 0
split_gain=28.5783 2.30968 0.553994 0.115252 0.131633 0.166858 0.101006 0.154381 0.0224931 0.0418278 0.0194969 0.00596436 0.00225397 0.00136922 0.000196076 4.77761e-05 4.81634e-05 4.83165e-05 3.83073e-05 4.57273e-05 3.54087e-05 3.43401e-05 3.15079e-05 3.09118e-05 2.9125e-05 2.73523e-05 2.43007e-05 2.08194e-05 1.42764e-05 1.39806e-05
threshold=1.0000000180025095e-35 1.5000000000000002 0.43626253306865698 0.1393135488033295 0.30085843801498419 0.32090020179748541 0.37766188383102423 0.3990138322114945 0.21095471084117892 0.25870206952095037 0.33505249023437506 7.5000000000000009 0.57178789377212536 0.28763535618782049 0.26462927460670477 0.12701693177223208 0.22109936922788623 0.20112413913011554 0.23132774978876117 7.5000000000000009 0.11832216382026674 0.24310979247093203 0.19569056481122973 8.5000000000000018 0.18759080767631534 0.25298573076725012 1.0000000180025095e-35 0.19875334948301318 0.29369643330574041 0.16169656068086627
decision_type=2 2 2 2 2 2 2 2 2 2 2 2 2 2 2 2 2 2 2 2 2 2 2 2 2 2 2 2 2 2
left_child=14 2 3 -2 8 -6 10 -8 -5 -10 -7 -3 -13 -11 15 20 17 22 -18 21 26 -20 24 -22 29 -21 -1 -24 -16 -17
right_child=1 11 -4 4 5 6 7 -9 9 13 -12 12 -14 -15 28 16 18 -19 19 25 23 -23 27 -25 -26 -27 -28 -29 -30 -31
leaf_value=-0.057704911026882938 0.029201975860058235 0.061018980149032877 0.040912491864469984 -0.015316397661178413 0.040088380672780248 -0.0077487322603025212 0.040463302595613149 -0.0036930167873609151 0.010220115583062987 -0.0081919891157515405 0.0048336965859864653 0.057346667659638507 0.059349424026900369 -0.013408606546114164 -0.057163858492565667 -0.057421194422309078 -0.058542144848371239 -0.056958115207989074 -0.057483633106616597 -0.057058742316617173 -0.058236473663612356 -0.058525201843798606 -0.058667583876966328 -0.057099742646993204 -0.056648851816845883 -0.058067397565958162 -0.058544059938591159 -0.057625240032619866 -0.056784301912940441 -0.057669196761951258
leaf_weight=6.5692041972652095 0.79510942474007684 3.6393123269081116 2.4916722103953362 0.34734715148806605 0.52473210170865092 0.51087563112378143 0.48152605071663845 0.33611772581934929 0.47430676221847512 0.31836840137839317 0.77481541037559509 2.6123541444540024 3.0393243134021759 0.20794496685266495 0.4326529400423158 1.5636535836383716 0.16885858308523882 0.43847255874425162 0.12884081341326237 0.26933539751917124 0.54801331460475911 0.20512000564485788 0.094944014213979133 0.067132971249520779 0.10194761585444201 0.089562253095209599 0.087422448210418113 0.096694035455584526 0.57968195155262947 0.89269268885254849
leaf_count=462 4 5 6 9 4 7 4 7 7 7 10 7 4 5 35 118 12 36 10 22 39 15 7 5 11 6 6 7 53 70
internal_value=-7.56912e-10 0.0429276 0.0218036 0.0118242 0.00834906 0.0148646 0.00857183 0.0223115 -0.00435393 -0.000548513 -0.000165993 0.0594403 0.0584237 -0.0102531 -0.0576132 -0.0576728 -0.0575352 -0.0574456 -0.0578669 -0.0577023 -0.0577495 -0.0581234 -0.0575233 -0.0581124 -0.057477 -0.0573105 -0.0577159 -0.0581417 -0.0569465 -0.0575113
internal_weight=28.888 16.5538 7.26282 4.77114 3.97603 2.62807 2.10333 0.817644 1.34797 1.00062 1.28569 9.29099 5.65168 0.526313 12.3342 11.3219 4.05012 3.1884 0.861717 0.692858 7.27177 0.333961 2.74993 0.615146 2.55829 0.358898 6.65663 0.191638 1.01233 2.45635
internal_count=1000 86 70 64 60 32 28 11 28 19 17 16 11 12 914 826 314 249 65 53 512 25 213 44 199 28 468 14 88 188
is_linear=0
shrinkage=0.05


Tree=16
num_leaves=31
num_cat=0
split_feature=4 4 0 0 0 0 0 0 0 0 0 0 0 0 0 0 0 0 0 1 0 0 1 0 0 0 5 0 0 0
split_gain=26.5413 2.22984 0.511719 0.100186 0.119419 0.217697 0.0823474 0.0208026 0.0368036 0.019956 0.0433331 0.00989422 0.00292117 0.000181822 4.1656e-05 4.72938e-05 4.69196e-05 3.80134e-05 3.73207e-05 4.44559e-05 3.25825e-05 3.19564e-05 2.97038e-05 2.81384e-05 3.04243e-05 2.52102e-05 2.38945e-05 2.05729e-05 1.46011e-05 1.30855e-05
threshold=1.0000000180025095e-35 1.5000000000000002 0.43626253306865698 0.1393135488033295 0.30085843801498419 0.311628207564354 0.38965442776679998 0.21095471084117892 0.25870206952095037 0.33505249023437506 0.34382709860801702 0.50027695298194896 0.28763535618782049 0.26462927460670477 0.12701693177223208 0.22109936922788623 0.20112413913011554 0.11832216382026674 0.23132774978876117 7.5000000000000009 0.24310979247093203 0.19569056481122973 8.5000000000000018 0.18759080767631534 0.16169656068086627 0.25298573076725012 1.0000000180025095e-35 0.19875334948301318 0.29369643330574041 0.16401111334562304
decision_type=2 2 2 2 2 2 2 2 2 2 2 2 2 2 2 2 2 2 2 2 2 2 2 2 2 2 2 2 2 2
left_child=13 2 3 -2 7 -6 9 -5 -9 -7 -11 -3 -10 14 17 16 21 26 -17 20 -20 23 -19 24 -16 -21 -1 -23 -15 -26
right_child=1 11 -4 4 5 6 -8 8 12 10 -12 -13 -14 28 15 18 -18 22 19 25 -22 27 -24 -25 29 -27 -28 -29 -30 -31
leaf_value=-0.057064419513752608 0.027931710375253396 0.056003911281556532 0.03997680002159866 -0.014411110357874988 0.04838647297971662 -0.0046779852037183902 0.024194930362649882 0.0099774441235657135 -0.0062800647156005529 0.017335178864115588 -0.0037540147319745816 0.059793393804879302 -0.013938774571794738 -0.056545997654808812 -0.056741461098163165 -0.057924626045044426 -0.056322902328217232 -0.057620399157016867 -0.056862807174217239 -0.056432564246624808 -0.057902526984659058 -0.058067759638500964 -0.056477328650074682 -0.056008882447397018 -0.057666609426535176 -0.057423059718241513 -0.057914326179057819 -0.057005342245962667 -0.056152287178380535 -0.057046374398806568
leaf_weight=6.2704391032457334 0.7824258916079988 2.3438399285078049 2.396612748503685 0.34229837171733402 0.40287289395928416 0.60982440784573577 0.59777697548270214 0.4735439345240593 0.32075691595673561 0.49016036093235016 0.48419248312711716 6.4978178441524506 0.20349238440394402 0.41143791656941253 1.4684676444157978 0.16130451392382372 0.41743141226470459 0.52311022579669941 0.12261191941797733 0.25645792577415705 0.19549047574400902 0.090402821078896411 0.06376102939248085 0.096432221587747224 0.095491259358823188 0.085710898041725159 0.083803227171301731 0.09187452495098114 0.55067065777257085 0.77689379826188087
leaf_count=462 4 6 6 9 2 9 8 7 7 5 8 10 5 35 118 12 36 39 10 22 15 7 5 11 8 6 6 7 53 62
internal_value=-2.18457e-10 0.042029 0.0211696 0.0115944 0.00833761 0.0146174 0.00838229 -0.00377508 -0.000126329 0.00241551 0.00685517 0.0587888 -0.00925287 -0.0569793 -0.057038 -0.0569063 -0.0568152 -0.0571112 -0.0572428 -0.0570763 -0.0575018 -0.0568937 -0.0574962 -0.0568459 -0.0568804 -0.0566807 -0.0570756 -0.0575323 -0.0563207 -0.0571143
internal_weight=27.7074 15.9456 7.10396 4.70734 3.92492 2.58483 2.18195 1.34009 0.997793 1.58418 0.974353 8.84166 0.524249 11.7618 10.7997 3.85857 3.03699 6.94111 0.821576 0.660271 0.318102 2.61956 0.586871 2.43728 2.34085 0.342169 6.35424 0.182277 0.962109 0.872385
internal_count=1000 86 70 64 60 32 30 28 19 22 13 16 12 914 826 314 249 512 65 53 25 213 44 199 188 28 468 14 88 70
is_linear=0
shrinkage=0.05


Tree=17
num_leaves=31
num_cat=0
split_feature=4 4 0 1 0 1 0 1 0 0 0 1 0 0 0 0 0 0 0 0 0 0 1 1 0 0 5 0 0 0
split_gain=24.6369 2.1711 0.476053 0.0942465 0.121088 0.111458 0.114394 0.148309 0.128238 0.0361498 0.100864 0.00735487 0.00306911 0.0030274 0.00153307 0.000169464 0.000152848 3.70117e-05 4.55793e-05 4.55952e-05 3.84036e-05 3.60293e-05 4.30297e-05 3.17109e-05 3.1588e-05 3.08092e-05 2.3436e-05 2.34126e-05 1.82987e-05 2.17101e-05
threshold=1.0000000180025095e-35 1.5000000000000002 0.43626253306865698 8.5000000000000018 0.28763535618782049 5.5000000000000009 0.38965442776679998 6.5000000000000009 0.1393135488033295 0.32090020179748541 0.33794607222080236 7.5000000000000009 0.21095471084117892 0.57178789377212536 0.28763535618782049 0.26462927460670477 0.25870206952095037 0.12701693177223208 0.22109936922788623 0.20112413913011554 0.11832216382026674 0.23132774978876117 7.5000000000000009 8.5000000000000018 0.16169656068086627 0.24310979247093203 1.0000000180025095e-35 0.25298573076725012 0.16401111334562304 0.19569056481122973
decision_type=2 2 2 2 2 2 2 2 2 2 2 2 2 2 2 2 2 2 2 2 2 2 2 2 2 2 2 2 2 2
left_child=15 2 3 5 -5 -2 7 -7 -9 12 -11 -3 -10 -13 16 17 -14 20 19 24 26 -20 25 -22 -19 -23 -1 -24 -26 -30
right_child=1 11 -4 4 -6 6 -8 8 9 10 -12 13 14 -15 -16 -17 -18 18 21 -21 23 22 27 -25 28 -27 -28 -29 29 -31
leaf_value=-0.056499410167258193 0.029985593028316361 0.060069355708504885 0.039043914607197194 0.045939878631546541 0.0083894081814160793 -0.023709377366782049 0.026757802391903136 0.034489852463645214 -0.011294986235565536 0.027198388017581961 -0.0060015987468625019 0.055732819115608623 -0.0034673344754062663 0.058179359152908339 -0.007234798119402793 -0.055765530041600835 -0.0018093847071548779 -0.056179310916394623 -0.057374093927736805 -0.055759515552207199 -0.057074675745359106 -0.056311579469122276 -0.055875342615544089 -0.05585375082877117 -0.057211239204134338 -0.05734910862527054 -0.05735986667568848 -0.056852706520926638 -0.056369527329695891 -0.056985024920688493
leaf_weight=5.9717689696699363 0.49355603754520361 3.3185409605503082 2.3016554638743401 0.40754219144582737 0.45368777588009834 0.51265330985188562 0.49112963303923596 0.33774375915527377 0.18351022526621796 0.39975522086024273 0.53485137596726418 2.3608262985944748 0.28035694360733032 2.7227889895439148 0.2704450711607933 0.91193567635491568 0.27573423087596893 1.396446155384184 0.15374976210296143 0.39630487002432335 0.49830580782145251 0.11633579060435295 0.24361468199640512 0.059537035413086414 0.092432720586657413 0.18587036244571209 0.080197329632937797 0.081864823587238789 0.8283003708347676 0.17323092743754387
leaf_count=462 3 5 6 3 7 8 6 1 6 4 9 7 5 4 6 88 6 118 12 36 39 10 22 5 8 15 6 6 73 14
internal_value=7.54203e-11 0.0411423 0.0204522 0.0112317 0.0261586 0.00783058 0.00450309 0.000592624 0.00605114 0.00111196 0.00819889 0.0582384 -0.00544565 0.0570432 -0.00414696 -0.0564188 -0.00264525 -0.0564767 -0.0563494 -0.0562577 -0.0565474 -0.0566881 -0.0565201 -0.0569444 -0.0563369 -0.0569497 -0.0565108 -0.0561212 -0.0565381 -0.056476
internal_weight=26.5347 15.3448 6.94262 4.64097 0.86123 3.77974 3.28618 2.79505 2.2824 1.94465 0.934607 8.40216 1.01005 5.08362 0.826536 11.1899 0.556091 10.278 3.66815 2.88672 6.60981 0.781435 0.627686 0.557843 2.49041 0.302206 6.05197 0.32548 1.09396 1.00153
internal_count=1000 86 70 64 10 54 51 45 37 36 13 16 23 11 17 914 11 826 314 249 512 65 53 44 213 25 468 28 95 87
is_linear=0
shrinkage=0.05


Tree=18
num_leaves=31
num_cat=0
split_feature=4 4 0 0 0 1 0 0 1 5 1 0 0 0 0 0 0 0 0 1 0 0 0 1 0 0 0 0 5 0
split_gain=22.8522 2.12441 0.445717 0.1451 0.248605 0.114476 0.0361019 0.0769222 0.0154717 0.0131685 0.012849 0.0111328 0.00787647 0.00773597 0.012176 0.000155977 3.43464e-05 3.87754e-05 3.8467e-05 3.38348e-05 2.46032e-05 4.51764e-05 4.45127e-05 4.05176e-05 3.33621e-05 2.42075e-05 2.99658e-05 2.32878e-05 2.094e-05 1.81518e-05
threshold=1.0000000180025095e-35 1.5000000000000002 0.43626253306865698 0.11702932789921762 0.1393135488033295 6.5000000000000009 0.33062496781349188 0.38380901515483862 5.5000000000000009 1.5000000000000002 7.5000000000000009 0.50027695298194896 0.34136113524436956 0.24310979247093203 0.29369643330574041 0.26462927460670477 0.25568071007728582 0.12701693177223208 0.11832216382026674 8.5000000000000018 0.22109936922788623 0.20112413913011554 0.23132774978876117 7.5000000000000009 0.19569056481122973 0.18759080767631534 0.16169656068086627 0.24310979247093203 1.0000000180025095e-35 0.19875334948301318
decision_type=2 2 2 2 2 2 2 2 2 2 2 2 2 2 2 2 2 2 2 2 2 2 2 2 2 2 2 2 2 2
left_child=15 2 3 -2 -5 8 9 12 -6 10 -7 -3 -8 -12 -15 16 17 18 28 -20 21 24 -22 27 25 26 -19 -24 -1 -26
right_child=1 11 -4 4 5 6 7 -9 -10 -11 13 -13 -14 14 -16 -17 -18 20 19 -21 22 -23 23 -25 29 -27 -28 -29 -30 -31
leaf_value=-0.05598571730251907 -0.034351288483114008 0.054652756233118417 0.038122779203957818 0.043122102684463315 0.028431109173265703 -0.010562734461229158 0.021480129585860711 -0.0094872817259899038 0.016327185969057741 -0.012764926108026695 -0.0047975253898051217 0.058885501576216241 0.012247181245882791 0.012069591373562146 -0.0025003584032972296 -0.055266966794415666 -0.057076770843824669 -0.055676122003552798 -0.056577595949744076 -0.055253216301430999 -0.056867489027042861 -0.055248656870310789 -0.055820310371735543 -0.055476450736823994 -0.057054121951774263 -0.054963549473220547 -0.056065570230027721 -0.056805001149397231 -0.056818854341725393 -0.056010164095602936
leaf_weight=5.6724782921373826 0.17158157378434946 2.1135624274611473 2.207711897790432 0.57646992802619923 0.48225448280572913 0.2541587967425587 0.4046371169388292 0.42138126865029335 0.58340192586183548 0.28504591435194004 0.26613673008978367 5.8619705438613892 0.53825162351131439 0.31806806102395058 0.26110713183879852 0.86241299239918667 0.069407177157700839 1.3279903391376158 0.47400800697505463 0.053687915205955505 0.14627542532980431 0.37511479482054699 0.11021982133388519 0.28411143086850643 0.081596798263490089 0.085653419140726217 0.78643621969968069 0.1318957693874836 0.076435647904872783 0.085027375258505344
leaf_count=462 2 6 6 2 3 7 4 9 7 7 6 10 7 5 5 88 6 118 39 5 12 36 10 26 7 11 70 11 6 7
internal_value=2.51175e-11 0.0402784 0.0196799 0.0107557 0.0125184 0.00789326 0.00250003 0.00827253 0.0218047 -0.00318805 -0.000705175 0.0577638 0.0162095 0.00225868 0.00550108 -0.0559115 -0.0559685 -0.0559605 -0.0560343 -0.0564429 -0.0558249 -0.0557585 -0.0560959 -0.0558815 -0.0558393 -0.0557876 -0.055821 -0.0563567 -0.0559968 -0.0565214
internal_weight=25.3685 14.7457 6.77021 4.56249 4.39091 3.81444 2.74879 1.36427 1.06566 1.38452 1.09947 7.97553 0.942889 0.845312 0.579175 10.6228 9.76034 9.69093 6.27661 0.527696 3.41432 2.74182 0.672502 0.526227 2.3667 2.20008 2.11443 0.242116 5.74891 0.166624
internal_count=1000 86 70 64 62 60 50 20 10 30 23 16 11 16 10 914 826 820 512 44 308 249 59 47 213 199 188 21 468 14
is_linear=0
shrinkage=0.05


Tree=19
num_leaves=31
num_cat=0
split_feature=4 4 0 0 0 1 0 0 0 0 1 0 0 0 0 0 0 1 0 0 0 1 0 0 0 0 5 0 0 0
split_gain=21.2088 2.10544 0.42121 0.0772299 0.100523 0.125486 0.0428844 0.0190715 0.0168868 0.0246291 0.00672855 0.00298641 0.00214711 0.000145262 3.43652e-05 3.47658e-05 3.84712e-05 3.24876e-05 2.44035e-05 4.46596e-05 4.22505e-05 4.06969e-05 3.33665e-05 2.20329e-05 2.9772e-05 2.15798e-05 1.90006e-05 1.81681e-05 1.58533e-05 1.47347e-05
threshold=1.0000000180025095e-35 1.5000000000000002 0.43626253306865698 0.1393135488033295 0.30085843801498419 6.5000000000000009 0.38380901515483862 0.33505249023437506 0.21095471084117892 0.25870206952095037 7.5000000000000009 0.57178789377212536 0.28763535618782049 0.26462927460670477 0.25568071007728582 0.12701693177223208 0.11832216382026674 8.5000000000000018 0.22109936922788623 0.20112413913011554 0.23132774978876117 7.5000000000000009 0.19569056481122973 0.18759080767631534 0.16169656068086627 0.24310979247093203 1.0000000180025095e-35 0.19875334948301318 0.16401111334562304 0.29369643330574041
decision_type=2 2 2 2 2 2 2 2 2 2 2 2 2 2 2 2 2 2 2 2 2 2 2 2 2 2 2 2 2 2
left_child=13 2 3 -2 8 -6 7 -7 -5 -10 -3 -12 -11 14 15 16 26 -18 19 22 -20 25 23 24 -17 -22 -1 -24 -26 -15
right_child=1 10 -4 4 5 6 -8 -9 9 12 11 -13 -14 29 -16 18 17 -19 20 -21 21 -23 27 -25 28 -27 -28 -29 -30 -31
leaf_value=-0.055539487337404859 0.025206794528254479 0.059296358800266638 0.037205527989809695 -0.013722526497160157 0.029326951084189812 0.0022821282100255161 -0.0085431977110407165 0.014958296690369348 0.0078180093187736593 -0.0055973267548858115 0.054880573660707394 0.057442912192084541 -0.012245511483589844 -0.055073922832465663 -0.05666287351844447 -0.05523072753595825 -0.056143237619086676 -0.054804636834184364 -0.056432570993661481 -0.054795324563697491 -0.05540572911702666 -0.05502984205464341 -0.056647465374274335 -0.054535684430669966 -0.05628083770634737 -0.056378413400964583 -0.056352315273337783 -0.055574469116099028 -0.055547893544451998 -0.054644105182600849
leaf_weight=5.3843932989984733 0.71420730650424769 2.9945590496063232 2.1137809529900551 0.33183416351676009 0.81009157001972232 0.48872243240475632 0.41738555952906597 0.75527862086892128 0.45470453053712845 0.31328741833567619 2.1325253397226334 2.43624547123909 0.19833207875490189 0.34935012832284051 0.065920886583627047 1.2581481337547322 0.45000289939343918 0.050403847359120846 0.13916270621120919 0.35418348386883725 0.10464551951736212 0.26901478879153728 0.077371852472424396 0.080563395749777444 0.083039102144539245 0.12529745418578386 0.072869720868766197 0.080492069013416767 0.66140175797045231 0.46452351799234748
leaf_count=462 4 5 6 9 6 8 9 9 7 7 7 4 5 35 6 118 39 5 12 36 10 26 7 11 8 11 6 7 62 53
internal_value=1.04162e-09 0.0394477 0.0188054 0.0101312 0.00727491 0.0131924 0.00532519 0.00997829 -0.00399101 -0.000649229 0.0574543 0.0562469 -0.00817453 -0.055469 -0.0555253 -0.0555172 -0.0555888 -0.0560084 -0.0553852 -0.0553171 -0.0556622 -0.0554473 -0.0553995 -0.0553464 -0.055379 -0.0559358 -0.0555503 -0.0561004 -0.0556297 -0.0548286
internal_weight=24.2317 14.161 6.59762 4.48384 3.76964 2.47148 1.66139 1.244 1.29816 0.966324 7.56333 4.56877 0.511619 10.0708 9.25691 9.19099 5.95767 0.500407 3.23332 2.5952 0.63812 0.498958 2.24102 2.08315 2.00259 0.229943 5.45726 0.157864 0.744441 0.813874
internal_count=1000 86 70 64 60 32 26 17 28 19 16 11 12 914 826 820 512 44 308 249 59 47 213 199 188 21 468 14 70 88
is_linear=0
shrinkage=0.05


Tree=20
num_leaves=31
num_cat=0
split_feature=4 4 0 0 1 0 0 0 5 1 0 0 0 0 0 0 1 0 5 0 0 0 0 0 1 0 0 0 0 0
split_gain=19.6765 2.05653 0.390562 0.0708839 0.085163 0.0248558 0.0645777 0.0129998 0.0110233 0.0110173 0.0108798 0.00778377 0.000134501 3.42865e-05 2.97131e-05 3.90704e-05 3.03019e-05 2.44285e-05 1.77535e-05 1.61213e-05 4.93479e-05 3.81246e-05 2.08613e-05 1.65801e-05 1.57543e-05 1.45015e-05 1.388e-05 1.27896e-05 1.76875e-05 4.50386e-05
threshold=1.0000000180025095e-35 1.5000000000000002 0.43626253306865698 0.1393135488033295 6.5000000000000009 0.33062496781349188 0.34382709860801702 0.38380901515483862 1.5000000000000002 7.5000000000000009 0.50027695298194896 0.28098738193511968 0.26462927460670477 0.25568071007728582 0.12701693177223208 0.11832216382026674 8.5000000000000018 0.14378308504819873 1.0000000180025095e-35 0.048238299787044532 0.05633214861154557 0.061952631920576103 0.065834786742925658 0.070227965712547316 5.5000000000000009 0.29369643330574041 0.03842169605195523 0.081742804497480406 0.093950159847736373 0.10050746798515321
decision_type=2 2 2 2 2 2 2 2 2 2 2 2 2 2 2 2 2 2 2 2 2 2 2 2 2 2 2 2 2 2
left_child=12 2 3 -2 -5 8 -7 -8 9 -6 -3 -11 13 14 15 18 -17 -16 19 26 -21 -22 -23 -24 -19 -14 -1 -25 -29 -30
right_child=1 10 -4 4 5 6 7 -9 -10 11 -12 -13 25 -15 17 16 -18 24 -20 20 21 22 23 27 -26 -27 -28 28 29 -31
leaf_value=-0.055096984114938533 0.024398853053339789 0.053834767895712302 0.036307762561934041 0.019303909584940229 -0.0093802839224726708 0.019663075713753777 0.0047253545398158936 -0.0085670524289616391 -0.011290302641474412 0.0073136676818748667 0.058255285170534715 -0.0023566286414117973 -0.054693336433041244 -0.056301301085188965 -0.054728014605809172 -0.055761087610861237 -0.054429246548829371 -0.054474994775709197 -0.055947717727716617 -0.055874931116126292 -0.05451908123721725 -0.055755785728765273 -0.054644648909630639 -0.055438021514864801 -0.055100610245525851 -0.054253901985176101 -0.054754092737662956 -0.054906585289263315 -0.055842074522704621 -0.055063873788558163
leaf_weight=2.0056470828130828 0.69588670879602244 1.8923539295792577 2.0210391655564308 1.0203086882829668 0.24811076559126399 0.58292549476027467 0.33515888080000877 0.40766936913132668 0.27829040959477414 0.42897613346576691 5.2634348571300507 0.40412411838769913 0.32925853040069419 0.062420438975096526 0.65105666918680105 0.4265442881733178 0.047459430061280727 0.1052314676344398 0.069407165050506481 0.26390383206307921 0.2147697797045115 0.16594460140913758 0.13845722004771266 0.47071645688265551 2.3007917921058834 0.43681348767131567 0.34605300053954113 0.52842946909368016 0.2513366686180234 0.71441910415887833
leaf_count=180 4 6 6 10 7 6 5 9 7 8 10 8 35 6 63 39 5 10 6 24 20 16 12 43 235 53 32 48 23 64
internal_value=1.40463e-09 0.0386515 0.0181119 0.00975674 0.00700702 0.00233461 0.00720596 -0.00256961 -0.00241582 -0.00013164 0.0570863 0.00262276 -0.0550781 -0.0551336 -0.0551253 -0.0551933 -0.0556277 -0.0549997 -0.0551534 -0.0551426 -0.0552249 -0.0551558 -0.0552161 -0.0551735 -0.0550732 -0.0544428 -0.0550465 -0.0552107 -0.0551391 -0.0552664
internal_weight=23.1069 13.5783 6.42249 4.40145 3.70556 2.68526 1.32575 0.742828 1.3595 1.08121 7.15579 0.8331 9.52866 8.76259 8.70017 5.64309 0.474004 3.05708 5.16908 5.09968 2.74798 2.48407 2.2693 2.10336 2.40602 0.766072 2.3517 1.9649 1.49419 0.965756
internal_count=1000 86 70 64 60 50 20 14 30 23 16 16 914 826 820 512 44 308 468 462 250 226 206 190 245 88 212 178 135 87
is_linear=0
shrinkage=0.05


Tree=21
num_leaves=31
num_cat=0
split_feature=4 4 0 0 0 1 0 0 0 0 1 0 0 0 0 0 0 0 1 5 1 0 0 0 0 0 0 0 0 0
split_gain=18.2434 2.01413 0.362286 0.0644257 0.0731248 0.0998684 0.0329479 0.0158272 0.0225221 0.0152424 0.00765781 0.00386663 0.00153822 0.000123797 3.28601e-05 2.63614e-05 3.80864e-05 3.06176e-05 2.78484e-05 1.57113e-05 1.55272e-05 1.3927e-05 1.21897e-05 4.73357e-05 3.43866e-05 2.54131e-05 1.76086e-05 1.4363e-05 1.34802e-05 2.05854e-05
threshold=1.0000000180025095e-35 1.5000000000000002 0.43626253306865698 0.1393135488033295 0.30085843801498419 6.5000000000000009 0.38380901515483862 0.21095471084117892 0.25870206952095037 0.33505249023437506 7.5000000000000009 0.57178789377212536 0.28763535618782049 0.26462927460670477 0.25568071007728582 0.12701693177223208 0.11832216382026674 0.14378308504819873 8.5000000000000018 1.0000000180025095e-35 5.5000000000000009 0.29369643330574041 0.048238299787044532 0.05633214861154557 0.061952631920576103 0.065834786742925658 0.070227965712547316 0.03842169605195523 0.081742804497480406 0.093950159847736373
decision_type=2 2 2 2 2 2 2 2 2 2 2 2 2 2 2 2 2 2 2 2 2 2 2 2 2 2 2 2 2 2
left_child=13 2 3 -2 7 -6 9 -5 -9 -7 -3 -12 -10 14 15 16 19 -17 -18 22 -19 -15 27 -24 -25 -26 -27 -1 -28 -30
right_child=1 10 -4 4 5 6 -8 8 12 -11 11 -13 -14 21 -16 17 18 20 -20 -21 -22 -23 23 24 25 26 28 -29 29 -31
leaf_value=-0.054755292611012508 0.023502279512051371 0.058829081039377097 0.035402300721554446 -0.012579258258401869 0.026723602182082813 0.0019500748967765935 -0.0076118737659892069 0.008402289111237209 -0.0048448914294971952 0.013465820911229463 0.053751550283841834 0.056843002552739677 -0.010550433104794693 -0.054351254517771078 -0.055958115391507517 -0.054336408442691997 -0.055411532773309541 -0.054120485108631211 -0.054094951149277648 -0.0555654047581342 -0.054763536049239885 -0.053907024238180161 -0.05551605485854455 -0.054168921965061768 -0.055460258929861506 -0.054230417938632425 -0.055080879358637536 -0.054396374022694954 -0.054503492499557188 -0.054906024305236591
leaf_weight=1.9188494812697157 0.67688714340328981 2.7024849951267242 1.928999602794647 0.32138120755553268 0.76710067689418826 0.47415405511856057 0.40149727836251248 0.4477372020483017 0.30567538924515247 0.7293584793806076 1.9033649191260336 2.1584895551204681 0.19253972545266151 0.30972204217687327 0.058953570201993766 0.60790769662708077 0.40345549676567305 0.098100253380835389 0.044605260249227285 0.065938038751482853 2.1785408216528594 0.40997557621449232 0.2501788251101974 0.2020351588726047 0.15865338314324651 0.12592989113181818 0.44589103013277043 0.32610754296183575 0.48872681614011504 0.90715430304408073
leaf_count=180 4 5 6 9 6 8 9 7 7 9 7 4 5 35 6 63 39 10 5 6 235 53 24 20 16 12 43 32 48 87
internal_value=-1.13431e-09 0.037863 0.0173883 0.00933777 0.00670337 0.0118838 0.00479119 -0.00299295 0.000263941 0.0089289 0.0567666 0.0553944 -0.00704985 -0.0547272 -0.0547819 -0.0547734 -0.0548393 -0.0546517 -0.0552805 -0.0547988 -0.0547358 -0.0540982 -0.0547883 -0.0548625 -0.0547923 -0.0548515 -0.0548024 -0.0547032 -0.0548415 -0.0547651
internal_weight=22.0104 13.0097 6.24533 4.31633 3.63944 2.37211 1.60501 1.26733 0.945952 1.20351 6.76434 4.06185 0.498215 9.00073 8.28103 8.22207 5.33753 2.88455 0.448061 4.88946 2.27664 0.719698 4.82353 2.57857 2.32839 2.12636 1.9677 2.24496 1.84177 1.39588
internal_count=1000 86 70 64 60 32 26 28 19 17 16 11 12 914 826 820 512 308 44 468 245 88 462 250 226 206 190 212 178 135
is_linear=0
shrinkage=0.05


Tree=22
num_leaves=31
num_cat=0
split_feature=4 4 0 0 1 0 0 1 5 1 0 0 1 1 0 0 0 0 0 0 1 1 5 0 0 0 0 0 0 0
split_gain=16.9129 1.96464 0.334742 0.0580595 0.0645657 0.0758884 0.112138 0.0468644 0.0414623 0.056661 0.0615513 0.131727 0.00693322 0.00444848 0.00149536 0.000121681 3.24658e-05 2.16437e-05 3.78566e-05 3.20033e-05 2.57144e-05 1.5159e-05 1.4477e-05 1.51577e-05 4.31579e-05 3.2994e-05 2.60138e-05 1.73578e-05 1.25522e-05 1.21517e-05
threshold=1.0000000180025095e-35 1.5000000000000002 0.43626253306865698 0.1393135488033295 5.5000000000000009 0.37766188383102423 0.3990138322114945 6.5000000000000009 1.5000000000000002 8.5000000000000018 0.33794607222080236 0.33062496781349188 7.5000000000000009 7.5000000000000009 0.28972342610359197 0.26462927460670477 0.25568071007728582 0.12701693177223208 0.11832216382026674 0.14378308504819873 8.5000000000000018 5.5000000000000009 1.0000000180025095e-35 0.048238299787044532 0.05633214861154557 0.061952631920576103 0.065834786742925658 0.070227965712547316 0.03842169605195523 0.22109936922788623
decision_type=2 2 2 2 2 2 2 2 2 2 2 2 2 2 2 2 2 2 2 2 2 2 2 2 2 2 2 2 2 2
left_child=15 2 3 -2 -5 7 -7 -6 9 10 11 13 -3 -9 -15 16 17 18 22 -19 -20 -21 23 28 -25 -26 -27 -28 -1 -23
right_child=1 12 -4 4 5 6 -8 8 -10 -11 -12 -13 -14 14 -16 -17 -18 19 20 21 -22 29 -24 24 25 26 27 -29 -30 -31
leaf_value=-0.054421936963010314 0.022621188742061094 0.058315475704506584 0.034528629765758712 0.024614762171410988 -0.01795992833158265 0.035642250119861954 -0.0040957210069095902 -0.0081874730829265968 -0.0141822040354399 0.026441521543625592 -0.018076592084355365 0.037072660742853196 0.054998996129630974 -0.0021749546470764742 0.0026470824653498847 -0.053757190870866903 -0.055671078030610027 -0.054014918044217958 -0.055103250979313956 -0.053807844736421709 -0.053797486457433069 -0.05439176815502153 -0.055234950461895728 -0.055195982519714672 -0.053856313741259078 -0.055177792574539378 -0.053909164900046963 -0.054533862480694098 -0.054076373463236842 -0.05466891085077985
leaf_weight=1.805462533608081 0.65799241513013651 2.8326535224914551 1.8398667573928831 0.43043233454227481 0.32470465824008066 0.40444169938564289 0.31643658503890038 0.23970669880509399 0.3174583539366721 0.27187370881438244 0.31336039677262295 0.2763509601354599 3.5518401712179184 0.40304416418075562 0.2674742229282856 0.65083347866311658 0.055740120820701011 0.5736832665279511 0.38137933611869801 0.092287753708660936 0.041840370744466782 1.5443020160309973 0.062652735039591678 0.23679971508681807 0.19028707407414946 0.15033800620585713 0.11876043025404204 1.7462058295495806 0.30755175417289127 0.53169605135917652
leaf_count=180 4 5 6 3 6 4 7 7 8 3 6 2 11 9 5 88 6 63 39 10 5 178 6 24 20 16 12 178 32 57
internal_value=-1.30941e-10 0.0371128 0.0167291 0.00897478 0.00645626 0.003963 0.0181989 -0.000288225 0.00245823 0.00543973 0.00163301 0.00683808 0.0564704 -0.00234136 -0.000251412 -0.0544141 -0.0544687 -0.0544601 -0.0545216 -0.054347 -0.0549742 -0.0544349 -0.0544801 -0.0544697 -0.0545545 -0.0544857 -0.0545451 -0.0544941 -0.0543716 -0.0544627
internal_weight=20.9375 12.4476 6.06314 4.22328 3.56528 3.13485 0.720878 2.41397 2.08927 1.77181 1.49994 1.18658 6.38449 0.910225 0.670518 8.48982 7.83899 7.78325 5.04128 2.74197 0.42322 2.16829 4.61806 4.55541 2.44239 2.20559 2.0153 1.86497 2.11301 2.076
internal_count=1000 86 70 64 60 57 11 46 40 32 29 23 16 21 14 914 826 820 512 308 44 245 468 462 250 226 206 190 212 235
is_linear=0
shrinkage=0.05


Tree=23
num_leaves=31
num_cat=0
split_feature=4 4 0 0 1 0 0 0 5 0 0 1 0 0 0 0 0 0 1 1 0 0 0 0 0 0 0 0 0 0
split_gain=15.6756 1.90192 0.305437 0.0513145 0.0594521 0.0172057 0.0463492 0.00888797 0.00828399 0.007571 0.0204693 0.00719868 0.0011039 0.000109148 3.15197e-05 1.79636e-05 3.66606e-05 3.44416e-05 2.27566e-05 1.53549e-05 1.2657e-05 3.77845e-05 2.99231e-05 2.6247e-05 1.73783e-05 1.29529e-05 1.05657e-05 1.05649e-05 1.84734e-05 2.85712e-05
threshold=1.0000000180025095e-35 1.5000000000000002 0.43626253306865698 0.1393135488033295 6.5000000000000009 0.33062496781349188 0.34382709860801702 0.38380901515483862 1.5000000000000002 0.27730888128280645 0.24310979247093203 7.5000000000000009 0.29369643330574041 0.26462927460670477 0.25568071007728582 0.12701693177223208 0.11832216382026674 0.14378308504819873 8.5000000000000018 5.5000000000000009 0.048238299787044532 0.05633214861154557 0.061952631920576103 0.065834786742925658 0.070227965712547316 0.03842169605195523 0.29369643330574041 0.081742804497480406 0.093950159847736373 0.10050746798515321
decision_type=2 2 2 2 2 2 2 2 2 2 2 2 2 2 2 2 2 2 2 2 2 2 2 2 2 2 2 2 2 2
left_child=13 2 3 -2 -5 8 -7 -8 9 10 -6 -3 -11 14 15 16 20 -17 -18 -19 25 -22 -23 -24 -25 -1 -15 -26 -29 -30
right_child=1 11 -4 4 5 6 7 -9 -10 12 -12 -13 -14 26 -16 17 18 19 -20 -21 21 22 23 24 27 -27 -28 28 29 -31
leaf_value=-0.054147338367661779 0.021733490046137133 0.058101817300339489 0.033629841870075276 0.017081838407310913 -0.0034397611329951292 0.017590494876514422 0.0043350369195294756 -0.0069492783110736119 -0.0096282455262184097 -0.0067159560660444402 0.01629318671108566 0.054621283214673626 -0.0019236391820436295 -0.053720981011951358 -0.055398557251859583 -0.053710145237574183 -0.054812368563565132 -0.053504925274992066 -0.053544050283917857 -0.054187962028051817 -0.05488478826271375 -0.053582739413340297 -0.054913294070638288 -0.053601986206852796 -0.05447186249313736 -0.053786031661767458 -0.053301042241451359 -0.053912155792370332 -0.054794927448404446 -0.054136032790640179
leaf_weight=1.744155779480937 0.63897018879651835 2.6723001003265381 1.7541413977742193 0.93668068200349841 0.33391212299466155 0.53835777193307854 0.31633990257978439 0.38917389139533043 0.26229345612227906 0.2344675213098526 0.21671156212687492 3.3453763648867607 0.24649317935109138 0.26532394252717484 0.052704759873449691 0.54004850797355208 0.35987827088683833 0.085897845216095781 0.039220737759023905 1.9539244440384207 0.22352936584502492 0.17902540974319014 0.14179436955600966 0.11146366968750943 0.39728154242038716 0.28918745927512635 0.34396135853603482 0.43478239560499765 0.22547401394695044 0.60866805724799633
leaf_count=184 4 5 6 10 9 6 5 9 7 6 3 11 5 35 6 63 39 10 5 235 24 20 16 12 43 32 53 48 24 65
internal_value=2.76084e-10 0.0364165 0.0161607 0.00871109 0.00631619 0.0023426 0.00654155 -0.00188959 -0.00169407 0.000323295 0.00432663 0.0561669 -0.00425989 -0.0541271 -0.0541802 -0.0541714 -0.0542291 -0.0540652 -0.0546877 -0.0541592 -0.054187 -0.0542668 -0.054201 -0.0542586 -0.0542064 -0.054096 -0.0534839 -0.0542469 -0.0541764 -0.0543141
internal_weight=19.8815 11.8852 5.86754 4.1134 3.47443 2.53775 1.24387 0.705514 1.29388 1.03158 0.550624 6.01768 0.480961 7.99632 7.38704 7.33433 4.75446 2.57987 0.399099 2.03982 4.35536 2.32202 2.09849 1.91946 1.77767 2.03334 0.609285 1.66621 1.26892 0.834142
internal_count=1000 86 70 64 60 50 20 14 30 23 12 16 11 914 826 820 512 308 44 245 468 252 228 208 192 216 88 180 137 89
is_linear=0
shrinkage=0.05


Tree=24
num_leaves=31
num_cat=0
split_feature=4 4 0 1 1 1 0 0 0 0 1 0 0 0 0 0 0 0 0 1 1 0 0 0 0 0 0 0 0 0
split_gain=14.5149 1.8554 0.283707 0.0743199 0.0698292 0.114288 0.0326658 0.0790183 0.0413066 0.02448 0.00760338 0.00698467 0.000748517 0.000105657 9.89441e-05 3.00734e-05 1.47106e-05 3.51006e-05 3.48101e-05 2.04889e-05 1.47565e-05 1.23071e-05 3.4171e-05 2.99149e-05 2.54568e-05 1.65961e-05 1.16916e-05 1.05424e-05 1.66322e-05 2.6141e-05
threshold=1.0000000180025095e-35 1.5000000000000002 0.38965442776679998 8.5000000000000018 5.5000000000000009 6.5000000000000009 0.33794607222080236 0.33062496781349188 0.18971044570207599 0.44567660987377172 7.5000000000000009 0.43626253306865698 0.28098738193511968 0.29369643330574041 0.26462927460670477 0.25568071007728582 0.12701693177223208 0.11832216382026674 0.14378308504819873 8.5000000000000018 5.5000000000000009 0.048238299787044532 0.05633214861154557 0.061952631920576103 0.065834786742925658 0.070227965712547316 0.03842169605195523 0.081742804497480406 0.093950159847736373 0.10050746798515321
decision_type=2 2 2 2 2 2 2 2 2 2 2 2 2 2 2 2 2 2 2 2 2 2 2 2 2 2 2 2 2 2
left_child=14 2 3 4 -2 -6 7 8 -7 11 -3 -4 -10 -14 15 16 17 21 -18 -19 -20 26 -23 -24 -25 -26 -1 -27 -29 -30
right_child=1 10 9 -5 5 6 -8 -9 12 -11 -12 -13 13 -15 -16 -17 18 19 20 -21 -22 22 23 24 25 27 -28 28 29 -31
leaf_value=-0.053884361018331495 0.022677912565322225 0.057965521769593853 0.019628633741785469 0.022725302394406177 -0.022112678291584975 0.017770880808064327 -0.00599824834860232 0.034226296291317369 -0.0033199709979001681 0.034405026006634122 0.054281648326935029 0.028212986929323253 0.00025180707931961034 -0.0012168550231247644 -0.053238234727816483 -0.055149889539235566 -0.053447974697173328 -0.054552680333652376 -0.053250584318243657 -0.0533084262961456 -0.053942457455704064 -0.054612673433917319 -0.053299486085866599 -0.054666761885738546 -0.053337147793262422 -0.054220513296836872 -0.053530973484687085 -0.053658055556532247 -0.054524517835994969 -0.053875302426013322
leaf_weight=1.6450243764556969 0.40484491735696693 2.5238814651966095 0.49978848546743426 0.60077345930039872 0.46365860104560885 0.38028403185308002 0.48171507194638241 0.25716888904571522 0.43392351269721985 1.2183462083339689 3.1473564133048058 0.45058972388505936 0.24971336871385574 0.24030697904527187 0.56913296040147532 0.049667453859001287 0.5080174766480926 0.33921401388943184 0.080440216697752365 0.036661618389189243 1.838036344386637 0.21085726283490691 0.16544674476608623 0.13335850229486812 0.10396317392587651 0.37554423511028279 0.27287498069927085 0.40852652629837372 0.21281966660171747 0.57125346874818206
leaf_count=184 3 5 8 8 8 5 9 2 10 4 11 2 6 5 88 6 63 39 10 5 235 24 20 16 12 43 32 48 24 65
internal_value=-2.03442e-09 0.0356898 0.0154937 0.00671377 0.00341001 0.000298228 0.0053841 0.00889573 0.00390103 0.0297133 0.0559211 0.0236986 -0.00180763 -0.000468428 -0.0538721 -0.053924 -0.0539151 -0.0539689 -0.053816 -0.0544313 -0.0539134 -0.0539265 -0.0540077 -0.053943 -0.0540019 -0.0539489 -0.0538341 -0.0539895 -0.0539167 -0.0540515
internal_weight=18.8732 11.3524 5.68111 3.51239 2.91162 2.50677 2.04311 1.5614 1.30423 2.16872 5.67124 0.950378 0.923944 0.49002 7.52084 6.95171 6.90204 4.47554 2.42649 0.375876 1.91848 4.09967 2.18177 1.97091 1.80547 1.67211 1.9179 1.56814 1.1926 0.784073
internal_count=1000 86 70 56 48 45 37 28 26 14 16 10 21 11 914 826 820 512 308 44 245 468 252 228 208 192 216 180 137 89
is_linear=0
shrinkage=0.05


Tree=25
num_leaves=31
num_cat=0
split_feature=4 0 1 0 0 1 0 2 0 0 0 0 0 1 0 5 0 0 0 0 0 1 0 0 0 0 0 0 0 0
split_gain=13.4359 1.80467 0.195513 0.192974 0.236981 0.140466 0.158958 0.0636984 0.0425277 0.0567021 0.00603543 0.0082724 0.00292181 0.00240829 0.00167654 0.00106774 8.65423e-05 2.70866e-05 1.2229e-05 3.37969e-05 3.28393e-05 1.37289e-05 1.1774e-05 3.01777e-05 2.60367e-05 2.37648e-05 1.59525e-05 1.01204e-05 9.22167e-06 8.80113e-06
threshold=1.0000000180025095e-35 0.44567660987377172 5.5000000000000009 0.40711773931980139 0.38965442776679998 6.5000000000000009 0.1393135488033295 1.0000000180025095e-35 0.32500626146793371 0.33794607222080236 0.24310979247093203 0.28763535618782049 0.21095471084117892 7.5000000000000009 0.3570531457662583 1.5000000000000002 0.26462927460670477 0.25568071007728582 0.12701693177223208 0.14378308504819873 0.11832216382026674 5.5000000000000009 0.048238299787044532 0.05633214861154557 0.061952631920576103 0.065834786742925658 0.070227965712547316 0.03842169605195523 0.29369643330574041 0.081742804497480406
decision_type=2 2 2 2 2 2 2 2 2 2 2 2 2 2 2 2 2 2 2 2 2 2 2 2 2 2 2 2 2 2
left_child=16 2 -2 4 5 -4 -7 -3 10 -10 12 -12 -8 -9 -11 -13 17 18 20 -20 22 -21 27 -24 -25 -26 -27 -1 -18 -28
right_child=1 7 3 -5 -6 6 8 13 9 14 11 15 -14 -15 -16 -17 28 -19 19 21 -22 -23 23 24 25 26 29 -29 -30 -31
leaf_value=-0.053634894665789745 0.03582575393079767 0.046103278695069555 -0.019328080805749746 -0.026838314201278773 0.048544887247067313 0.038081328090670968 -0.010326630460748628 0.057773267990202562 0.024934399248740524 -0.00032247803534007479 0.0069409925061683572 -0.00067866241088716654 -0.0015746242815428654 0.055239915324993498 0.0050101143029985711 -0.0054353536340737609 -0.053253170482110139 -0.054879311098534389 -0.053204244276194058 -0.053016687936222606 -0.054183255344802998 -0.053706310253590142 -0.054347417060131756 -0.053079337140796025 -0.054418415098704924 -0.053080422888250947 -0.053961370651039037 -0.053295818777619845 -0.052833184868818418 -0.053675113098615272
leaf_weight=1.5496203401125996 0.71871003508567621 2.1712928116321564 0.44813086092472154 0.37114484608173359 0.37693307548761357 0.44909302890300784 0.18900288641452812 2.3798998594284062 0.51375285536050774 0.30890622735023499 0.39858655817806721 0.26208226568996906 0.19247833639383316 1.5485239773988722 0.28190125897526741 0.21456057578325272 0.23210904374718655 0.0467631360515951 0.47733140038326416 0.075320331379771122 0.35364234913140524 1.7252306193113325 0.19868627889081869 0.15530510339885939 0.12529183598235238 0.096605874132364877 0.35304102161899198 0.25648465706035484 0.29915982577949762 1.1214655819348989
leaf_count=184 4 6 8 7 3 2 7 5 6 5 8 6 4 6 5 4 35 6 63 10 44 235 24 20 16 12 43 32 53 137
internal_value=1.72091e-09 0.0350074 0.0118123 0.00750475 0.0110109 0.00666905 0.0108145 0.052976 0.00562855 0.012786 -0.000662313 0.0016253 -0.00591076 0.0567747 0.00222195 -0.00281988 -0.0536304 -0.0536803 -0.0536716 -0.0535783 -0.0537221 -0.0536775 -0.0536798 -0.0537618 -0.053699 -0.0537557 -0.0537029 -0.0535867 -0.0530167 -0.0537437
internal_weight=17.8911 10.825 4.72528 4.00657 3.63543 3.25849 2.81036 6.09972 2.36127 1.10456 1.25671 0.875229 0.381481 3.92842 0.590807 0.476643 7.06606 6.53479 6.48803 2.27788 4.21014 1.80055 3.8565 2.0504 1.85171 1.6964 1.57111 1.8061 0.531269 1.47451
internal_count=1000 86 69 65 58 55 47 17 45 16 29 18 11 11 10 10 914 826 820 308 512 245 468 252 228 208 192 216 88 180
is_linear=0
shrinkage=0.05


Tree=26
num_leaves=31
num_cat=0
split_feature=4 4 0 0 1 0 1 0 0 0 0 0 0 0 0 0 0 0 0 0 0 0 0 0 0 0 1 0 0 0
split_gain=12.4278 1.74315 0.247983 0.0597605 0.0492798 0.0380695 0.0205547 0.0225931 0.0172909 0.00802325 0.00813515 0.00595665 0.0115734 0.00193832 0.00155885 0.00105681 7.59071e-05 2.68848e-05 1.06263e-05 3.07688e-05 2.50497e-05 2.58045e-05 1.55003e-05 3.57082e-05 2.594e-05 1.62483e-05 1.37141e-05 1.21969e-05 1.35587e-05 2.06202e-05
threshold=1.0000000180025095e-35 1.5000000000000002 0.38965442776679998 0.1393135488033295 5.5000000000000009 0.44567660987377172 6.5000000000000009 0.33062496781349188 0.34382709860801702 0.57178789377212536 0.50027695298194896 0.28763535618782049 0.24310979247093203 0.21095471084117892 0.311628207564354 0.43626253306865698 0.26462927460670477 0.25568071007728582 0.048238299787044532 0.05633214861154557 0.061952631920576103 0.065834786742925658 0.12701693177223208 0.14378308504819873 0.11832216382026674 0.072169065475463881 5.5000000000000009 0.081742804497480406 0.093950159847736373 0.10050746798515321
decision_type=2 2 2 2 2 2 2 2 2 2 2 2 2 2 2 2 2 2 2 2 2 2 2 2 2 2 2 2 2 2
left_child=16 2 3 -2 -5 15 -6 11 -9 10 -3 12 13 -8 -13 -4 17 18 -1 -20 -21 -22 24 -24 25 -23 -25 -27 -29 -30
right_child=1 9 5 4 6 -7 7 8 -10 -11 -12 14 -14 -15 -16 -17 -18 -19 19 20 21 22 23 26 -26 27 -28 28 29 -31
leaf_value=-0.053347697090480178 0.020718421234989116 0.050756656440477083 0.019128984520376272 0.019665924556113479 -0.012143311951039747 0.034720759541563319 -0.0097043192387738092 0.014318080642822207 2.2026291857929268e-06 0.057692546453169763 0.056180692933332492 -0.010091277379613808 0.0062657987795162566 -0.0024712215810845039 -0.0041848004596196581 0.022572001355334565 -0.052819544173515247 -0.054692110809742012 -0.054122343783803921 -0.052815488446598106 -0.054219039834582594 -0.052945715332863477 -0.05297978419465893 -0.052795662566369528 -0.053974862999815125 -0.053821110867236781 -0.053511691725791045 -0.053208383769814474 -0.054032033496571465 -0.053419624314478165
leaf_weight=1.6894433265551949 0.56699835136532639 1.286360986530781 0.47350481152534474 0.37728590518236194 0.29488718137145076 1.0717323347926138 0.18468427471816562 0.49022661149501789 0.37020279467105865 2.2398132830858231 1.4943569451570509 0.21484916470944881 0.3897020947188139 0.18580938503146172 0.23269666731357574 0.42106551676988602 0.49504073895514 0.044183975085616001 0.18726606480777253 0.14239901211112727 0.11790841398760665 0.12706180335953865 0.44685071799904141 0.069741894025355466 0.33291915990412224 0.29534678440541018 1.6250887503847478 0.35957279009744503 0.18907104805111885 0.50345440860837698
leaf_count=216 4 6 8 3 6 4 7 6 7 5 5 6 8 4 5 2 88 6 24 20 16 16 63 10 44 39 235 48 24 65
internal_value=8.38113e-10 0.0343781 0.0143028 0.00594268 0.00288547 0.0283646 0.000206302 0.00196715 0.00815862 0.0554654 0.0536715 -0.00244382 0.00025044 -0.00607679 -0.00702027 0.0207496 -0.0534151 -0.0534632 -0.0534543 -0.0534952 -0.0534673 -0.0534902 -0.0534684 -0.0533774 -0.0535762 -0.0534862 -0.0534822 -0.0535372 -0.0534575 -0.0535868
internal_weight=16.9195 10.2942 5.27365 3.30734 2.74034 1.9663 2.36306 2.06817 0.860429 5.02053 2.78072 1.20774 0.760196 0.370494 0.447546 0.89457 6.62535 6.13031 6.08612 4.39668 4.20941 4.06702 3.94911 2.14168 1.80743 1.47451 1.69483 1.34745 1.0521 0.692525
internal_count=1000 86 70 56 52 14 49 43 13 16 11 30 19 11 11 10 914 826 820 604 580 560 544 308 236 192 245 176 137 89
is_linear=0
shrinkage=0.05


Tree=27
num_leaves=31
num_cat=0
split_feature=4 4 0 1 1 1 0 0 0 0 0 0 0 0 0 0 0 0 0 0 0 0 0 0 0 1 0 0 0 0
split_gain=11.494 1.68534 0.220763 0.0625494 0.0436916 0.0585253 0.0364138 0.02439 0.0587971 0.0292925 0.00837016 0.00874214 0.00152094 0.000581367 0.000274381 7.23582e-05 2.50455e-05 1.20977e-05 2.7561e-05 2.31324e-05 2.38309e-05 1.41055e-05 1.93373e-05 3.50124e-05 1.91174e-05 1.40967e-05 1.16321e-05 1.24004e-05 1.84873e-05 9.86446e-06
threshold=1.0000000180025095e-35 1.5000000000000002 0.38965442776679998 8.5000000000000018 5.5000000000000009 6.5000000000000009 0.44567660987377172 0.33794607222080236 0.33062496781349188 0.18971044570207599 0.57178789377212536 0.50027695298194896 0.43626253306865698 0.28098738193511968 0.29369643330574041 0.26462927460670477 0.25568071007728582 0.048238299787044532 0.05633214861154557 0.061952631920576103 0.065834786742925658 0.072169065475463881 0.12701693177223208 0.14378308504819873 0.11832216382026674 5.5000000000000009 0.081742804497480406 0.093950159847736373 0.10050746798515321 0.03842169605195523
decision_type=2 2 2 2 2 2 2 2 2 2 2 2 2 2 2 2 2 2 2 2 2 2 2 2 2 2 2 2 2 2
left_child=15 2 3 4 -2 -6 12 8 9 -7 11 -3 -4 -11 -15 16 17 29 -19 -20 -21 -22 24 -24 26 -25 -23 -28 -29 -1
right_child=1 10 6 -5 5 7 -8 -9 -10 13 -12 -13 -14 14 -16 -17 -18 18 19 20 21 22 23 25 -26 -27 27 28 -30 -31
leaf_value=-0.05319527199710547 0.018684583462861414 0.050233762740027915 0.017866960712284826 0.021059350922861611 -0.016744121935541721 0.014945176151761042 0.033818482051169205 -0.0064394037982970845 0.030291103999001506 -0.0037340910990857762 0.057596671591348285 0.056029909464728946 0.022076187461331342 6.9516856692046014e-05 -0.0023873334332251651 -0.052614817831661533 -0.054494778401071711 -0.053919347470854133 -0.052632288839343615 -0.054026058682870019 -0.052746431531766336 -0.053629845340202466 -0.052790289006678953 -0.052571756947825232 -0.053780304421086222 -0.053333636430850345 -0.053017083992360416 -0.053825083414374641 -0.053227096500792707 -0.052834848757756486
leaf_weight=1.3643169268034423 0.36425153911113639 1.2066924199461939 0.45916185714304436 0.55471773073077191 0.42332234606146824 0.34288501180708386 1.0119365304708479 0.44047945365309726 0.22806052118539799 0.40175509639084339 2.0989755839109421 1.4115234315395353 0.4029373824596405 0.23392646014690399 0.22100594639778137 0.45252771233208466 0.041537377052008995 0.17626863857731212 0.13306509470567141 0.1106300596147779 0.11927667399868402 0.27721603075042389 0.41992772044613991 0.063219258561730274 0.31271627452224482 1.5317580592818556 0.33686239877715707 0.1780077088624239 0.47187074599787593 0.22052540443837632
leaf_count=184 3 6 8 8 8 5 4 9 2 10 5 5 2 6 5 88 6 24 20 16 16 39 63 10 44 235 48 24 65 32
internal_value=8.22236e-10 0.0337193 0.013749 0.00578882 0.00259912 4.21363e-05 0.0273854 0.00384597 0.00701941 0.00259504 0.0552444 0.0533586 0.0198343 -0.00234805 -0.00112402 -0.0532236 -0.0532714 -0.0532626 -0.0533076 -0.0532803 -0.0533029 -0.0532814 -0.0532991 -0.0531965 -0.0534303 -0.0533034 -0.0533437 -0.0532633 -0.0533909 -0.0531451
internal_weight=16.0114 9.80163 5.08444 3.2104 2.65569 2.29143 1.87404 1.86811 1.42763 1.19957 4.71719 2.61822 0.862099 0.856688 0.454932 6.20973 5.7572 5.71566 4.13082 3.95455 3.82148 3.71085 3.59158 2.01491 1.57667 1.59498 1.26396 0.986741 0.649878 1.58484
internal_count=1000 86 70 56 48 45 14 37 28 26 16 11 10 21 11 914 826 820 604 580 560 544 528 308 220 245 176 137 89 216
is_linear=0
shrinkage=0.05


Tree=28
num_leaves=31
num_cat=0
split_feature=4 4 0 0 1 0 0 0 0 0 0 0 0 0 0 0 0 0 0 0 0 0 0 0 1 1 0 0 0 0
split_gain=10.6253 1.62134 0.198721 0.0423823 0.047034 0.00961104 0.022145 0.00893419 0.0094771 0.00542104 0.0114639 0.00431522 0.0013636 0.00119786 6.28138e-05 2.22464e-05 1.1828e-05 2.40931e-05 2.02475e-05 2.17371e-05 1.4579e-05 1.70365e-05 3.39068e-05 1.76924e-05 1.29576e-05 1.16669e-05 1.00595e-05 1.08773e-05 1.57664e-05 8.50935e-06
threshold=1.0000000180025095e-35 1.5000000000000002 0.43626253306865698 0.1393135488033295 6.5000000000000009 0.38380901515483862 0.33062496781349188 0.57178789377212536 0.50027695298194896 0.21095471084117892 0.25870206952095037 0.34136113524436956 0.28763535618782049 0.311628207564354 0.26462927460670477 0.25568071007728582 0.048238299787044532 0.05633214861154557 0.061952631920576103 0.065834786742925658 0.072169065475463881 0.12701693177223208 0.14378308504819873 0.11832216382026674 5.5000000000000009 8.5000000000000018 0.081742804497480406 0.093950159847736373 0.10050746798515321 0.03842169605195523
decision_type=2 2 2 2 2 2 2 2 2 2 2 2 2 2 2 2 2 2 2 2 2 2 2 2 2 2 2 2 2 2
left_child=14 2 3 -2 -5 6 9 8 -3 -6 -11 -8 -12 -14 15 16 29 -18 -19 -20 -21 23 -23 26 -24 -25 -22 -28 -29 -1
right_child=1 7 -4 4 5 -7 11 -9 -10 10 12 -13 13 -15 -16 -17 17 18 19 20 21 22 24 25 -26 -27 27 28 -30 -31
leaf_value=-0.053008847281140165 0.020182246868703072 0.049628253972623562 0.029653020108709738 0.015303076727460216 -0.0098959923862170403 -0.0064558829878650541 0.013678893915487142 0.057517399873064118 0.055853120788810828 0.0073286282072732994 -0.001043992652950796 0.0059360912412416301 -0.0085914360637715358 -0.0032854776693294709 -0.052454902714665089 -0.054279506791665204 -0.05371691219570579 -0.052473148670930225 -0.053835637248990265 -0.052535063973664455 -0.053435290670600738 -0.052605898400391239 -0.052401469090488678 -0.053697167761716139 -0.053158263889784729 -0.052638032833473736 -0.052844691807112654 -0.053619784205482982 -0.053049974470047036 -0.052662931071903632
leaf_weight=1.280866016168148 0.52430421859025811 1.1296791732311251 1.3401164337992666 0.7867151536047462 0.17526635341346286 0.35487673059105862 0.31977819651365269 1.9662332683801649 1.3328527212142942 0.32500162906944752 0.22877297177910805 0.41152302175760269 0.20433678291738033 0.22186150588095188 0.42057357449084509 0.038978627882897743 0.16553460899740491 0.12435003556311164 0.10365968057885799 0.11023726500570807 0.25959202973172091 0.39200879400596012 0.05888233333826054 0.2654554396867751 1.4339260407723484 0.028824375011026859 0.31540188239887357 0.16733348555862904 0.44222856173291802 0.20643864013254631
leaf_count=184 4 6 6 10 7 9 4 5 5 6 6 7 6 5 88 6 24 20 16 16 39 63 10 39 235 5 48 24 65 32
internal_value=-3.19521e-10 0.0330865 0.0132465 0.00705738 0.00478488 0.0010931 0.00251313 0.0550042 0.0529975 -0.00179696 -0.000348467 0.00932181 -0.0041579 -0.00582937 -0.0530434 -0.0530893 -0.0530807 -0.0531267 -0.0531004 -0.0531222 -0.0531009 -0.0531194 -0.0530197 -0.0532464 -0.0531284 -0.0535934 -0.0531602 -0.0530831 -0.0532064 -0.0529608
